{"learner":{"attributes":{"best_iteration":"299","best_ntree_limit":"300","scikit_learn":"{\"use_label_encoder\": null, \"n_estimators\": 300, \"objective\": \"binary:logistic\", \"max_depth\": 4, \"max_leaves\": null, \"max_bin\": null, \"grow_policy\": null, \"learning_rate\": 0.6, \"verbosity\": null, \"booster\": null, \"tree_method\": \"gpu_hist\", \"gamma\": null, \"min_child_weight\": null, \"max_delta_step\": null, \"subsample\": null, \"sampling_method\": null, \"colsample_bytree\": null, \"colsample_bylevel\": null, \"colsample_bynode\": null, \"reg_alpha\": null, \"reg_lambda\": null, \"scale_pos_weight\": null, \"base_score\": null, \"missing\": NaN, \"num_parallel_tree\": null, \"random_state\": null, \"n_jobs\": -1, \"monotone_constraints\": null, \"interaction_constraints\": null, \"importance_type\": null, \"gpu_id\": 0, \"validate_parameters\": null, \"predictor\": null, \"enable_categorical\": false, \"feature_types\": null, \"max_cat_to_onehot\": null, \"max_cat_threshold\": null, \"eval_metric\": null, \"early_stopping_rounds\": null, \"callbacks\": null, \"classes_\": [0, 1], \"n_classes_\": 2, \"_estimator_type\": \"classifier\"}"},"feature_names":[],"feature_types":[],"gradient_booster":{"model":{"gbtree_model_param":{"num_parallel_tree":"1","num_trees":"300","size_leaf_vector":"0"},"tree_info":[0,0,0,0,0,0,0,0,0,0,0,0,0,0,0,0,0,0,0,0,0,0,0,0,0,0,0,0,0,0,0,0,0,0,0,0,0,0,0,0,0,0,0,0,0,0,0,0,0,0,0,0,0,0,0,0,0,0,0,0,0,0,0,0,0,0,0,0,0,0,0,0,0,0,0,0,0,0,0,0,0,0,0,0,0,0,0,0,0,0,0,0,0,0,0,0,0,0,0,0,0,0,0,0,0,0,0,0,0,0,0,0,0,0,0,0,0,0,0,0,0,0,0,0,0,0,0,0,0,0,0,0,0,0,0,0,0,0,0,0,0,0,0,0,0,0,0,0,0,0,0,0,0,0,0,0,0,0,0,0,0,0,0,0,0,0,0,0,0,0,0,0,0,0,0,0,0,0,0,0,0,0,0,0,0,0,0,0,0,0,0,0,0,0,0,0,0,0,0,0,0,0,0,0,0,0,0,0,0,0,0,0,0,0,0,0,0,0,0,0,0,0,0,0,0,0,0,0,0,0,0,0,0,0,0,0,0,0,0,0,0,0,0,0,0,0,0,0,0,0,0,0,0,0,0,0,0,0,0,0,0,0,0,0,0,0,0,0,0,0,0,0,0,0,0,0,0,0,0,0,0,0,0,0,0,0,0,0,0,0,0,0,0,0,0,0,0,0,0,0],"trees":[{"base_weights":[-7.851676E-8,2.4632578E-1,-1.140787E0,5.208699E-1,-7.839868E-1,-1.2989866E0,-1.4273205E-1,7.722633E-1,-2.0055039E-2,-9.8960376E-1,5.7630956E-2,-1.4156739E0,-2.3481433E-1,-4.494208E-1,6.4599365E-1,5.672447E-1,1.7687345E-1,-1.7966193E-1,5.245635E-1,-6.921624E-1,-1.1549473E-2,-5.9638373E-3,3.5972792E-1,-9.092967E-1,-4.567126E-2,-2.9837814E-1,3.4585825E-1,-3.171066E-1,-1.3777103E-1,9.355124E-1,-1.7009388E-1],"categories":[],"categories_nodes":[],"categories_segments":[],"categories_sizes":[],"default_left":[0,0,0,0,0,0,0,0,0,0,0,0,0,0,0,0,0,0,0,0,0,0,0,0,0,0,0,0,0,0,0],"id":0,"left_children":[1,3,5,7,9,11,13,15,17,19,21,23,25,27,29,-1,-1,-1,-1,-1,-1,-1,-1,-1,-1,-1,-1,-1,-1,-1,-1],"loss_changes":[1.6383928E6,1.3563682E6,1.6347862E5,5.1486512E5,1.7459019E5,1.10977875E5,3.426768E4,2.1369675E5,3.001592E5,1.29030125E5,7.2535913E3,1.07695375E5,1.8805836E4,1.7730977E3,3.3665977E4,0E0,0E0,0E0,0E0,0E0,0E0,0E0,0E0,0E0,0E0,0E0,0E0,0E0,0E0,0E0,0E0],"parents":[2147483647,0,0,1,1,2,2,3,3,4,4,5,5,6,6,7,7,8,8,9,9,10,10,11,11,12,12,13,13,14,14],"right_children":[2,4,6,8,10,12,14,16,18,20,22,24,26,28,30,-1,-1,-1,-1,-1,-1,-1,-1,-1,-1,-1,-1,-1,-1,-1,-1],"split_conditions":[1E0,1E0,1E0,1E0,1E0,1E0,1E0,1E0,1E0,1E0,1E0,1E0,1E0,1E0,1E0,5.672447E-1,1.7687345E-1,-1.7966193E-1,5.245635E-1,-6.921624E-1,-1.1549473E-2,-5.9638373E-3,3.5972792E-1,-9.092967E-1,-4.567126E-2,-2.9837814E-1,3.4585825E-1,-3.171066E-1,-1.3777103E-1,9.355124E-1,-1.7009388E-1],"split_indices":[27,24,4,8,4,3,8,26,4,3,32,6,8,9,16,0,0,0,0,0,0,0,0,0,0,0,0,0,0,0,0],"split_type":[0,0,0,0,0,0,0,0,0,0,0,0,0,0,0,0,0,0,0,0,0,0,0,0,0,0,0,0,0,0,0],"sum_hessian":[5.8304675E6,4.795084E6,1.03538375E6,3.7861902E6,1.0088937E6,8.937215E5,1.4166222E5,2.5848758E6,1.2013144E6,8.1080456E5,1.9808911E5,8.054077E5,8.831385E4,1.0200063E5,3.966158E4,1.8969806E6,6.878951E5,9.153624E5,2.85952E5,6.935818E5,1.1722278E5,1.7612883E5,2.1960273E4,7.4955256E5,5.5855125E4,6.672501E4,2.1588844E4,7.500914E4,2.699149E4,2.000576E4,1.965582E4],"tree_param":{"num_deleted":"0","num_feature":"39","num_nodes":"31","size_leaf_vector":"0"}},{"base_weights":[-5.4184548E-3,-1.6010402E-1,4.927429E-1,-3.900391E-1,2.5468102E-1,5.543558E-1,-8.867876E-2,-7.329162E-1,2.2896235E-1,3.1705752E-1,-3.3751988E-1,6.4822E-1,3.89226E-2,-1.6263509E-1,5.039156E-1,-6.482234E-1,2.5133234E-1,7.204946E-2,6.0235643E-1,2.107128E-1,-1.1151131E-1,-2.5440884E-1,-4.5023244E-2,3.3705568E-1,5.6963056E-1,-8.793937E-3,2.8436124E-1,9.5843966E-4,-1.8451226E-1,1.495579E-1,6.6794634E-1],"categories":[],"categories_nodes":[],"categories_segments":[],"categories_sizes":[],"default_left":[0,0,0,0,0,0,0,0,0,0,0,0,0,0,0,0,0,0,0,0,0,0,0,0,0,0,0,0,0,0,0],"id":1,"left_children":[1,3,5,7,9,11,13,15,17,19,21,23,25,27,29,-1,-1,-1,-1,-1,-1,-1,-1,-1,-1,-1,-1,-1,-1,-1,-1],"loss_changes":[4.186375E5,3.9537144E5,4.611272E4,5.6605575E5,5.4613742E4,5.631E4,5.4055127E3,6.8687725E5,8.0218914E4,2.2959016E4,3.1985732E3,2.5637125E4,4.179126E3,2.6092063E3,2.1231948E3,0E0,0E0,0E0,0E0,0E0,0E0,0E0,0E0,0E0,0E0,0E0,0E0,0E0,0E0,0E0,0E0],"parents":[2147483647,0,0,1,1,2,2,3,3,4,4,5,5,6,6,7,7,8,8,9,9,10,10,11,11,12,12,13,13,14,14],"right_children":[2,4,6,8,10,12,14,16,18,20,22,24,26,28,30,-1,-1,-1,-1,-1,-1,-1,-1,-1,-1,-1,-1,-1,-1,-1,-1],"split_conditions":[1E0,1E0,1E0,1E0,1E0,1E0,1E0,1E0,1E0,1E0,1E0,1E0,1E0,1E0,1E0,-6.482234E-1,2.5133234E-1,7.204946E-2,6.0235643E-1,2.107128E-1,-1.1151131E-1,-2.5440884E-1,-4.5023244E-2,3.3705568E-1,5.6963056E-1,-8.793937E-3,2.8436124E-1,9.5843966E-4,-1.8451226E-1,1.495579E-1,6.6794634E-1],"split_indices":[3,17,27,16,27,24,32,15,32,38,5,8,32,17,8,0,0,0,0,0,0,0,0,0,0,0,0,0,0,0,0],"split_type":[0,0,0,0,0,0,0,0,0,0,0,0,0,0,0,0,0,0,0,0,0,0,0,0,0,0,0,0,0,0,0],"sum_hessian":[5.4327305E6,4.1454995E6,1.2872309E6,2.6670352E6,1.4784644E6,1.1638936E6,1.2333716E5,1.7163275E6,9.5070775E5,1.3375778E6,1.4088655E5,9.84592E5,1.793017E5,1.0965308E5,1.368408E4,1.3185654E6,3.9776206E5,8.3359206E5,1.1711567E5,1.252571E6,8.5006766E4,1.059669E5,3.4919652E4,7.649788E5,2.1961314E5,1.5964028E5,1.9661428E4,5.1395504E4,5.8257574E4,9.651783E3,4.0322961E3],"tree_param":{"num_deleted":"0","num_feature":"39","num_nodes":"31","size_leaf_vector":"0"}},{"base_weights":[-1.4509185E-2,-1.0500842E-1,3.5393277E-1,-1.9045965E-1,3.5017663E-1,2.55547E-1,6.285238E-1,-2.980731E-1,1.9150016E-1,2.4524805E-1,8.452575E-1,2.938636E-1,-3.3622646E-1,1.0329324E0,3.8065964E-1,-2.382289E-1,4.81414E-2,1.3508856E-1,-1.9495682E-1,1.7913514E-1,1.7883616E-2,6.4843607E-1,3.432932E-1,2.0412485E-1,-9.564012E-2,-1.5921937E-1,-3.2826585E-1,9.0787536E-1,3.2791498E-1,2.7336374E-1,-2.3411117E-1],"categories":[],"categories_nodes":[],"categories_segments":[],"categories_sizes":[],"default_left":[0,0,0,0,0,0,0,0,0,0,0,0,0,0,0,0,0,0,0,0,0,0,0,0,0,0,0,0,0,0,0],"id":2,"left_children":[1,3,5,7,9,11,13,15,17,19,21,23,25,27,29,-1,-1,-1,-1,-1,-1,-1,-1,-1,-1,-1,-1,-1,-1,-1,-1],"loss_changes":[1.659891E5,1.5544766E5,2.6519766E4,1.3830722E5,3.2813938E4,1.6387184E4,2.5955562E4,9.829531E4,1.28521E4,5.9862227E3,7.1030703E3,1.4258133E4,6.565996E2,2.2981875E4,9.27524E3,0E0,0E0,0E0,0E0,0E0,0E0,0E0,0E0,0E0,0E0,0E0,0E0,0E0,0E0,0E0,0E0],"parents":[2147483647,0,0,1,1,2,2,3,3,4,4,5,5,6,6,7,7,8,8,9,9,10,10,11,11,12,12,13,13,14,14],"right_children":[2,4,6,8,10,12,14,16,18,20,22,24,26,28,30,-1,-1,-1,-1,-1,-1,-1,-1,-1,-1,-1,-1,-1,-1,-1,-1],"split_conditions":[1E0,1E0,1E0,1E0,1E0,1E0,1E0,1E0,1E0,1E0,1E0,1E0,1E0,1E0,1E0,-2.382289E-1,4.81414E-2,1.3508856E-1,-1.9495682E-1,1.7913514E-1,1.7883616E-2,6.4843607E-1,3.432932E-1,2.0412485E-1,-9.564012E-2,-1.5921937E-1,-3.2826585E-1,9.0787536E-1,3.2791498E-1,2.7336374E-1,-2.3411117E-1],"split_indices":[6,5,8,3,8,38,16,4,38,25,16,27,25,15,27,0,0,0,0,0,0,0,0,0,0,0,0,0,0,0,0],"split_type":[0,0,0,0,0,0,0,0,0,0,0,0,0,0,0,0,0,0,0,0,0,0,0,0,0,0,0,0,0,0,0],"sum_hessian":[4.9781205E6,3.9964788E6,9.8164175E5,3.3648085E6,6.316701E5,7.2270056E5,2.5894119E5,2.6251878E6,7.396208E5,5.2120603E5,1.104641E5,6.787526E5,4.3947906E4,9.839665E4,1.6054455E5,2.0807988E6,5.4438906E5,6.943797E5,4.524115E4,4.178178E5,1.03388195E5,5.93175E4,5.11466E4,6.157907E5,6.296196E4,3.289635E4,1.1051555E4,4.951356E4,4.8883094E4,1.4631888E5,1.4225662E4],"tree_param":{"num_deleted":"0","num_feature":"39","num_nodes":"31","size_leaf_vector":"0"}},{"base_weights":[-6.2624533E-3,-4.953007E-2,3.813626E-1,4.6076298E-2,-2.3102742E-1,-2.605911E-1,4.3284976E-1,1.0113609E-2,3.4837255E-1,-3.9653236E-1,1.9607123E-2,-5.0371605E-1,4.349224E-1,2.991541E-1,6.2344265E-1,-1.3731289E-2,1.5424797E-1,2.6444003E-1,-5.8619104E-2,-3.117959E-1,1.4934005E-1,8.154556E-2,-1.9001247E-1,-3.761672E-1,1.12589195E-1,2.0232141E-1,4.7729367E-1,2.1439348E-1,-1.6389291E-3,4.4883838E-1,1.083433E-1],"categories":[],"categories_nodes":[],"categories_segments":[],"categories_sizes":[],"default_left":[0,0,0,0,0,0,0,0,0,0,0,0,0,0,0,0,0,0,0,0,0,0,0,0,0,0,0,0,0,0,0],"id":3,"left_children":[1,3,5,7,9,11,13,15,17,19,21,23,25,27,29,-1,-1,-1,-1,-1,-1,-1,-1,-1,-1,-1,-1,-1,-1,-1,-1],"loss_changes":[7.997156E4,7.4432164E4,1.5825609E4,3.0543332E4,6.1390312E4,6.0117754E3,1.1294477E4,2.0462328E4,1.2306297E4,7.083639E4,2.3021256E4,2.2444536E3,3.2420422E2,4.5746406E3,1.0085461E4,0E0,0E0,0E0,0E0,0E0,0E0,0E0,0E0,0E0,0E0,0E0,0E0,0E0,0E0,0E0,0E0],"parents":[2147483647,0,0,1,1,2,2,3,3,4,4,5,5,6,6,7,7,8,8,9,9,10,10,11,11,12,12,13,13,14,14],"right_children":[2,4,6,8,10,12,14,16,18,20,22,24,26,28,30,-1,-1,-1,-1,-1,-1,-1,-1,-1,-1,-1,-1,-1,-1,-1,-1],"split_conditions":[1E0,1E0,1E0,1E0,1E0,1E0,1E0,1E0,1E0,1E0,1E0,1E0,1E0,1E0,1E0,-1.3731289E-2,1.5424797E-1,2.6444003E-1,-5.8619104E-2,-3.117959E-1,1.4934005E-1,8.154556E-2,-1.9001247E-1,-3.761672E-1,1.12589195E-1,2.0232141E-1,4.7729367E-1,2.1439348E-1,-1.6389291E-3,4.4883838E-1,1.083433E-1],"split_indices":[32,8,1,35,16,6,8,34,26,15,14,3,8,24,25,0,0,0,0,0,0,0,0,0,0,0,0,0,0,0,0],"split_type":[0,0,0,0,0,0,0,0,0,0,0,0,0,0,0,0,0,0,0,0,0,0,0,0,0,0,0,0,0,0,0],"sum_hessian":[4.7682665E6,4.289467E6,4.787995E5,2.809515E6,1.4799521E6,3.555E4,4.432495E5,2.5108168E6,2.9869838E5,8.913525E5,5.8859956E5,2.634209E4,9.207912E3,2.6051084E5,1.8273866E5,2.2148715E6,2.959453E5,2.4746069E5,5.1237703E4,7.485532E5,1.4279933E5,4.373497E5,1.5124986E5,2.2357217E4,3.9848713E3,7.2460415E3,1.9618705E3,2.1842397E5,4.208687E4,1.4260869E5,4.0129965E4],"tree_param":{"num_deleted":"0","num_feature":"39","num_nodes":"31","size_leaf_vector":"0"}},{"base_weights":[-4.994417E-3,3.7005436E-2,-2.1197255E-1,1.02638364E-1,-1.5344314E-1,-5.8658874E-1,-1.7579262E-1,1.9014859E-1,-1.9019201E-1,-2.2731039E-1,3.813872E-1,-7.0782113E-1,-8.1529E-2,-2.2703825E-1,7.958818E-2,2.3022301E-1,-6.2457595E-2,-3.971711E-1,-7.789872E-2,-1.8028396E-1,3.2606136E-2,3.0719453E-1,1.1359304E-1,-4.8215812E-1,-1.4546649E-1,-7.129161E-2,1.677269E-1,-1.5450995E-1,5.4063953E-2,1.09728895E-1,-7.111346E-2],"categories":[],"categories_nodes":[],"categories_segments":[],"categories_sizes":[],"default_left":[0,0,0,0,0,0,0,0,0,0,0,0,0,0,0,0,0,0,0,0,0,0,0,0,0,0,0,0,0,0,0],"id":4,"left_children":[1,3,5,7,9,11,13,15,17,19,21,23,25,27,29,-1,-1,-1,-1,-1,-1,-1,-1,-1,-1,-1,-1,-1,-1,-1,-1],"loss_changes":[4.0143773E4,4.7985402E4,1.0558035E4,7.316178E4,3.8870688E4,4.200754E3,9.296936E3,1.2518977E5,1.8705514E4,1.7814562E4,2.9949883E3,2.4658242E3,1.7886423E2,5.719041E3,2.4295603E3,0E0,0E0,0E0,0E0,0E0,0E0,0E0,0E0,0E0,0E0,0E0,0E0,0E0,0E0,0E0,0E0],"parents":[2147483647,0,0,1,1,2,2,3,3,4,4,5,5,6,6,7,7,8,8,9,9,10,10,11,11,12,12,13,13,14,14],"right_children":[2,4,6,8,10,12,14,16,18,20,22,24,26,28,30,-1,-1,-1,-1,-1,-1,-1,-1,-1,-1,-1,-1,-1,-1,-1,-1],"split_conditions":[1E0,1E0,1E0,1E0,1E0,1E0,1E0,1E0,1E0,1E0,1E0,1E0,1E0,1E0,1E0,2.3022301E-1,-6.2457595E-2,-3.971711E-1,-7.789872E-2,-1.8028396E-1,3.2606136E-2,3.0719453E-1,1.1359304E-1,-4.8215812E-1,-1.4546649E-1,-7.129161E-2,1.677269E-1,-1.5450995E-1,5.4063953E-2,1.09728895E-1,-7.111346E-2],"split_indices":[24,26,1,27,32,6,9,25,1,6,17,5,31,33,4,0,0,0,0,0,0,0,0,0,0,0,0,0,0,0,0],"split_type":[0,0,0,0,0,0,0,0,0,0,0,0,0,0,0,0,0,0,0,0,0,0,0,0,0,0,0,0,0,0,0],"sum_hessian":[4.6179135E6,3.8389228E6,7.789906E5,2.8550188E6,9.839041E5,6.860649E4,7.103841E5,2.1981252E6,6.568934E5,8.64505E5,1.1939917E5,5.53259E4,1.3280598E4,5.916597E5,1.1872447E5,1.3259225E6,8.7220275E5,7.451321E4,5.823802E5,6.862448E5,1.7826016E5,7.107015E4,4.8329027E4,4.588245E4,9.443446E3,1.2038026E4,1.2425713E3,5.397853E5,5.1874348E4,7.803679E4,4.0687684E4],"tree_param":{"num_deleted":"0","num_feature":"39","num_nodes":"31","size_leaf_vector":"0"}},{"base_weights":[-9.881621E-4,1.5940769E-2,-2.4129531E-1,3.6831647E-2,-2.055064E-1,-3.9304373E-1,-6.656711E-2,-1.5053739E-1,5.355888E-2,-1.1898845E-1,-3.8895208E-1,-2.6046667E-1,-4.9138805E-1,-9.171899E-2,1.3569938E-1,-1.7001839E-1,1.5009204E-1,2.0927565E-2,1.249071E-1,-1.247145E-1,-1.1986786E-2,-1.5898529E-1,-4.7153416E-1,-2.9542363E-1,-1.3504067E-1,-2.4315117E-1,-4.4004065E-1,-6.5534234E-2,8.9592084E-2,1.2879857E-1,-2.6944233E-2],"categories":[],"categories_nodes":[],"categories_segments":[],"categories_sizes":[],"default_left":[0,0,0,0,0,0,0,0,0,0,0,0,0,0,0,0,0,0,0,0,0,0,0,0,0,0,0,0,0,0,0],"id":5,"left_children":[1,3,5,7,9,11,13,15,17,19,21,23,25,27,29,-1,-1,-1,-1,-1,-1,-1,-1,-1,-1,-1,-1,-1,-1,-1,-1],"loss_changes":[1.813407E4,1.926464E4,7.77826E3,1.192627E4,5.6974346E3,2.0469023E3,6.93705E2,1.659847E4,1.0089678E4,2.1463706E3,5.661285E3,5.488076E2,1.8787168E3,5.117171E2,2.1508792E2,0E0,0E0,0E0,0E0,0E0,0E0,0E0,0E0,0E0,0E0,0E0,0E0,0E0,0E0,0E0,0E0],"parents":[2147483647,0,0,1,1,2,2,3,3,4,4,5,5,6,6,7,7,8,8,9,9,10,10,11,11,12,12,13,13,14,14],"right_children":[2,4,6,8,10,12,14,16,18,20,22,24,26,28,30,-1,-1,-1,-1,-1,-1,-1,-1,-1,-1,-1,-1,-1,-1,-1,-1],"split_conditions":[1E0,1E0,1E0,1E0,1E0,1E0,1E0,1E0,1E0,1E0,1E0,1E0,1E0,1E0,1E0,-1.7001839E-1,1.5009204E-1,2.0927565E-2,1.249071E-1,-1.247145E-1,-1.1986786E-2,-1.5898529E-1,-4.7153416E-1,-2.9542363E-1,-1.3504067E-1,-2.4315117E-1,-4.4004065E-1,-6.5534234E-2,8.9592084E-2,1.2879857E-1,-2.6944233E-2],"split_indices":[38,28,17,1,8,8,14,16,35,7,14,1,14,8,3,0,0,0,0,0,0,0,0,0,0,0,0,0,0,0,0],"split_type":[0,0,0,0,0,0,0,0,0,0,0,0,0,0,0,0,0,0,0,0,0,0,0,0,0,0,0,0,0,0,0],"sum_hessian":[4.457577E6,4.164221E6,2.9335616E5,3.8052428E6,3.589781E5,1.5700167E5,1.3635448E5,3.1186772E5,3.493375E6,2.4393389E5,1.15044195E5,6.68651E4,9.013658E4,1.2127452E5,1.5079969E4,2.3422412E5,7.76436E4,3.1168318E6,3.7654338E5,1.28549945E5,1.1538395E5,8.766519E4,2.7379006E4,8.853162E3,5.801194E4,6.647853E4,2.3658043E4,1.1306413E5,8.210392E3,1.0492318E4,4.58765E3],"tree_param":{"num_deleted":"0","num_feature":"39","num_nodes":"31","size_leaf_vector":"0"}},{"base_weights":[-8.861352E-4,-2.3055727E-2,1.18192606E-1,-4.9973585E-2,8.0165096E-2,3.3260158E-1,3.8184658E-2,-3.2144108E-1,-3.0608822E-2,1.1137995E-1,-2.8473413E-1,5.509799E-1,1.9854562E-2,-1.4687525E-1,6.1097823E-2,-2.800025E-1,1.5843752E-1,-3.7888445E-2,6.834694E-2,3.76095E-2,1.4126633E-1,-2.3275696E-1,-5.0229993E-2,1.9693426E0,1.435031E-1,5.1361043E-2,-3.5191727E-1,-1.0418709E-1,1.2975149E-2,2.5395984E-2,1.5188201E-1],"categories":[],"categories_nodes":[],"categories_segments":[],"categories_sizes":[],"default_left":[0,0,0,0,0,0,0,0,0,0,0,0,0,0,0,0,0,0,0,0,0,0,0,0,0,0,0,0,0,0,0],"id":6,"left_children":[1,3,5,7,9,11,13,15,17,19,21,23,25,27,29,-1,-1,-1,-1,-1,-1,-1,-1,-1,-1,-1,-1,-1,-1,-1,-1],"loss_changes":[1.16892705E4,1.0371803E4,1.1921899E4,1.5564567E4,8.794609E3,1.289859E4,2.1461016E3,1.6763516E4,1.2996031E4,4.2971846E3,1.2621221E3,9.470704E4,3.0959187E3,2.5152771E2,1.6234348E3,0E0,0E0,0E0,0E0,0E0,0E0,0E0,0E0,0E0,0E0,0E0,0E0,0E0,0E0,0E0,0E0],"parents":[2147483647,0,0,1,1,2,2,3,3,4,4,5,5,6,6,7,7,8,8,9,9,10,10,11,11,12,12,13,13,14,14],"right_children":[2,4,6,8,10,12,14,16,18,20,22,24,26,28,30,-1,-1,-1,-1,-1,-1,-1,-1,-1,-1,-1,-1,-1,-1,-1,-1],"split_conditions":[1E0,1E0,1E0,1E0,1E0,1E0,1E0,1E0,1E0,1E0,1E0,1E0,1E0,1E0,1E0,-2.800025E-1,1.5843752E-1,-3.7888445E-2,6.834694E-2,3.76095E-2,1.4126633E-1,-2.3275696E-1,-5.0229993E-2,1.9693426E0,1.435031E-1,5.1361043E-2,-3.5191727E-1,-1.0418709E-1,1.2975149E-2,2.5395984E-2,1.5188201E-1],"split_indices":[5,6,17,1,37,15,7,17,9,8,4,16,27,9,31,0,0,0,0,0,0,0,0,0,0,0,0,0,0,0,0],"split_type":[0,0,0,0,0,0,0,0,0,0,0,0,0,0,0,0,0,0,0,0,0,0,0,0,0,0,0,0,0,0,0],"sum_hessian":[4.427874E6,3.7328988E6,6.94975E5,2.9607872E6,7.7211156E5,1.8885895E5,5.0611606E5,1.9713989E5,2.7636472E6,7.1126775E5,6.0843836E4,1.1120696E5,7.765199E4,5.5760094E4,4.5035597E5,1.5795944E5,3.918044E4,2.2557652E6,5.0788212E5,5.107788E5,2.0048894E5,4.0203887E4,2.063995E4,1.1393857E4,9.981311E4,7.005692E4,7.59507E3,4.8115832E4,7.644262E3,4.1025597E5,4.0099996E4],"tree_param":{"num_deleted":"0","num_feature":"39","num_nodes":"31","size_leaf_vector":"0"}},{"base_weights":[-7.862049E-4,1.817339E-2,-9.4644934E-2,4.7400594E-2,-6.436593E-2,-1.265089E-1,5.1634517E-2,2.3411913E-2,2.8105724E-1,-3.6441974E-2,-3.8777125E-1,-1.8241943E-1,-2.8518463E-2,1.4030941E-1,-1.3929513E-1,1.3612588E-3,1.24779545E-1,2.4387425E-1,-1.8390405E-1,-3.754166E-2,1.07997395E-1,-2.773238E-1,-6.8045296E-2,-1.413038E-1,1.660782E-3,2.048092E-2,-1.1203558E-1,5.4550987E-2,3.0418164E-1,-1.3127086E-1,1.02860264E-1],"categories":[],"categories_nodes":[],"categories_segments":[],"categories_sizes":[],"default_left":[0,0,0,0,0,0,0,0,0,0,0,0,0,0,0,0,0,0,0,0,0,0,0,0,0,0,0,0,0,0,0],"id":7,"left_children":[1,3,5,7,9,11,13,15,17,19,21,23,25,27,29,-1,-1,-1,-1,-1,-1,-1,-1,-1,-1,-1,-1,-1,-1,-1,-1],"loss_changes":[7.7968657E3,8.793458E3,3.43202E3,1.5088461E4,8.608164E3,3.312501E3,2.229852E3,9.525982E3,1.8467139E4,4.9619395E3,1.547165E3,3.7846016E3,2.1772405E3,1.6286572E3,1.0317339E3,0E0,0E0,0E0,0E0,0E0,0E0,0E0,0E0,0E0,0E0,0E0,0E0,0E0,0E0,0E0,0E0],"parents":[2147483647,0,0,1,1,2,2,3,3,4,4,5,5,6,6,7,7,8,8,9,9,10,10,11,11,12,12,13,13,14,14],"right_children":[2,4,6,8,10,12,14,16,18,20,22,24,26,28,30,-1,-1,-1,-1,-1,-1,-1,-1,-1,-1,-1,-1,-1,-1,-1,-1],"split_conditions":[1E0,1E0,1E0,1E0,1E0,1E0,1E0,1E0,1E0,1E0,1E0,1E0,1E0,1E0,1E0,1.3612588E-3,1.24779545E-1,2.4387425E-1,-1.8390405E-1,-3.754166E-2,1.07997395E-1,-2.773238E-1,-6.8045296E-2,-1.413038E-1,1.660782E-3,2.048092E-2,-1.1203558E-1,5.4550987E-2,3.0418164E-1,-1.3127086E-1,1.02860264E-1],"split_indices":[24,26,6,34,34,10,4,35,25,31,16,4,4,32,16,0,0,0,0,0,0,0,0,0,0,0,0,0,0,0,0],"split_type":[0,0,0,0,0,0,0,0,0,0,0,0,0,0,0,0,0,0,0,0,0,0,0,0,0,0,0,0,0,0,0],"sum_hessian":[4.3814325E6,3.6451152E6,7.363175E5,2.6919095E6,9.532058E5,6.0461475E5,1.3170277E5,2.4412738E6,2.5063564E5,8.774452E5,7.576059E4,3.8496434E5,2.196504E5,8.993421E4,4.176856E4,2.1903415E6,2.5093216E5,2.0655278E5,4.4082863E4,7.8293344E5,9.451178E4,5.959238E4,1.6168217E4,2.991951E5,8.576925E4,1.57341E5,6.23094E4,7.925886E4,1.0675353E4,3.3260312E4,8.508246E3],"tree_param":{"num_deleted":"0","num_feature":"39","num_nodes":"31","size_leaf_vector":"0"}},{"base_weights":[-5.2249532E-5,1.7775558E-2,-1.0818004E-1,-1.1190531E-2,9.452528E-2,-4.283597E-2,-3.513702E-1,-1.1308232E-1,4.3359388E-2,1.4902064E-1,-7.7279426E-2,2.327112E-3,-4.9424076E-1,-3.82298E-1,-1.2718492E-2,-1.9372614E-1,6.807806E-2,1.2061345E-2,2.3627189E-1,1.2656346E-1,-4.147344E-2,6.825526E-2,-1.09523274E-1,-4.613291E-2,2.0420139E-1,-2.289475E-1,-7.2981507E-1,-2.6703924E-1,-1.2547737E-1,-5.3320844E-2,1.402565E-1],"categories":[],"categories_nodes":[],"categories_segments":[],"categories_sizes":[],"default_left":[0,0,0,0,0,0,0,0,0,0,0,0,0,0,0,0,0,0,0,0,0,0,0,0,0,0,0,0,0,0,0],"id":8,"left_children":[1,3,5,7,9,11,13,15,17,19,21,23,25,27,29,-1,-1,-1,-1,-1,-1,-1,-1,-1,-1,-1,-1,-1,-1,-1,-1],"loss_changes":[8.372693E3,8.289273E3,9.769264E3,1.5045969E4,9.565216E3,9.878792E3,1.3636807E3,4.486203E4,1.4369027E4,1.0476408E4,4.947188E3,1.1794519E4,3.5849795E3,1.2966758E3,2.0454427E2,0E0,0E0,0E0,0E0,0E0,0E0,0E0,0E0,0E0,0E0,0E0,0E0,0E0,0E0,0E0,0E0],"parents":[2147483647,0,0,1,1,2,2,3,3,4,4,5,5,6,6,7,7,8,8,9,9,10,10,11,11,12,12,13,13,14,14],"right_children":[2,4,6,8,10,12,14,16,18,20,22,24,26,28,30,-1,-1,-1,-1,-1,-1,-1,-1,-1,-1,-1,-1,-1,-1,-1,-1],"split_conditions":[1E0,1E0,1E0,1E0,1E0,1E0,1E0,1E0,1E0,1E0,1E0,1E0,1E0,1E0,1E0,-1.9372614E-1,6.807806E-2,1.2061345E-2,2.3627189E-1,1.2656346E-1,-4.147344E-2,6.825526E-2,-1.09523274E-1,-4.613291E-2,2.0420139E-1,-2.289475E-1,-7.2981507E-1,-2.6703924E-1,-1.2547737E-1,-5.3320844E-2,1.402565E-1],"split_indices":[27,16,16,17,4,15,33,15,8,6,8,4,8,9,6,0,0,0,0,0,0,0,0,0,0,0,0,0,0,0,0],"split_type":[0,0,0,0,0,0,0,0,0,0,0,0,0,0,0,0,0,0,0,0,0,0,0,0,0,0,0,0,0,0,0],"sum_hessian":[4.3433985E6,3.728633E6,6.1476575E5,2.7069895E6,1.0216433E6,4.8456622E5,1.3019952E5,9.439043E5,1.7630852E6,7.756213E5,2.46022E5,4.404956E5,4.407062E4,1.1930382E5,1.0895707E4,4.9007028E5,4.5383403E5,1.6533564E6,1.0972891E5,6.041401E5,1.7148116E5,8.7399E4,1.58623E5,3.568625E5,8.363311E4,3.8124184E4,5.9464375E3,8.7563664E4,3.1740154E4,8.3245E3,2.5712075E3],"tree_param":{"num_deleted":"0","num_feature":"39","num_nodes":"31","size_leaf_vector":"0"}},{"base_weights":[-9.939002E-4,-1.598704E-2,1.3696735E-1,-2.7843794E-2,9.76346E-2,1.7863677E-1,-1.4814481E-1,-3.9843515E-2,8.3317645E-2,1.4228576E-1,-5.9633017E-2,8.948771E-2,3.0432773E-1,-3.1549314E-1,-4.110651E-2,-1.3474839E-2,-9.123699E-2,-4.561122E-2,2.3096101E-1,1.165704E-1,2.1181019E-2,-8.058962E-2,1.4270154E-1,8.332852E-2,-4.9319822E-2,1.9228633E-1,-4.9658176E-2,-2.467622E-1,-4.597627E-2,1.2203315E-2,-1.767759E-1],"categories":[],"categories_nodes":[],"categories_segments":[],"categories_sizes":[],"default_left":[0,0,0,0,0,0,0,0,0,0,0,0,0,0,0,0,0,0,0,0,0,0,0,0,0,0,0,0,0,0,0],"id":9,"left_children":[1,3,5,7,9,11,13,15,17,19,21,23,25,27,29,-1,-1,-1,-1,-1,-1,-1,-1,-1,-1,-1,-1,-1,-1,-1,-1],"loss_changes":[8.800521E3,5.1698857E3,4.9547886E3,4.6352344E3,2.546388E3,4.0772373E3,9.525957E2,6.1189287E3,1.627106E4,1.5711582E3,1.7814851E3,1.805293E3,9.4391406E2,4.745857E2,5.0528253E2,0E0,0E0,0E0,0E0,0E0,0E0,0E0,0E0,0E0,0E0,0E0,0E0,0E0,0E0,0E0,0E0],"parents":[2147483647,0,0,1,1,2,2,3,3,4,4,5,5,6,6,7,7,8,8,9,9,10,10,11,11,12,12,13,13,14,14],"right_children":[2,4,6,8,10,12,14,16,18,20,22,24,26,28,30,-1,-1,-1,-1,-1,-1,-1,-1,-1,-1,-1,-1,-1,-1,-1,-1],"split_conditions":[1E0,1E0,1E0,1E0,1E0,1E0,1E0,1E0,1E0,1E0,1E0,1E0,1E0,1E0,1E0,-1.3474839E-2,-9.123699E-2,-4.561122E-2,2.3096101E-1,1.165704E-1,2.1181019E-2,-8.058962E-2,1.4270154E-1,8.332852E-2,-4.9319822E-2,1.9228633E-1,-4.9658176E-2,-2.467622E-1,-4.597627E-2,1.2203315E-2,-1.767759E-1],"split_indices":[32,31,13,33,25,8,7,27,8,26,16,20,17,6,16,0,0,0,0,0,0,0,0,0,0,0,0,0,0,0,0],"split_type":[0,0,0,0,0,0,0,0,0,0,0,0,0,0,0,0,0,0,0,0,0,0,0,0,0,0,0,0,0,0,0],"sum_hessian":[4.254598E6,3.8375478E6,4.1705025E5,3.4749292E6,3.626184E5,3.6387056E5,5.3179688E4,3.136364E6,3.385654E5,2.824311E5,8.018729E4,2.1288144E5,1.5098912E5,2.0744648E4,3.2435037E4,2.7156428E6,4.207211E5,2.2153511E5,1.17030305E5,1.90056E5,9.237509E4,6.4095832E4,1.6091453E4,1.6532027E5,4.756118E4,1.449423E5,6.0468164E3,1.4806874E4,5.937775E3,2.6108152E4,6.3268857E3],"tree_param":{"num_deleted":"0","num_feature":"39","num_nodes":"31","size_leaf_vector":"0"}},{"base_weights":[-5.81781E-4,1.4636036E-2,-6.0459837E-2,2.7434153E-2,-1.2623085E-1,-1.01132855E-1,3.3307394E-1,4.880312E-2,-2.8938716E-2,-2.898671E-2,-3.1992418E-1,-1.2904638E-1,1.6435508E-1,4.1607106E-1,-2.2867285E-1,4.944593E-2,-2.0354614E-2,-3.2587606E-2,9.4658695E-2,-5.7544373E-2,2.9222185E-2,-1.1193485E-1,-4.363964E-1,-9.449107E-2,8.245065E-2,1.0516773E-2,2.64409E-1,3.078819E-1,5.0260134E-2,-1.6852888E-1,2.3469489E-2],"categories":[],"categories_nodes":[],"categories_segments":[],"categories_sizes":[],"default_left":[0,0,0,0,0,0,0,0,0,0,0,0,0,0,0,0,0,0,0,0,0,0,0,0,0,0,0,0,0,0,0],"id":10,"left_children":[1,3,5,7,9,11,13,15,17,19,21,23,25,27,29,-1,-1,-1,-1,-1,-1,-1,-1,-1,-1,-1,-1,-1,-1,-1,-1],"loss_changes":[3.8669534E3,6.1003647E3,1.3764947E4,3.7367007E3,5.3082236E3,5.7760635E3,3.75587E3,6.2535503E3,4.039285E3,9.754796E2,5.11792E3,5.3444697E3,3.0085256E3,2.2638281E3,1.4499933E2,0E0,0E0,0E0,0E0,0E0,0E0,0E0,0E0,0E0,0E0,0E0,0E0,0E0,0E0,0E0,0E0],"parents":[2147483647,0,0,1,1,2,2,3,3,4,4,5,5,6,6,7,7,8,8,9,9,10,10,11,11,12,12,13,13,14,14],"right_children":[2,4,6,8,10,12,14,16,18,20,22,24,26,28,30,-1,-1,-1,-1,-1,-1,-1,-1,-1,-1,-1,-1,-1,-1,-1,-1],"split_conditions":[1E0,1E0,1E0,1E0,1E0,1E0,1E0,1E0,1E0,1E0,1E0,1E0,1E0,1E0,1E0,4.944593E-2,-2.0354614E-2,-3.2587606E-2,9.4658695E-2,-5.7544373E-2,2.9222185E-2,-1.1193485E-1,-4.363964E-1,-9.449107E-2,8.245065E-2,1.0516773E-2,2.64409E-1,3.078819E-1,5.0260134E-2,-1.6852888E-1,2.3469489E-2],"split_indices":[25,29,35,26,8,29,5,24,33,7,14,36,6,3,8,0,0,0,0,0,0,0,0,0,0,0,0,0,0,0,0],"split_type":[0,0,0,0,0,0,0,0,0,0,0,0,0,0,0,0,0,0,0,0,0,0,0,0,0,0,0,0,0,0,0],"sum_hessian":[4.2437385E6,3.383766E6,8.5997256E5,3.101947E6,2.8181903E5,7.7941794E5,8.055467E4,2.2493122E6,8.5263475E5,1.8762344E5,9.41956E4,7.052664E5,7.41515E4,7.0185195E4,1.036948E4,1.5995285E6,6.497838E5,7.5062194E5,1.0201282E5,1.0079814E5,8.68253E4,7.096591E4,2.32297E4,6.3725494E5,6.801146E4,4.842289E4,2.5728615E4,5.4318367E4,1.5866829E4,8.677625E3,1.6918561E3],"tree_param":{"num_deleted":"0","num_feature":"39","num_nodes":"31","size_leaf_vector":"0"}},{"base_weights":[1.2252107E-4,-2.8312262E-2,3.2177333E-2,-9.261784E-3,-1.8574311E-1,5.3536184E-2,-9.281106E-2,-4.618717E-4,-1.1825961E-1,-2.0192826E-1,-1.8929655E-2,6.543856E-2,-8.318233E-2,5.830033E-2,-2.689652E-1,1.7944274E-2,-2.5310999E-2,-8.971122E-2,5.59302E-2,-1.3928556E-1,-6.4468905E-2,-1.138641E-1,1.8767248E-1,1.9421097E-2,6.313054E-2,-9.282529E-2,3.2852624E-2,5.608661E-2,-5.067827E-2,-2.0295486E-1,6.967114E-2],"categories":[],"categories_nodes":[],"categories_segments":[],"categories_sizes":[],"default_left":[0,0,0,0,0,0,0,0,0,0,0,0,0,0,0,0,0,0,0,0,0,0,0,0,0,0,0,0,0,0,0],"id":11,"left_children":[1,3,5,7,9,11,13,15,17,19,21,23,25,27,29,-1,-1,-1,-1,-1,-1,-1,-1,-1,-1,-1,-1,-1,-1,-1,-1],"loss_changes":[3.8515693E3,6.7158774E3,5.30288E3,1.9159962E3,6.5261914E2,2.7606475E3,7.717005E3,2.3420012E3,9.864717E2,6.289756E2,1.2116969E3,2.052982E3,1.3404602E3,7.8368085E2,3.5719375E3,0E0,0E0,0E0,0E0,0E0,0E0,0E0,0E0,0E0,0E0,0E0,0E0,0E0,0E0,0E0,0E0],"parents":[2147483647,0,0,1,1,2,2,3,3,4,4,5,5,6,6,7,7,8,8,9,9,10,10,11,11,12,12,13,13,14,14],"right_children":[2,4,6,8,10,12,14,16,18,20,22,24,26,28,30,-1,-1,-1,-1,-1,-1,-1,-1,-1,-1,-1,-1,-1,-1,-1,-1],"split_conditions":[1E0,1E0,1E0,1E0,1E0,1E0,1E0,1E0,1E0,1E0,1E0,1E0,1E0,1E0,1E0,1.7944274E-2,-2.5310999E-2,-8.971122E-2,5.59302E-2,-1.3928556E-1,-6.4468905E-2,-1.138641E-1,1.8767248E-1,1.9421097E-2,6.313054E-2,-9.282529E-2,3.2852624E-2,5.608661E-2,-5.067827E-2,-2.0295486E-1,6.967114E-2],"split_indices":[7,13,14,11,30,35,8,12,8,8,6,12,8,25,32,0,0,0,0,0,0,0,0,0,0,0,0,0,0,0,0],"split_type":[0,0,0,0,0,0,0,0,0,0,0,0,0,0,0,0,0,0,0,0,0,0,0,0,0,0,0,0,0,0,0],"sum_hessian":[4.2256585E6,2.2392728E6,1.986386E6,1.9975528E6,2.4171989E5,1.6964806E6,2.8990538E5,1.8483294E6,1.492234E5,2.20341E5,2.1378893E4,1.5606176E6,1.35863E5,1.56045E5,1.3386036E5,1.069716E6,7.7861344E5,1.3000693E5,1.9216477E4,1.669497E5,5.339129E4,1.4111495E4,7.267398E3,8.521714E5,7.084463E5,8.946907E4,4.639393E4,1.2519666E5,3.0848352E4,1.1344663E5,2.0413729E4],"tree_param":{"num_deleted":"0","num_feature":"39","num_nodes":"31","size_leaf_vector":"0"}},{"base_weights":[4.9302957E-6,8.104512E-3,-4.917882E-2,-2.2412506E-4,9.763576E-2,-8.8990085E-2,1.7398639E-1,1.1688896E-2,-6.118486E-2,1.5183607E-1,-1.4108664E-1,-6.1457235E-2,-3.6608398E-1,-2.1289404E-2,6.7063135E-1,2.2616202E-2,-1.9959556E-2,-1.7224586E-2,-2.5519702E-1,1.5164314E-1,-6.1103005E-2,-1.16448045E-1,-1.7895788E-2,-2.7056735E-2,-1.6944894E-1,-2.758733E-1,-1.4965604E-1,-6.936832E-2,1.0579974E-1,8.71168E-1,-2.979596E-2],"categories":[],"categories_nodes":[],"categories_segments":[],"categories_sizes":[],"default_left":[0,0,0,0,0,0,0,0,0,0,0,0,0,0,0,0,0,0,0,0,0,0,0,0,0,0,0,0,0,0,0],"id":12,"left_children":[1,3,5,7,9,11,13,15,17,19,21,23,25,27,29,-1,-1,-1,-1,-1,-1,-1,-1,-1,-1,-1,-1,-1,-1,-1,-1],"loss_changes":[1.6792479E3,2.6988113E3,5.295399E3,2.4047297E3,3.9855698E3,3.8587861E3,8.750861E3,3.2381926E3,6.4017026E3,6.425611E3,3.360475E2,1.6633945E3,4.9960938E2,1.2073118E3,1.4331275E4,0E0,0E0,0E0,0E0,0E0,0E0,0E0,0E0,0E0,0E0,0E0,0E0,0E0,0E0,0E0,0E0],"parents":[2147483647,0,0,1,1,2,2,3,3,4,4,5,5,6,6,7,7,8,8,9,9,10,10,11,11,12,12,13,13,14,14],"right_children":[2,4,6,8,10,12,14,16,18,20,22,24,26,28,30,-1,-1,-1,-1,-1,-1,-1,-1,-1,-1,-1,-1,-1,-1,-1,-1],"split_conditions":[1E0,1E0,1E0,1E0,1E0,1E0,1E0,1E0,1E0,1E0,1E0,1E0,1E0,1E0,1E0,2.2616202E-2,-1.9959556E-2,-1.7224586E-2,-2.5519702E-1,1.5164314E-1,-6.1103005E-2,-1.16448045E-1,-1.7895788E-2,-2.7056735E-2,-1.6944894E-1,-2.758733E-1,-1.4965604E-1,-6.936832E-2,1.0579974E-1,8.71168E-1,-2.979596E-2],"split_indices":[27,34,6,20,24,34,8,8,33,26,8,22,8,3,16,0,0,0,0,0,0,0,0,0,0,0,0,0,0,0,0],"split_type":[0,0,0,0,0,0,0,0,0,0,0,0,0,0,0,0,0,0,0,0,0,0,0,0,0,0,0,0,0,0,0],"sum_hessian":[4.2153185E6,3.619294E6,5.960246E5,3.3112648E6,3.0802912E5,5.0579466E5,9.022998E4,2.7699572E6,5.413076E5,2.5103394E5,5.69952E4,4.600809E5,4.5713742E4,6.4765707E4,2.5464268E4,1.7548429E6,1.0151143E6,4.9698372E5,4.432389E4,1.7959683E5,7.143712E4,3.860625E4,1.8388951E4,4.2836053E5,3.1720379E4,2.5349139E4,2.0364605E4,4.3840973E4,2.0924732E4,1.2214224E4,1.3250045E4],"tree_param":{"num_deleted":"0","num_feature":"39","num_nodes":"31","size_leaf_vector":"0"}},{"base_weights":[3.955947E-4,-6.1550923E-3,6.0413998E-2,-2.3573106E-2,2.0314218E-2,2.4551447E-2,1.1421174E-1,-5.5012252E-2,3.4300093E-2,4.071472E-3,1.3162981E-1,6.449595E-2,-1.667361E-1,8.633266E-2,2.91456E-1,-5.6025196E-2,1.602352E-2,-3.433645E-2,7.153337E-2,-2.4881437E-2,3.4653198E-2,9.6765704E-2,-1.1859637E-1,1.5851531E-2,1.1024046E-1,-1.4266694E-1,1.6224165E-2,2.7223228E-2,1.713117E-1,1.0286747E-1,4.4013232E-1],"categories":[],"categories_nodes":[],"categories_segments":[],"categories_sizes":[],"default_left":[0,0,0,0,0,0,0,0,0,0,0,0,0,0,0,0,0,0,0,0,0,0,0,0,0,0,0,0,0,0,0],"id":13,"left_children":[1,3,5,7,9,11,13,15,17,19,21,23,25,27,29,-1,-1,-1,-1,-1,-1,-1,-1,-1,-1,-1,-1,-1,-1,-1,-1],"loss_changes":[1.6437773E3,1.7379004E3,7.937611E2,4.136525E3,2.704946E3,1.8862457E3,8.131365E2,4.618333E3,6.220425E3,3.1917793E3,1.8597368E3,9.271815E2,5.870642E2,1.160139E3,1.186512E3,0E0,0E0,0E0,0E0,0E0,0E0,0E0,0E0,0E0,0E0,0E0,0E0,0E0,0E0,0E0,0E0],"parents":[2147483647,0,0,1,1,2,2,3,3,4,4,5,5,6,6,7,7,8,8,9,9,10,10,11,11,12,12,13,13,14,14],"right_children":[2,4,6,8,10,12,14,16,18,20,22,24,26,28,30,-1,-1,-1,-1,-1,-1,-1,-1,-1,-1,-1,-1,-1,-1,-1,-1],"split_conditions":[1E0,1E0,1E0,1E0,1E0,1E0,1E0,1E0,1E0,1E0,1E0,1E0,1E0,1E0,1E0,-5.6025196E-2,1.602352E-2,-3.433645E-2,7.153337E-2,-2.4881437E-2,3.4653198E-2,9.6765704E-2,-1.1859637E-1,1.5851531E-2,1.1024046E-1,-1.4266694E-1,1.6224165E-2,2.7223228E-2,1.713117E-1,1.0286747E-1,4.4013232E-1],"split_indices":[32,10,8,12,14,16,3,9,8,7,33,9,3,4,25,0,0,0,0,0,0,0,0,0,0,0,0,0,0,0,0],"split_type":[0,0,0,0,0,0,0,0,0,0,0,0,0,0,0,0,0,0,0,0,0,0,0,0,0,0,0,0,0,0,0],"sum_hessian":[4.1809168E6,3.7694972E6,4.1141953E5,2.2734582E6,1.496039E6,2.4685977E5,1.6455975E5,1.4731704E6,8.002879E5,1.3055406E6,1.9049845E5,2.0421619E5,4.2643586E4,1.4219511E5,2.2364646E4,1.0025275E6,4.7064284E5,3.851648E5,4.1512303E5,7.063431E5,5.9919744E5,1.7476472E5,1.5733733E4,1.5478831E5,4.9427875E4,3.1203543E4,1.1440043E4,1.17942695E5,2.4252408E4,1.7590879E4,4.773767E3],"tree_param":{"num_deleted":"0","num_feature":"39","num_nodes":"31","size_leaf_vector":"0"}},{"base_weights":[3.248193E-4,8.947651E-3,-3.3194333E-2,1.4774918E-2,-5.893763E-2,-5.514572E-2,1.9505452E-1,2.1721046E-2,-5.5978257E-2,-1.1640804E-2,-2.1466914E-1,-6.944178E-2,7.096868E-2,1.1253831E-1,5.078717E-1,1.7298743E-2,-2.2912866E-2,-9.089824E-3,-9.449889E-2,-1.7648414E-1,8.12145E-3,-9.630259E-2,-2.3667817E-1,-5.1096253E-2,4.208918E-2,6.8874336E-3,1.5248275E-1,1.4793067E-1,-4.4929773E-2,1.8977712E-1,5.774364E-1],"categories":[],"categories_nodes":[],"categories_segments":[],"categories_sizes":[],"default_left":[0,0,0,0,0,0,0,0,0,0,0,0,0,0,0,0,0,0,0,0,0,0,0,0,0,0,0,0,0,0,0],"id":14,"left_children":[1,3,5,7,9,11,13,15,17,19,21,23,25,27,29,-1,-1,-1,-1,-1,-1,-1,-1,-1,-1,-1,-1,-1,-1,-1,-1],"loss_changes":[1.2044482E3,1.3111853E3,4.272201E3,1.5001914E3,1.9299895E3,1.4024392E3,1.9309568E3,1.184026E3,1.1310916E3,1.4295001E3,5.9438696E2,1.53299E3,8.6300525E2,1.4868345E3,1.3593259E3,0E0,0E0,0E0,0E0,0E0,0E0,0E0,0E0,0E0,0E0,0E0,0E0,0E0,0E0,0E0,0E0],"parents":[2147483647,0,0,1,1,2,2,3,3,4,4,5,5,6,6,7,7,8,8,9,9,10,10,11,11,12,12,13,13,14,14],"right_children":[2,4,6,8,10,12,14,16,18,20,22,24,26,28,30,-1,-1,-1,-1,-1,-1,-1,-1,-1,-1,-1,-1,-1,-1,-1,-1],"split_conditions":[1E0,1E0,1E0,1E0,1E0,1E0,1E0,1E0,1E0,1E0,1E0,1E0,1E0,1E0,1E0,1.7298743E-2,-2.2912866E-2,-9.089824E-3,-9.449889E-2,-1.7648414E-1,8.12145E-3,-9.630259E-2,-2.3667817E-1,-5.1096253E-2,4.208918E-2,6.8874336E-3,1.5248275E-1,1.4793067E-1,-4.4929773E-2,1.8977712E-1,5.774364E-1],"split_indices":[25,28,35,29,26,31,14,19,26,1,6,29,4,7,8,0,0,0,0,0,0,0,0,0,0,0,0,0,0,0,0],"split_type":[0,0,0,0,0,0,0,0,0,0,0,0,0,0,0,0,0,0,0,0,0,0,0,0,0,0,0,0,0,0,0],"sum_hessian":[4.167206E6,3.3145388E6,8.526673E5,3.0525122E6,2.620266E5,7.77859E5,7.48083E4,2.7796258E6,2.7288653E5,2.0098655E5,6.1040047E4,6.9866075E5,7.9198266E4,5.919497E4,1.561333E4,2.4847312E6,2.9489447E5,1.946177E5,7.8268836E4,1.6445482E4,1.8454106E5,4.6909883E4,1.4130165E4,6.2795044E5,7.071025E4,5.9783023E4,1.9415244E4,3.4515125E4,2.4679844E4,1.0984972E4,4.628359E3],"tree_param":{"num_deleted":"0","num_feature":"39","num_nodes":"31","size_leaf_vector":"0"}},{"base_weights":[3.4146928E-4,1.327764E-3,-2.7544802E-1,8.846211E-3,-3.3717692E-2,-2.0623241E-1,-4.8920467E-1,2.9218587E-4,9.906708E-2,4.051196E-2,-1.2944828E-1,-2.5756073E-1,-5.9911147E-2,-6.081399E-1,-2.637967E-1,-9.435553E-3,2.2614278E-2,1.7041884E-2,1.9186991E-1,4.8189074E-2,-4.282608E-2,-1.9678532E-1,4.0697016E-2,-1.8958484E-1,-6.346236E-2,-5.456693E-2,2.3718192E-1,-3.7407267E-1,5.059447E-1,-1.8195742E-1,5.7463106E-2],"categories":[],"categories_nodes":[],"categories_segments":[],"categories_sizes":[],"default_left":[0,0,0,0,0,0,0,0,0,0,0,0,0,0,0,0,0,0,0,0,0,0,0,0,0,0,0,0,0,0,0],"id":15,"left_children":[1,3,5,7,9,11,13,15,17,19,21,23,25,27,29,-1,-1,-1,-1,-1,-1,-1,-1,-1,-1,-1,-1,-1,-1,-1,-1],"loss_changes":[1.1338009E3,1.0943644E3,2.1966211E2,2.639185E3,5.2133564E3,8.426721E1,9.722266E1,1.8711808E3,4.6189937E3,1.8403416E3,1.2549193E4,7.362622E1,4.1224724E1,5.336151E1,1.7858383E1,0E0,0E0,0E0,0E0,0E0,0E0,0E0,0E0,0E0,0E0,0E0,0E0,0E0,0E0,0E0,0E0],"parents":[2147483647,0,0,1,1,2,2,3,3,4,4,5,5,6,6,7,7,8,8,9,9,10,10,11,11,12,12,13,13,14,14],"right_children":[2,4,6,8,10,12,14,16,18,20,22,24,26,28,30,-1,-1,-1,-1,-1,-1,-1,-1,-1,-1,-1,-1,-1,-1,-1,-1],"split_conditions":[1E0,1E0,1E0,1E0,1E0,1E0,1E0,1E0,1E0,1E0,1E0,1E0,1E0,1E0,1E0,-9.435553E-3,2.2614278E-2,1.7041884E-2,1.9186991E-1,4.8189074E-2,-4.282608E-2,-1.9678532E-1,4.0697016E-2,-1.8958484E-1,-6.346236E-2,-5.456693E-2,2.3718192E-1,-3.7407267E-1,5.059447E-1,-1.8195742E-1,5.7463106E-2],"split_indices":[0,14,20,30,8,8,3,8,6,3,16,9,17,8,33,0,0,0,0,0,0,0,0,0,0,0,0,0,0,0,0],"split_type":[0,0,0,0,0,0,0,0,0,0,0,0,0,0,0,0,0,0,0,0,0,0,0,0,0,0,0,0,0,0,0],"sum_hessian":[4.1682342E6,4.1533818E6,1.4852575E4,3.419733E6,7.336488E5,1.1221089E4,3.6314858E3,3.1235808E6,2.9615212E5,4.132301E5,3.204187E5,8.306482E3,2.9146067E3,2.376069E3,1.2554167E3,2.186905E6,9.366758E5,2.2433173E5,7.1820375E4,3.0480088E5,1.0842921E5,1.5970281E5,1.6071589E5,5.997399E3,2.3090837E3,2.7293374E3,1.8526932E2,2.3518237E3,2.4245316E1,1.1313933E3,1.2402341E2],"tree_param":{"num_deleted":"0","num_feature":"39","num_nodes":"31","size_leaf_vector":"0"}},{"base_weights":[-1.2940663E-4,3.6623199E-3,-5.414256E-2,7.966755E-3,-4.249489E-2,-2.7306294E-2,-1.578553E-1,-3.2592562E-3,2.068412E-2,-1.00442715E-1,9.2359655E-2,8.58569E-3,-1.4359593E-1,-2.3242757E-1,8.015417E-2,-1.1918035E-2,1.1259594E-2,5.735235E-3,7.452005E-2,-3.4832563E-2,-1.526024E-1,1.580315E-1,-2.203266E-2,3.2464143E-2,-1.1323443E-1,-4.1705687E-2,-2.0920645E-1,-1.869669E-1,-6.291283E-2,7.4250035E-2,-1.2609161E-1],"categories":[],"categories_nodes":[],"categories_segments":[],"categories_sizes":[],"default_left":[0,0,0,0,0,0,0,0,0,0,0,0,0,0,0,0,0,0,0,0,0,0,0,0,0,0,0,0,0,0,0],"id":16,"left_children":[1,3,5,7,9,11,13,15,17,19,21,23,25,27,29,-1,-1,-1,-1,-1,-1,-1,-1,-1,-1,-1,-1,-1,-1,-1,-1],"loss_changes":[8.506212E2,7.710644E2,7.582701E2,5.0679874E2,2.5869858E3,9.033837E2,9.940281E2,6.8954425E2,1.9167947E3,1.5104648E3,2.1965586E3,1.485524E3,7.755691E2,4.3073975E2,1.6913226E2,0E0,0E0,0E0,0E0,0E0,0E0,0E0,0E0,0E0,0E0,0E0,0E0,0E0,0E0,0E0,0E0],"parents":[2147483647,0,0,1,1,2,2,3,3,4,4,5,5,6,6,7,7,8,8,9,9,10,10,11,11,12,12,13,13,14,14],"right_children":[2,4,6,8,10,12,14,16,18,20,22,24,26,28,30,-1,-1,-1,-1,-1,-1,-1,-1,-1,-1,-1,-1,-1,-1,-1,-1],"split_conditions":[1E0,1E0,1E0,1E0,1E0,1E0,1E0,1E0,1E0,1E0,1E0,1E0,1E0,1E0,1E0,-1.1918035E-2,1.1259594E-2,5.735235E-3,7.452005E-2,-3.4832563E-2,-1.526024E-1,1.580315E-1,-2.203266E-2,3.2464143E-2,-1.1323443E-1,-4.1705687E-2,-2.0920645E-1,-1.869669E-1,-6.291283E-2,7.4250035E-2,-1.2609161E-1],"split_indices":[38,37,26,7,4,6,4,17,33,26,17,5,8,17,15,0,0,0,0,0,0,0,0,0,0,0,0,0,0,0,0],"split_type":[0,0,0,0,0,0,0,0,0,0,0,0,0,0,0,0,0,0,0,0,0,0,0,0,0,0,0,0,0,0,0],"sum_hessian":[4.1533592E6,3.8809195E6,2.7243984E5,3.5498732E6,3.3104606E5,2.1643683E5,5.6003004E4,1.8854919E6,1.6643815E6,2.315485E5,9.9497555E4,1.6539098E5,5.1045844E4,4.2642453E4,1.3360553E4,1.0750476E6,8.1044425E5,1.5028621E6,1.6151927E5,1.8154536E5,5.0003133E4,4.279503E4,5.670252E4,1.343873E5,3.100369E4,3.750012E4,1.3545723E4,2.631031E4,1.6332141E4,1.1616636E4,1.7439166E3],"tree_param":{"num_deleted":"0","num_feature":"39","num_nodes":"31","size_leaf_vector":"0"}},{"base_weights":[-7.0765185E-5,-3.7062168E-3,3.8719743E-2,-8.2335975E-3,3.4180056E-2,6.7329675E-2,-1.0592653E-1,-1.9446146E-2,8.655745E-3,7.0449844E-2,-3.442737E-2,3.4860115E-2,1.8489732E-1,-4.757906E-2,-1.8445438E-1,-2.1616444E-2,2.1931954E-2,1.4094201E-2,-1.6202962E-2,5.8859E-2,-2.3422707E-2,5.1212464E-3,-1.17904596E-1,-6.5894485E-3,7.942649E-2,1.7921883E-1,5.438992E-2,-3.5786363E-3,-1.0094192E-1,-2.0013341E-1,-3.274262E-2],"categories":[],"categories_nodes":[],"categories_segments":[],"categories_sizes":[],"default_left":[0,0,0,0,0,0,0,0,0,0,0,0,0,0,0,0,0,0,0,0,0,0,0,0,0,0,0,0,0,0,0],"id":17,"left_children":[1,3,5,7,9,11,13,15,17,19,21,23,25,27,29,-1,-1,-1,-1,-1,-1,-1,-1,-1,-1,-1,-1,-1,-1,-1,-1],"loss_changes":[5.845575E2,6.500792E2,1.4699285E3,6.411071E2,1.0066902E3,1.1320123E3,2.687401E2,1.8892612E3,7.1457526E2,8.011393E2,9.742444E2,1.0387996E3,6.882761E2,1.6897203E2,4.8418378E2,0E0,0E0,0E0,0E0,0E0,0E0,0E0,0E0,0E0,0E0,0E0,0E0,0E0,0E0,0E0,0E0],"parents":[2147483647,0,0,1,1,2,2,3,3,4,4,5,5,6,6,7,7,8,8,9,9,10,10,11,11,12,12,13,13,14,14],"right_children":[2,4,6,8,10,12,14,16,18,20,22,24,26,28,30,-1,-1,-1,-1,-1,-1,-1,-1,-1,-1,-1,-1,-1,-1,-1,-1],"split_conditions":[1E0,1E0,1E0,1E0,1E0,1E0,1E0,1E0,1E0,1E0,1E0,1E0,1E0,1E0,1E0,-2.1616444E-2,2.1931954E-2,1.4094201E-2,-1.6202962E-2,5.8859E-2,-2.3422707E-2,5.1212464E-3,-1.17904596E-1,-6.5894485E-3,7.942649E-2,1.7921883E-1,5.438992E-2,-3.5786363E-3,-1.0094192E-1,-2.0013341E-1,-3.274262E-2],"split_indices":[31,32,14,10,12,6,8,3,3,13,16,8,17,26,16,0,0,0,0,0,0,0,0,0,0,0,0,0,0,0,0],"split_type":[0,0,0,0,0,0,0,0,0,0,0,0,0,0,0,0,0,0,0,0,0,0,0,0,0,0,0,0,0,0,0],"sum_hessian":[4.1451778E6,3.7899812E6,3.5519662E5,3.3854262E6,4.0455506E5,2.965432E5,5.865344E4,2.0346539E6,1.3507722E6,2.646474E5,1.3990767E5,2.3236928E5,6.4173906E4,3.3651465E4,2.5001977E4,1.5698316E6,4.6482225E5,9.5394025E5,3.96832E5,2.1129102E5,5.335638E4,1.105935E5,2.9314182E4,1.5806461E5,7.4304664E4,2.90703E4,3.5103605E4,2.502233E4,8.629134E3,1.1639125E4,1.3362853E4],"tree_param":{"num_deleted":"0","num_feature":"39","num_nodes":"31","size_leaf_vector":"0"}},{"base_weights":[1.8108622E-5,2.630022E-3,-4.698325E-2,7.3884726E-3,-2.032599E-2,1.3341406E-1,-6.365255E-2,2.2585879E-3,6.34774E-2,-4.981066E-2,5.4177336E-2,9.997005E-2,4.3385732E-1,-4.849962E-2,-2.4877778E-1,5.2207066E-3,-2.1171782E-2,7.3469654E-2,-4.4028323E-2,-4.978964E-2,3.8334794E-2,2.2286648E-2,1.2053869E-1,2.7093135E-2,1.7802419E-1,1.492905E-1,4.3168572E-1,-1.8443456E-2,-1.2698878E-1,-2.0430075E-1,-7.533169E-2],"categories":[],"categories_nodes":[],"categories_segments":[],"categories_sizes":[],"default_left":[0,0,0,0,0,0,0,0,0,0,0,0,0,0,0,0,0,0,0,0,0,0,0,0,0,0,0,0,0,0,0],"id":18,"left_children":[1,3,5,7,9,11,13,15,17,19,21,23,25,27,29,-1,-1,-1,-1,-1,-1,-1,-1,-1,-1,-1,-1,-1,-1,-1,-1],"loss_changes":[5.078793E2,4.2812048E2,6.549459E2,9.340682E2,1.4782092E3,1.8507315E2,5.592728E2,7.194455E2,2.195505E3,1.8184355E3,4.7681555E2,1.7877733E2,9.733444E1,5.339971E2,1.7045007E2,0E0,0E0,0E0,0E0,0E0,0E0,0E0,0E0,0E0,0E0,0E0,0E0,0E0,0E0,0E0,0E0],"parents":[2147483647,0,0,1,1,2,2,3,3,4,4,5,5,6,6,7,7,8,8,9,9,10,10,11,11,12,12,13,13,14,14],"right_children":[2,4,6,8,10,12,14,16,18,20,22,24,26,28,30,-1,-1,-1,-1,-1,-1,-1,-1,-1,-1,-1,-1,-1,-1,-1,-1],"split_conditions":[1E0,1E0,1E0,1E0,1E0,1E0,1E0,1E0,1E0,1E0,1E0,1E0,1E0,1E0,1E0,5.2207066E-3,-2.1171782E-2,7.3469654E-2,-4.4028323E-2,-4.978964E-2,3.8334794E-2,2.2286648E-2,1.2053869E-1,2.7093135E-2,1.7802419E-1,1.492905E-1,4.3168572E-1,-1.8443456E-2,-1.2698878E-1,-2.0430075E-1,-7.533169E-2],"split_indices":[18,20,1,33,3,30,33,27,17,6,34,15,26,27,7,0,0,0,0,0,0,0,0,0,0,0,0,0,0,0,0],"split_type":[0,0,0,0,0,0,0,0,0,0,0,0,0,0,0,0,0,0,0,0,0,0,0,0,0,0,0,0,0,0,0],"sum_hessian":[4.1370535E6,3.9192572E6,2.1779619E5,3.2463388E6,6.7291856E5,1.8422172E4,1.9937402E5,2.97431E6,2.720289E5,4.8212003E5,1.9079855E5,1.6578104E4,1.8440681E3,1.8429066E5,1.5083361E4,2.5386808E6,4.3562916E5,1.9011048E5,8.1918414E4,3.732316E5,1.0888845E5,1.7095362E5,1.984492E4,1.2966584E4,3.611519E3,1.1202068E3,7.2386127E2,1.6619919E5,1.809146E4,8.645934E3,6.4374277E3],"tree_param":{"num_deleted":"0","num_feature":"39","num_nodes":"31","size_leaf_vector":"0"}},{"base_weights":[3.6613994E-5,4.9564494E-3,-2.4384597E-2,1.2892144E-2,-1.9265644E-2,-5.8253137E-3,-1.5966477E-1,2.8423507E-2,-1.55339725E-2,-2.9846441E-2,1.0437811E-1,8.086303E-3,-1.4216739E-1,-1.3990344E-1,-2.8018165E-1,2.6968542E-2,-2.598201E-2,1.656451E-2,-6.51754E-2,-2.5101857E-2,5.4598425E-2,9.194391E-2,-6.1930764E-2,2.572638E-2,-4.458323E-2,9.020455E-2,-1.0265584E-1,-9.177536E-2,-3.6486543E-3,-1.9921824E-1,-5.2289333E-2],"categories":[],"categories_nodes":[],"categories_segments":[],"categories_sizes":[],"default_left":[0,0,0,0,0,0,0,0,0,0,0,0,0,0,0,0,0,0,0,0,0,0,0,0,0,0,0,0,0,0,0],"id":19,"left_children":[1,3,5,7,9,11,13,15,17,19,21,23,25,27,29,-1,-1,-1,-1,-1,-1,-1,-1,-1,-1,-1,-1,-1,-1,-1,-1],"loss_changes":[4.9638693E2,6.60984E2,1.7392925E3,1.1435287E3,1.1101583E3,1.155454E3,1.9899829E2,1.985197E3,3.6753887E3,1.1326049E3,6.7854596E2,1.5845331E3,4.7724634E2,1.25446655E2,1.1779364E2,0E0,0E0,0E0,0E0,0E0,0E0,0E0,0E0,0E0,0E0,0E0,0E0,0E0,0E0,0E0,0E0],"parents":[2147483647,0,0,1,1,2,2,3,3,4,4,5,5,6,6,7,7,8,8,9,9,10,10,11,11,12,12,13,13,14,14],"right_children":[2,4,6,8,10,12,14,16,18,20,22,24,26,28,30,-1,-1,-1,-1,-1,-1,-1,-1,-1,-1,-1,-1,-1,-1,-1,-1],"split_conditions":[1E0,1E0,1E0,1E0,1E0,1E0,1E0,1E0,1E0,1E0,1E0,1E0,1E0,1E0,1E0,2.6968542E-2,-2.598201E-2,1.656451E-2,-6.51754E-2,-2.5101857E-2,5.4598425E-2,9.194391E-2,-6.1930764E-2,2.572638E-2,-4.458323E-2,9.020455E-2,-1.0265584E-1,-9.177536E-2,-3.6486543E-3,-1.9921824E-1,-5.2289333E-2],"split_indices":[24,25,22,26,36,15,15,6,8,35,6,16,1,33,14,0,0,0,0,0,0,0,0,0,0,0,0,0,0,0,0],"split_type":[0,0,0,0,0,0,0,0,0,0,0,0,0,0,0,0,0,0,0,0,0,0,0,0,0,0,0,0,0,0,0],"sum_hessian":[4.1314485E6,3.438698E6,6.9275056E5,2.5901182E6,8.485797E5,6.091777E5,8.357293E4,1.6749596E6,9.151587E5,7.816876E5,6.6892055E4,5.5277625E5,5.6401395E4,7.180167E4,1.1771258E4,1.3613412E6,3.1361834E5,6.253523E5,2.8980638E5,7.111307E5,7.055693E4,5.4147625E4,1.2744428E4,3.886599E5,1.6411638E5,5.0751533E3,5.1326242E4,6.5419324E4,6.3823438E3,9.278363E3,2.4928953E3],"tree_param":{"num_deleted":"0","num_feature":"39","num_nodes":"31","size_leaf_vector":"0"}},{"base_weights":[4.9909235E-5,-5.4169106E-3,1.4955941E-2,-9.1533594E-2,1.8646354E-3,1.8754786E-1,5.830617E-4,9.41144E-3,-4.5596817E-1,-6.4871353E-3,4.0046915E-2,2.5684047E-1,4.769772E-2,1.620952E-2,-1.242501E-1,-3.3513144E-2,1.4441714E-1,-3.545797E-1,1.747021E-1,-1.1871498E-2,1.6100368E-2,3.4727663E-2,-5.9085544E-2,1.9049382E-1,-1.0069098E-2,-1.05709456E-4,2.0821536E-1,2.6025703E-2,-3.925425E-2,-3.346144E-2,-1.2166258E-1],"categories":[],"categories_nodes":[],"categories_segments":[],"categories_sizes":[],"default_left":[0,0,0,0,0,0,0,0,0,0,0,0,0,0,0,0,0,0,0,0,0,0,0,0,0,0,0,0,0,0,0],"id":20,"left_children":[1,3,5,7,9,11,13,15,17,19,21,23,25,27,29,-1,-1,-1,-1,-1,-1,-1,-1,-1,-1,-1,-1,-1,-1,-1,-1],"loss_changes":[3.366171E2,1.895224E3,2.7497075E3,8.668406E3,8.8866675E2,8.257522E2,1.9960632E3,2.7854016E3,5.1553145E3,1.0132527E3,1.2354988E3,9.455918E2,4.0459015E2,2.0168152E3,6.121251E2,0E0,0E0,0E0,0E0,0E0,0E0,0E0,0E0,0E0,0E0,0E0,0E0,0E0,0E0,0E0,0E0],"parents":[2147483647,0,0,1,1,2,2,3,3,4,4,5,5,6,6,7,7,8,8,9,9,10,10,11,11,12,12,13,13,14,14],"right_children":[2,4,6,8,10,12,14,16,18,20,22,24,26,28,30,-1,-1,-1,-1,-1,-1,-1,-1,-1,-1,-1,-1,-1,-1,-1,-1],"split_conditions":[1E0,1E0,1E0,1E0,1E0,1E0,1E0,1E0,1E0,1E0,1E0,1E0,1E0,1E0,1E0,-3.3513144E-2,1.4441714E-1,-3.545797E-1,1.747021E-1,-1.1871498E-2,1.6100368E-2,3.4727663E-2,-5.9085544E-2,1.9049382E-1,-1.0069098E-2,-1.05709456E-4,2.0821536E-1,2.6025703E-2,-3.925425E-2,-3.346144E-2,-1.2166258E-1],"split_indices":[16,1,1,8,9,6,27,15,15,8,13,5,3,4,8,0,0,0,0,0,0,0,0,0,0,0,0,0,0,0,0],"split_type":[0,0,0,0,0,0,0,0,0,0,0,0,0,0,0,0,0,0,0,0,0,0,0,0,0,0,0,0,0,0,0],"sum_hessian":[4.1308472E6,3.0223825E6,1.1084648E6,2.3563114E5,2.7867512E6,8.521207E4,1.02325275E6,1.8452139E5,5.1109758E4,2.2865955E6,5.001558E5,5.6979273E4,2.8232795E4,9.0941425E5,1.1383847E5,1.4391136E5,4.061003E4,4.328834E4,7.821417E3,1.6343246E6,6.522709E5,4.4311294E5,5.704288E4,4.6640996E4,1.0338278E4,2.4340777E4,3.8920164E3,6.823396E5,2.2707464E5,6.0807574E4,5.3030895E4],"tree_param":{"num_deleted":"0","num_feature":"39","num_nodes":"31","size_leaf_vector":"0"}},{"base_weights":[-3.3132528E-4,-7.658085E-3,1.9896587E-2,-3.5435338E-2,3.160045E-2,1.165393E-1,-4.7426246E-2,-5.8246605E-2,7.9566576E-2,1.5571348E-2,3.298835E-1,2.454136E-1,-1.6951242E-1,-2.4478646E-2,-2.4544203E-1,-5.7182983E-2,7.657041E-2,1.9471565E-1,-3.325385E-2,2.9658353E-2,-4.153259E-2,2.973214E-1,-1.3138522E-1,1.4805334E0,-6.996368E-3,-5.251358E-2,-1.988175E-1,2.0075142E-3,-8.748041E-2,-1.3540779E-1,-1.01293E0],"categories":[],"categories_nodes":[],"categories_segments":[],"categories_sizes":[],"default_left":[0,0,0,0,0,0,0,0,0,0,0,0,0,0,0,0,0,0,0,0,0,0,0,0,0,0,0,0,0,0,0],"id":21,"left_children":[1,3,5,7,9,11,13,15,17,19,21,23,25,27,29,-1,-1,-1,-1,-1,-1,-1,-1,-1,-1,-1,-1,-1,-1,-1,-1],"loss_changes":[6.1064874E2,3.2984343E3,7.1281523E3,4.6469355E3,5.99245E3,1.6583158E4,2.9342583E3,1.0181415E4,9.69542E3,3.4148298E3,5.8113975E3,1.7715773E5,1.8540376E3,1.9534833E3,1.9117451E3,0E0,0E0,0E0,0E0,0E0,0E0,0E0,0E0,0E0,0E0,0E0,0E0,0E0,0E0,0E0,0E0],"parents":[2147483647,0,0,1,1,2,2,3,3,4,4,5,5,6,6,7,7,8,8,9,9,10,10,11,11,12,12,13,13,14,14],"right_children":[2,4,6,8,10,12,14,16,18,20,22,24,26,28,30,-1,-1,-1,-1,-1,-1,-1,-1,-1,-1,-1,-1,-1,-1,-1,-1],"split_conditions":[1E0,1E0,1E0,1E0,1E0,1E0,1E0,1E0,1E0,1E0,1E0,1E0,1E0,1E0,1E0,-5.7182983E-2,7.657041E-2,1.9471565E-1,-3.325385E-2,2.9658353E-2,-4.153259E-2,2.973214E-1,-1.3138522E-1,1.4805334E0,-6.996368E-3,-5.251358E-2,-1.988175E-1,2.0075142E-3,-8.748041E-2,-1.3540779E-1,-1.01293E0],"split_indices":[4,17,17,6,8,15,27,15,16,3,6,16,8,24,8,0,0,0,0,0,0,0,0,0,0,0,0,0,0,0,0],"split_type":[0,0,0,0,0,0,0,0,0,0,0,0,0,0,0,0,0,0,0,0,0,0,0,0,0,0,0,0,0,0,0],"sum_hessian":[4.1202948E6,3.024713E6,1.0955818E6,1.7713791E6,1.2533338E6,4.4983606E5,6.457456E5,1.4781754E6,2.9320375E5,1.189418E6,6.3915758E4,3.1011894E5,1.3971712E5,5.786843E5,6.706128E4,1.2324455E6,2.4572986E5,1.0416995E5,1.8903381E5,8.499977E5,3.394203E5,4.909761E4,1.4818147E4,3.2155877E4,2.7796306E5,9.273904E4,4.6978082E4,4.7072684E5,1.0795749E5,6.6156266E4,9.050189E2],"tree_param":{"num_deleted":"0","num_feature":"39","num_nodes":"31","size_leaf_vector":"0"}},{"base_weights":[9.942674E-4,-1.5942162E-2,4.6466745E-2,-3.6369942E-2,4.2436503E-2,6.766278E-2,-2.047345E-2,-9.761306E-2,7.92625E-3,2.4487316E-3,4.0415064E-1,1.1718E-1,-7.182246E-2,-9.5710516E-2,2.5277376E-1,-8.640055E-2,1.2554298E-1,1.0948459E-2,-6.9484875E-2,1.1211131E-2,-5.8111284E-2,4.555534E-1,3.5275656E-4,1.0910785E-1,-4.488184E-2,-7.739484E-2,1.3089938E-1,-9.411784E-2,1.3546754E-1,1.15837224E-1,3.118841E-1],"categories":[],"categories_nodes":[],"categories_segments":[],"categories_sizes":[],"default_left":[0,0,0,0,0,0,0,0,0,0,0,0,0,0,0,0,0,0,0,0,0,0,0,0,0,0,0,0,0,0,0],"id":22,"left_children":[1,3,5,7,9,11,13,15,17,19,21,23,25,27,29,-1,-1,-1,-1,-1,-1,-1,-1,-1,-1,-1,-1,-1,-1,-1,-1],"loss_changes":[3.1487786E3,3.552624E3,1.5743047E3,5.986735E3,1.1169303E4,5.820558E3,5.4857725E3,1.318414E4,1.6354225E3,1.1210924E3,1.1016016E4,7.72117E3,3.6602705E3,4.113464E3,9.184934E2,0E0,0E0,0E0,0E0,0E0,0E0,0E0,0E0,0E0,0E0,0E0,0E0,0E0,0E0,0E0,0E0],"parents":[2147483647,0,0,1,1,2,2,3,3,4,4,5,5,6,6,7,7,8,8,9,9,10,10,11,11,12,12,13,13,14,14],"right_children":[2,4,6,8,10,12,14,16,18,20,22,24,26,28,30,-1,-1,-1,-1,-1,-1,-1,-1,-1,-1,-1,-1,-1,-1,-1,-1],"split_conditions":[1E0,1E0,1E0,1E0,1E0,1E0,1E0,1E0,1E0,1E0,1E0,1E0,1E0,1E0,1E0,-8.640055E-2,1.2554298E-1,1.0948459E-2,-6.9484875E-2,1.1211131E-2,-5.8111284E-2,4.555534E-1,3.5275656E-4,1.0910785E-1,-4.488184E-2,-7.739484E-2,1.3089938E-1,-9.411784E-2,1.3546754E-1,1.15837224E-1,3.118841E-1],"split_indices":[16,3,3,17,8,4,4,4,33,15,15,6,6,6,24,0,0,0,0,0,0,0,0,0,0,0,0,0,0,0,0],"split_type":[0,0,0,0,0,0,0,0,0,0,0,0,0,0,0,0,0,0,0,0,0,0,0,0,0,0,0,0,0,0,0],"sum_hessian":[4.08857E6,2.979021E6,1.109549E6,2.2068155E6,7.7220544E5,8.427117E5,2.6683734E5,9.2622806E5,1.2805875E6,6.9533644E5,7.686897E4,6.219277E5,2.20784E5,2.092282E5,5.760915E4,8.0459494E5,1.21633086E5,1.1819935E6,9.8593984E4,5.976214E5,9.771506E4,4.0888906E4,3.5980066E4,4.6522438E5,1.5670333E5,1.8442631E5,3.6357688E4,1.7579052E5,3.343769E4,4.7082645E4,1.0526506E4],"tree_param":{"num_deleted":"0","num_feature":"39","num_nodes":"31","size_leaf_vector":"0"}},{"base_weights":[7.398374E-4,-6.230753E-3,1.918973E-2,-1.2768057E-2,3.2404855E-2,-1.4108915E-2,4.561822E-2,-2.1605978E-3,-5.7560444E-2,5.911592E-2,-2.1721593E-1,4.6244976E-3,-8.819566E-2,7.172908E-2,-2.0250382E-2,-4.4709314E-3,3.2144252E-2,-6.436221E-2,4.401011E-2,9.597232E-2,-3.1830627E-2,-8.2140006E-2,-4.3252635E-1,1.30021265E-2,-3.3895895E-2,-7.117738E-2,2.3564475E-2,5.45406E-2,-8.697301E-2,-3.528368E-2,9.855843E-2],"categories":[],"categories_nodes":[],"categories_segments":[],"categories_sizes":[],"default_left":[0,0,0,0,0,0,0,0,0,0,0,0,0,0,0,0,0,0,0,0,0,0,0,0,0,0,0,0,0,0,0],"id":23,"left_children":[1,3,5,7,9,11,13,15,17,19,21,23,25,27,29,-1,-1,-1,-1,-1,-1,-1,-1,-1,-1,-1,-1,-1,-1,-1,-1],"loss_changes":[5.207379E2,7.42254E2,9.77104E2,1.194239E3,2.8357021E3,6.818684E2,1.0646254E3,5.9927844E2,3.1318235E3,4.3453745E3,1.6628905E3,4.0853128E2,3.84662E2,1.8415349E3,1.25012E3,0E0,0E0,0E0,0E0,0E0,0E0,0E0,0E0,0E0,0E0,0E0,0E0,0E0,0E0,0E0,0E0],"parents":[2147483647,0,0,1,1,2,2,3,3,4,4,5,5,6,6,7,7,8,8,9,9,10,10,11,11,12,12,13,13,14,14],"right_children":[2,4,6,8,10,12,14,16,18,20,22,24,26,28,30,-1,-1,-1,-1,-1,-1,-1,-1,-1,-1,-1,-1,-1,-1,-1,-1],"split_conditions":[1E0,1E0,1E0,1E0,1E0,1E0,1E0,1E0,1E0,1E0,1E0,1E0,1E0,1E0,1E0,-4.4709314E-3,3.2144252E-2,-6.436221E-2,4.401011E-2,9.597232E-2,-3.1830627E-2,-8.2140006E-2,-4.3252635E-1,1.30021265E-2,-3.3895895E-2,-7.117738E-2,2.3564475E-2,5.45406E-2,-8.697301E-2,-3.528368E-2,9.855843E-2],"split_indices":[16,27,8,8,15,25,4,30,15,17,8,24,4,27,3,0,0,0,0,0,0,0,0,0,0,0,0,0,0,0,0],"split_type":[0,0,0,0,0,0,0,0,0,0,0,0,0,0,0,0,0,0,0,0,0,0,0,0,0,0,0,0,0,0,0],"sum_hessian":[4.049073E6,2.9387708E6,1.1103021E6,2.5134802E6,4.2529053E5,4.9129466E5,6.190075E5,2.0322226E6,4.812575E5,3.8418138E5,4.1109168E4,3.9213994E5,9.915472E4,4.432854E5,1.757221E5,1.8560278E6,1.7619492E5,3.4880725E5,1.3245027E5,2.0230712E5,1.8187425E5,3.5456414E4,5.652755E3,3.0662334E5,8.551659E4,8.004428E4,1.9110436E4,4.072528E5,3.60326E4,1.4535061E5,3.0371479E4],"tree_param":{"num_deleted":"0","num_feature":"39","num_nodes":"31","size_leaf_vector":"0"}},{"base_weights":[1.1885135E-4,3.722328E-3,-2.8747818E-2,-1.3817811E-3,2.6355106E-2,1.0929916E-2,-9.4763786E-2,-8.264789E-3,5.860433E-2,6.503562E-2,-2.3463285E-1,6.1366435E-2,-6.40214E-2,-5.8595985E-2,-2.5088006E-1,-7.088138E-2,-6.947888E-4,7.583074E-2,-6.933353E-2,1.2101809E-1,-9.381555E-3,-1.6181909E-1,-8.8294566E-2,1.6938763E-2,1.3768977E-1,-2.4998698E-2,-1.5494089E-1,9.0738684E-2,-5.276333E-2,-1.6302778E-1,-3.257869E-2],"categories":[],"categories_nodes":[],"categories_segments":[],"categories_sizes":[],"default_left":[0,0,0,0,0,0,0,0,0,0,0,0,0,0,0,0,0,0,0,0,0,0,0,0,0,0,0,0,0,0,0],"id":24,"left_children":[1,3,5,7,9,11,13,15,17,19,21,23,25,27,29,-1,-1,-1,-1,-1,-1,-1,-1,-1,-1,-1,-1,-1,-1,-1,-1],"loss_changes":[4.208549E2,4.1551276E2,1.1761094E3,1.2118138E3,6.681938E3,1.060178E3,9.517283E2,2.0558384E3,3.5662632E3,6.3552773E3,2.620249E2,9.338441E2,4.8980777E2,8.426167E2,1.29828E2,0E0,0E0,0E0,0E0,0E0,0E0,0E0,0E0,0E0,0E0,0E0,0E0,0E0,0E0,0E0,0E0],"parents":[2147483647,0,0,1,1,2,2,3,3,4,4,5,5,6,6,7,7,8,8,9,9,10,10,11,11,12,12,13,13,14,14],"right_children":[2,4,6,8,10,12,14,16,18,20,22,24,26,28,30,-1,-1,-1,-1,-1,-1,-1,-1,-1,-1,-1,-1,-1,-1,-1,-1],"split_conditions":[1E0,1E0,1E0,1E0,1E0,1E0,1E0,1E0,1E0,1E0,1E0,1E0,1E0,1E0,1E0,-7.088138E-2,-6.947888E-4,7.583074E-2,-6.933353E-2,1.2101809E-1,-9.381555E-3,-1.6181909E-1,-8.8294566E-2,1.6938763E-2,1.3768977E-1,-2.4998698E-2,-1.5494089E-1,9.0738684E-2,-5.276333E-2,-1.6302778E-1,-3.257869E-2],"split_indices":[19,6,6,15,15,4,15,1,4,17,3,8,27,1,30,0,0,0,0,0,0,0,0,0,0,0,0,0,0,0,0],"split_type":[0,0,0,0,0,0,0,0,0,0,0,0,0,0,0,0,0,0,0,0,0,0,0,0,0,0,0,0,0,0,0],"sum_hessian":[4.0458875E6,3.5968832E6,4.4900434E5,2.9349898E6,6.6189344E5,2.8044728E5,1.6855706E5,2.6328848E6,3.0210516E5,5.7645844E5,8.543502E4,1.6763912E5,1.12808164E5,1.3685333E5,3.1703734E4,1.5995616E5,2.4729285E6,2.1746983E5,8.4635336E4,2.1397453E5,3.624839E5,6.0985918E4,2.4449107E4,1.400391E5,2.7600035E4,1.0116388E5,1.1644281E4,1.6789527E4,1.20063805E5,2.8665512E4,3.0382227E3],"tree_param":{"num_deleted":"0","num_feature":"39","num_nodes":"31","size_leaf_vector":"0"}},{"base_weights":[3.00903E-4,-9.853031E-3,1.5596157E-2,-1.3962959E-2,3.446224E-2,2.9826418E-2,-6.078097E-3,-5.471453E-3,-4.5111775E-2,6.1131123E-2,-1.9337308E-1,4.480906E-2,-1.1361571E-2,1.5732112E-3,-9.0644665E-2,6.6704354E-3,-1.3919985E-2,-4.583124E-2,2.0761386E-2,1.6240792E-2,1.269553E-1,-6.158246E-2,-1.8749234E-1,3.5711918E-2,4.725511E-3,4.7181662E-2,-2.2400234E-2,-1.3115366E-2,1.7123345E-2,-7.369427E-2,1.56217255E-2],"categories":[],"categories_nodes":[],"categories_segments":[],"categories_sizes":[],"default_left":[0,0,0,0,0,0,0,0,0,0,0,0,0,0,0,0,0,0,0,0,0,0,0,0,0,0,0,0,0,0,0],"id":25,"left_children":[1,3,5,7,9,11,13,15,17,19,21,23,25,27,29,-1,-1,-1,-1,-1,-1,-1,-1,-1,-1,-1,-1,-1,-1,-1,-1],"loss_changes":[6.283508E2,4.4287592E2,4.9788477E2,5.885755E2,1.253971E3,6.0134827E2,4.1397156E2,5.142445E2,1.1883318E3,9.468723E2,2.3369733E2,3.8822302E2,6.07559E2,3.7071906E2,1.9931378E2,0E0,0E0,0E0,0E0,0E0,0E0,0E0,0E0,0E0,0E0,0E0,0E0,0E0,0E0,0E0,0E0],"parents":[2147483647,0,0,1,1,2,2,3,3,4,4,5,5,6,6,7,7,8,8,9,9,10,10,11,11,12,12,13,13,14,14],"right_children":[2,4,6,8,10,12,14,16,18,20,22,24,26,28,30,-1,-1,-1,-1,-1,-1,-1,-1,-1,-1,-1,-1,-1,-1,-1,-1],"split_conditions":[1E0,1E0,1E0,1E0,1E0,1E0,1E0,1E0,1E0,1E0,1E0,1E0,1E0,1E0,1E0,6.6704354E-3,-1.3919985E-2,-4.583124E-2,2.0761386E-2,1.6240792E-2,1.269553E-1,-6.158246E-2,-1.8749234E-1,3.5711918E-2,4.725511E-3,4.7181662E-2,-2.2400234E-2,-1.3115366E-2,1.7123345E-2,-7.369427E-2,1.56217255E-2],"split_indices":[10,33,12,26,15,13,35,7,4,6,8,20,1,7,26,0,0,0,0,0,0,0,0,0,0,0,0,0,0,0,0],"split_type":[0,0,0,0,0,0,0,0,0,0,0,0,0,0,0,0,0,0,0,0,0,0,0,0,0,0,0,0,0,0,0],"sum_hessian":[4.0458612E6,2.4316092E6,1.614252E6,2.2252352E6,2.0637419E5,9.744651E5,6.397868E5,1.7485599E6,4.7667522E5,1.8474939E5,2.1624799E4,7.145417E5,2.5992345E5,5.867046E5,5.308215E4,9.033149E5,8.4524506E5,3.4235984E5,1.343154E5,1.5064564E5,3.4103746E4,1.2275642E4,9.349157E3,5.1100394E5,2.0353775E5,5.8210996E4,2.0171245E5,3.1392025E5,2.727844E5,4.160732E4,1.1474825E4],"tree_param":{"num_deleted":"0","num_feature":"39","num_nodes":"31","size_leaf_vector":"0"}},{"base_weights":[1.9078699E-4,4.3029054E-3,-1.552638E-2,1.0333504E-3,3.781431E-2,-7.6397513E-3,-1.4985551E-1,-5.542898E-3,2.8991288E-2,7.0513256E-2,-1.2976801E-1,4.219567E-3,-7.022453E-2,-2.518691E-1,1.9688389E-1,-1.3891156E-2,7.8110327E-3,2.966542E-2,-8.40997E-3,6.044666E-2,-6.310016E-2,-1.0107447E-1,6.7753275E-3,-2.1970873E-3,4.7405962E-2,-5.7570416E-2,9.399778E-2,-1.2616989E-1,-2.2059754E-1,7.1875155E-2,3.3332965E-1],"categories":[],"categories_nodes":[],"categories_segments":[],"categories_sizes":[],"default_left":[0,0,0,0,0,0,0,0,0,0,0,0,0,0,0,0,0,0,0,0,0,0,0,0,0,0,0,0,0,0,0],"id":26,"left_children":[1,3,5,7,9,11,13,15,17,19,21,23,25,27,29,-1,-1,-1,-1,-1,-1,-1,-1,-1,-1,-1,-1,-1,-1,-1,-1],"loss_changes":[2.6127917E2,3.510859E2,8.881461E2,5.3676636E2,1.5608534E3,5.8772626E2,1.644527E3,7.725051E2,4.8898553E2,1.2658091E3,2.5380164E2,3.9240424E2,7.363268E2,1.7290356E2,2.9217297E2,0E0,0E0,0E0,0E0,0E0,0E0,0E0,0E0,0E0,0E0,0E0,0E0,0E0,0E0,0E0,0E0],"parents":[2147483647,0,0,1,1,2,2,3,3,4,4,5,5,6,6,7,7,8,8,9,9,10,10,11,11,12,12,13,13,14,14],"right_children":[2,4,6,8,10,12,14,16,18,20,22,24,26,28,30,-1,-1,-1,-1,-1,-1,-1,-1,-1,-1,-1,-1,-1,-1,-1,-1],"split_conditions":[1E0,1E0,1E0,1E0,1E0,1E0,1E0,1E0,1E0,1E0,1E0,1E0,1E0,1E0,1E0,-1.3891156E-2,7.8110327E-3,2.966542E-2,-8.40997E-3,6.044666E-2,-6.310016E-2,-1.0107447E-1,6.7753275E-3,-2.1970873E-3,4.7405962E-2,-5.7570416E-2,9.399778E-2,-1.2616989E-1,-2.2059754E-1,7.1875155E-2,3.3332965E-1],"split_indices":[25,34,34,9,27,14,8,10,16,5,3,31,35,20,14,0,0,0,0,0,0,0,0,0,0,0,0,0,0,0,0],"split_type":[0,0,0,0,0,0,0,0,0,0,0,0,0,0,0,0,0,0,0,0,0,0,0,0,0,0,0,0,0,0,0],"sum_hessian":[4.042636E6,3.2042908E6,8.3834525E5,2.919454E6,2.8483678E5,7.9185544E5,4.6489758E4,2.3635112E6,5.559428E5,2.3833338E5,4.6503426E4,6.657097E5,1.2614577E5,3.5921598E4,1.0568158E4,1.2128676E6,1.1506435E6,3.767777E5,1.7916512E5,2.0334247E5,3.4990902E4,3.6493848E4,1.0009577E4,6.022462E5,6.346351E4,1.1329961E5,1.2846163E4,2.6431736E4,9.489862E3,8.699593E3,1.8685663E3],"tree_param":{"num_deleted":"0","num_feature":"39","num_nodes":"31","size_leaf_vector":"0"}},{"base_weights":[1.3676932E-4,-2.5441847E-3,2.5035776E-2,-8.31645E-3,1.2962278E-2,4.957587E-2,-5.3047795E-2,2.2221091E-3,-4.6761412E-2,6.076554E-2,-1.9876305E-2,6.1806586E-2,-1.3413955E-1,-1.049174E-1,1.519432E-1,-9.82517E-3,1.6049111E-2,-3.5432495E-2,2.2016343E-2,7.0819765E-2,-3.347326E-2,-3.466604E-2,2.911058E-2,4.6631876E-2,-3.688349E-2,-5.7228144E-2,-1.7860816E-1,1.4997333E-1,-7.538752E-2,2.0362122E-1,7.59624E-3],"categories":[],"categories_nodes":[],"categories_segments":[],"categories_sizes":[],"default_left":[0,0,0,0,0,0,0,0,0,0,0,0,0,0,0,0,0,0,0,0,0,0,0,0,0,0,0,0,0,0,0],"id":27,"left_children":[1,3,5,7,9,11,13,15,17,19,21,23,25,27,29,-1,-1,-1,-1,-1,-1,-1,-1,-1,-1,-1,-1,-1,-1,-1,-1],"loss_changes":[2.6944568E2,3.261725E2,7.5185297E2,1.0759103E3,1.5517839E3,6.708281E2,9.9765674E2,9.5067303E2,5.8612634E2,2.686891E3,1.5189697E3,5.4912244E2,1.1809412E2,5.5084827E2,4.9462228E2,0E0,0E0,0E0,0E0,0E0,0E0,0E0,0E0,0E0,0E0,0E0,0E0,0E0,0E0,0E0,0E0],"parents":[2147483647,0,0,1,1,2,2,3,3,4,4,5,5,6,6,7,7,8,8,9,9,10,10,11,11,12,12,13,13,14,14],"right_children":[2,4,6,8,10,12,14,16,18,20,22,24,26,28,30,-1,-1,-1,-1,-1,-1,-1,-1,-1,-1,-1,-1,-1,-1,-1,-1],"split_conditions":[1E0,1E0,1E0,1E0,1E0,1E0,1E0,1E0,1E0,1E0,1E0,1E0,1E0,1E0,1E0,-9.82517E-3,1.6049111E-2,-3.5432495E-2,2.2016343E-2,7.0819765E-2,-3.347326E-2,-3.466604E-2,2.911058E-2,4.6631876E-2,-3.688349E-2,-5.7228144E-2,-1.7860816E-1,1.4997333E-1,-7.538752E-2,2.0362122E-1,7.59624E-3],"split_indices":[32,4,4,26,17,11,25,17,33,15,20,20,16,1,17,0,0,0,0,0,0,0,0,0,0,0,0,0,0,0,0],"split_type":[0,0,0,0,0,0,0,0,0,0,0,0,0,0,0,0,0,0,0,0,0,0,0,0,0,0,0,0,0,0,0],"sum_hessian":[4.0364502E6,3.6440815E6,3.9236875E5,2.6555545E6,9.8852706E5,2.9854306E5,9.38257E4,2.084226E6,5.713285E5,4.025429E5,5.859842E5,2.79909E5,1.8634066E4,7.487923E4,1.8946473E4,1.1853915E6,8.988345E5,4.9797797E5,7.335053E4,2.6992088E5,1.3262203E5,3.770452E5,2.0893902E5,2.4790862E5,3.2000363E4,1.5065187E4,3.5688806E3,4.1317793E3,7.074745E4,8.0766772E3,1.0869795E4],"tree_param":{"num_deleted":"0","num_feature":"39","num_nodes":"31","size_leaf_vector":"0"}},{"base_weights":[1.811739E-4,-4.3041715E-3,1.3276257E-2,-1.0742701E-2,5.51071E-2,7.318492E-2,-2.8093081E-2,-3.510025E-3,-4.962938E-2,1.4565702E-1,-4.806653E-2,2.603064E-1,-3.9606616E-2,-1.1492923E-2,-4.9226245E-1,-1.062247E-2,1.7829034E-2,-4.20276E-2,4.3082654E-2,1.3420482E-1,-8.555303E-3,-1.3596048E-2,-1.1288307E-1,1.1149845E0,2.7420334E-4,8.708385E-2,-3.1553723E-2,-2.271213E-2,2.7075779E-2,-2.26462E-1,-5.7885444E-1],"categories":[],"categories_nodes":[],"categories_segments":[],"categories_sizes":[],"default_left":[0,0,0,0,0,0,0,0,0,0,0,0,0,0,0,0,0,0,0,0,0,0,0,0,0,0,0,0,0,0,0],"id":28,"left_children":[1,3,5,7,9,11,13,15,17,19,21,23,25,27,29,-1,-1,-1,-1,-1,-1,-1,-1,-1,-1,-1,-1,-1,-1,-1,-1],"loss_changes":[2.3683694E2,1.1488936E3,2.5496487E3,7.621463E2,2.7435596E3,8.86903E3,4.6889434E3,1.0775322E3,1.0536097E3,1.9513206E3,4.8849008E2,6.562295E4,6.288669E2,8.768949E2,1.1396182E3,0E0,0E0,0E0,0E0,0E0,0E0,0E0,0E0,0E0,0E0,0E0,0E0,0E0,0E0,0E0,0E0],"parents":[2147483647,0,0,1,1,2,2,3,3,4,4,5,5,6,6,7,7,8,8,9,9,10,10,11,11,12,12,13,13,14,14],"right_children":[2,4,6,8,10,12,14,16,18,20,22,24,26,28,30,-1,-1,-1,-1,-1,-1,-1,-1,-1,-1,-1,-1,-1,-1,-1,-1],"split_conditions":[1E0,1E0,1E0,1E0,1E0,1E0,1E0,1E0,1E0,1E0,1E0,1E0,1E0,1E0,1E0,-1.062247E-2,1.7829034E-2,-4.20276E-2,4.3082654E-2,1.3420482E-1,-8.555303E-3,-1.3596048E-2,-1.1288307E-1,1.1149845E0,2.7420334E-4,8.708385E-2,-3.1553723E-2,-2.271213E-2,2.7075779E-2,-2.26462E-1,-5.7885444E-1],"split_indices":[3,22,17,20,4,16,8,17,5,6,24,15,1,20,6,0,0,0,0,0,0,0,0,0,0,0,0,0,0,0,0],"split_type":[0,0,0,0,0,0,0,0,0,0,0,0,0,0,0,0,0,0,0,0,0,0,0,0,0,0,0,0,0,0,0],"sum_hessian":[4.0322278E6,3.0034742E6,1.02875344E6,2.7098072E6,2.936669E5,4.2021775E5,6.085357E5,2.2848422E6,4.249651E5,1.5640142E5,1.3726548E5,1.5803536E5,2.621824E5,5.87525E5,2.1010719E4,1.6009155E6,6.839268E5,3.6379997E5,6.116512E4,1.0511762E5,5.128381E4,1.1619164E5,2.1073852E4,2.2102854E4,1.3593252E5,1.7214248E4,2.4496816E5,4.0088316E5,1.866418E5,1.6904406E4,4.1063125E3],"tree_param":{"num_deleted":"0","num_feature":"39","num_nodes":"31","size_leaf_vector":"0"}},{"base_weights":[1.1955834E-3,-4.392691E-3,1.6299391E-2,-1.190896E-2,1.4756753E-2,3.7850216E-2,-4.8235357E-2,-3.109408E-2,7.252312E-2,4.7336016E-2,-9.813766E-2,1.7177689E-1,2.7632539E-3,-6.0647722E-2,6.9800034E-2,-4.6584737E-2,3.686608E-3,-4.4125842E-4,3.010817E-1,4.683051E-2,-1.8956337E-2,-7.215224E-2,2.1044092E-1,8.330529E-1,-7.278236E-3,-9.532543E-3,3.9092496E-2,-4.468671E-2,3.3739135E-2,1.3945666E-1,-1.1661787E-2],"categories":[],"categories_nodes":[],"categories_segments":[],"categories_sizes":[],"default_left":[0,0,0,0,0,0,0,0,0,0,0,0,0,0,0,0,0,0,0,0,0,0,0,0,0,0,0,0,0,0,0],"id":29,"left_children":[1,3,5,7,9,11,13,15,17,19,21,23,25,27,29,-1,-1,-1,-1,-1,-1,-1,-1,-1,-1,-1,-1,-1,-1,-1,-1],"loss_changes":[3.3985355E2,4.2302744E2,1.5123741E3,3.4188914E3,3.0470078E3,3.8306943E3,3.9884747E2,2.9810771E3,1.2289795E4,1.5586122E3,1.8418647E3,3.786618E4,7.5167596E2,3.9818158E2,3.7592627E2,0E0,0E0,0E0,0E0,0E0,0E0,0E0,0E0,0E0,0E0,0E0,0E0,0E0,0E0,0E0,0E0],"parents":[2147483647,0,0,1,1,2,2,3,3,4,4,5,5,6,6,7,7,8,8,9,9,10,10,11,11,12,12,13,13,14,14],"right_children":[2,4,6,8,10,12,14,16,18,20,22,24,26,28,30,-1,-1,-1,-1,-1,-1,-1,-1,-1,-1,-1,-1,-1,-1,-1,-1],"split_conditions":[1E0,1E0,1E0,1E0,1E0,1E0,1E0,1E0,1E0,1E0,1E0,1E0,1E0,1E0,1E0,-4.6584737E-2,3.686608E-3,-4.4125842E-4,3.010817E-1,4.683051E-2,-1.8956337E-2,-7.215224E-2,2.1044092E-1,8.330529E-1,-7.278236E-3,-9.532543E-3,3.9092496E-2,-4.468671E-2,3.3739135E-2,1.3945666E-1,-1.1661787E-2],"split_indices":[4,16,16,6,6,17,36,17,8,3,5,15,26,37,8,0,0,0,0,0,0,0,0,0,0,0,0,0,0,0,0],"split_type":[0,0,0,0,0,0,0,0,0,0,0,0,0,0,0,0,0,0,0,0,0,0,0,0,0,0,0,0,0,0,0],"sum_hessian":[4.0264972E6,2.9390688E6,1.0874286E6,2.1106332E6,8.2843544E5,8.1519994E5,2.7222862E5,1.719842E6,3.9079128E5,6.429053E5,1.8553014E5,1.692334E5,6.4596656E5,2.4632597E5,2.5902662E4,7.643818E5,9.554602E5,3.3382375E5,5.696756E4,4.6280797E5,1.8009733E5,1.7681895E5,8.711186E3,2.222128E4,1.4701212E5,4.973053E5,1.4866122E5,2.2026306E5,2.6062906E4,9.176839E3,1.6725824E4],"tree_param":{"num_deleted":"0","num_feature":"39","num_nodes":"31","size_leaf_vector":"0"}},{"base_weights":[1.6143973E-3,-3.4903814E-3,1.6339922E-2,-7.4397074E-3,2.7620275E-2,6.054506E-2,-1.3765099E-2,-1.786009E-2,3.716189E-2,8.488992E-2,-1.3909486E-1,1.4890604E-1,1.0149284E-2,1.3752802E-1,-2.2556858E-2,-2.507067E-2,6.1836783E-3,7.493358E-2,-1.53393475E-2,9.634735E-2,-6.2150773E-2,-1.03550866E-1,-2.0219373E-2,8.072457E-1,8.521637E-3,1.8369125E-2,-4.1927777E-2,9.654645E-2,-1.1506402E-1,-9.007557E-3,-1.2140372E-1],"categories":[],"categories_nodes":[],"categories_segments":[],"categories_sizes":[],"default_left":[0,0,0,0,0,0,0,0,0,0,0,0,0,0,0,0,0,0,0,0,0,0,0,0,0,0,0,0,0,0,0],"id":30,"left_children":[1,3,5,7,9,11,13,15,17,19,21,23,25,27,29,-1,-1,-1,-1,-1,-1,-1,-1,-1,-1,-1,-1,-1,-1,-1,-1],"loss_changes":[3.008082E2,3.6510333E2,1.3708865E3,1.2255057E3,3.1959214E3,1.8583809E3,8.1510046E2,1.4403376E3,2.7480352E3,3.554184E3,3.0208704E2,2.4429361E4,4.352802E2,2.5916864E2,7.855016E2,0E0,0E0,0E0,0E0,0E0,0E0,0E0,0E0,0E0,0E0,0E0,0E0,0E0,0E0,0E0,0E0],"parents":[2147483647,0,0,1,1,2,2,3,3,4,4,5,5,6,6,7,7,8,8,9,9,10,10,11,11,12,12,13,13,14,14],"right_children":[2,4,6,8,10,12,14,16,18,20,22,24,26,28,30,-1,-1,-1,-1,-1,-1,-1,-1,-1,-1,-1,-1,-1,-1,-1,-1],"split_conditions":[1E0,1E0,1E0,1E0,1E0,1E0,1E0,1E0,1E0,1E0,1E0,1E0,1E0,1E0,1E0,-2.507067E-2,6.1836783E-3,7.493358E-2,-1.53393475E-2,9.634735E-2,-6.2150773E-2,-1.03550866E-1,-2.0219373E-2,8.072457E-1,8.521637E-3,1.8369125E-2,-4.1927777E-2,9.654645E-2,-1.1506402E-1,-9.007557E-3,-1.2140372E-1],"split_indices":[3,15,17,6,6,16,1,17,17,4,26,15,22,38,8,0,0,0,0,0,0,0,0,0,0,0,0,0,0,0,0],"split_type":[0,0,0,0,0,0,0,0,0,0,0,0,0,0,0,0,0,0,0,0,0,0,0,0,0,0,0,0,0,0,0],"sum_hessian":[4.0016742E6,2.9715515E6,1.03012294E6,2.6368222E6,3.3472925E5,4.1732978E5,6.127931E5,2.137446E6,4.9937625E5,2.4914422E5,8.558503E4,1.5157144E5,2.6575834E5,3.3653402E4,5.7913975E5,1.1557515E6,9.8169444E5,2.0819894E5,2.911773E5,1.7775872E5,7.138549E4,6.49472E4,2.0637834E4,1.5336434E4,1.3623502E5,2.1163675E5,5.4121594E4,3.142268E4,2.230722E3,5.5581694E5,2.3322797E4],"tree_param":{"num_deleted":"0","num_feature":"39","num_nodes":"31","size_leaf_vector":"0"}},{"base_weights":[1.404163E-3,-5.668385E-3,2.0358859E-2,-8.8745635E-3,2.9650928E-2,1.4766647E-1,1.2917533E-2,-4.181135E-3,-3.5774298E-2,-1.6452686E-1,4.5260705E-2,1.2743811E-1,3.3994585E-1,5.0270297E-3,9.11813E-2,1.0885487E-3,-1.5160277E-2,-3.8360253E-2,3.3536844E-2,-6.335537E-2,-2.2944924E-1,4.0217005E-2,-3.883833E-2,6.646417E-2,1.673986E-1,2.3023285E-1,2.8562991E-2,-8.552491E-3,2.5496535E-2,7.781435E-2,-2.7361836E-2],"categories":[],"categories_nodes":[],"categories_segments":[],"categories_sizes":[],"default_left":[0,0,0,0,0,0,0,0,0,0,0,0,0,0,0,0,0,0,0,0,0,0,0,0,0,0,0,0,0,0,0],"id":31,"left_children":[1,3,5,7,9,11,13,15,17,19,21,23,25,27,29,-1,-1,-1,-1,-1,-1,-1,-1,-1,-1,-1,-1,-1,-1,-1,-1],"loss_changes":[5.346474E2,3.2889984E2,1.0266593E3,3.3617517E2,7.326626E2,2.3273364E2,6.322911E2,2.8661157E2,1.02111096E3,2.3091602E2,5.3567017E2,1.3673999E2,7.287842E1,6.719262E2,4.9395386E2,0E0,0E0,0E0,0E0,0E0,0E0,0E0,0E0,0E0,0E0,0E0,0E0,0E0,0E0,0E0,0E0],"parents":[2147483647,0,0,1,1,2,2,3,3,4,4,5,5,6,6,7,7,8,8,9,9,10,10,11,11,12,12,13,13,14,14],"right_children":[2,4,6,8,10,12,14,16,18,20,22,24,26,28,30,-1,-1,-1,-1,-1,-1,-1,-1,-1,-1,-1,-1,-1,-1,-1,-1],"split_conditions":[1E0,1E0,1E0,1E0,1E0,1E0,1E0,1E0,1E0,1E0,1E0,1E0,1E0,1E0,1E0,1.0885487E-3,-1.5160277E-2,-3.8360253E-2,3.3536844E-2,-6.335537E-2,-2.2944924E-1,4.0217005E-2,-3.883833E-2,6.646417E-2,1.673986E-1,2.3023285E-1,2.8562991E-2,-8.552491E-3,2.5496535E-2,7.781435E-2,-2.7361836E-2],"split_indices":[4,34,1,20,1,30,36,3,6,26,24,31,24,3,6,0,0,0,0,0,0,0,0,0,0,0,0,0,0,0,0],"split_type":[0,0,0,0,0,0,0,0,0,0,0,0,0,0,0,0,0,0,0,0,0,0,0,0,0,0,0,0,0,0,0],"sum_hessian":[3.988178E6,2.9044458E6,1.0837324E6,2.6627318E6,2.4171383E5,5.9846605E4,1.0238858E6,2.2671618E6,3.9557006E5,1.7984621E4,2.237292E5,5.4151383E4,5.69522E3,9.3011344E5,9.3772375E4,1.7652491E6,5.0191262E5,3.0261212E5,9.295794E4,1.4156934E4,3.8276885E3,1.8676767E5,3.6961547E4,4.878863E4,5.362754E3,4.953207E3,7.4201294E2,6.140927E5,3.1602072E5,7.317209E4,2.0600285E4],"tree_param":{"num_deleted":"0","num_feature":"39","num_nodes":"31","size_leaf_vector":"0"}},{"base_weights":[6.225936E-4,-1.4809237E-3,2.3172187E-2,1.6870872E-3,-1.3471746E-2,5.3749874E-2,-1.34452535E-2,5.78539E-3,-1.9872485E-2,-2.249114E-2,6.55435E-2,1.3474831E-3,1.1797494E-1,8.192207E-3,-7.4428156E-2,-3.0330658E-2,5.8447053E-3,4.059831E-2,-3.0766986E-2,-1.8498639E-2,3.008891E-2,1.920142E-2,1.099481E-1,1.4098716E-2,-5.9781697E-2,6.529895E-2,1.729642E-1,3.300649E-2,-3.8410597E-2,-6.492542E-2,3.4730323E-2],"categories":[],"categories_nodes":[],"categories_segments":[],"categories_sizes":[],"default_left":[0,0,0,0,0,0,0,0,0,0,0,0,0,0,0,0,0,0,0,0,0,0,0,0,0,0,0,0,0,0,0],"id":32,"left_children":[1,3,5,7,9,11,13,15,17,19,21,23,25,27,29,-1,-1,-1,-1,-1,-1,-1,-1,-1,-1,-1,-1,-1,-1,-1,-1],"loss_changes":[1.8897733E2,1.3842917E2,3.8062103E2,2.5469455E2,5.4275323E2,6.2345557E2,2.0411934E2,5.397811E2,1.2657811E3,4.1410074E2,3.0803238E2,2.2818895E2,1.2957214E2,3.860218E2,1.8108139E2,0E0,0E0,0E0,0E0,0E0,0E0,0E0,0E0,0E0,0E0,0E0,0E0,0E0,0E0,0E0,0E0],"parents":[2147483647,0,0,1,1,2,2,3,3,4,4,5,5,6,6,7,7,8,8,9,9,10,10,11,11,12,12,13,13,14,14],"right_children":[2,4,6,8,10,12,14,16,18,20,22,24,26,28,30,-1,-1,-1,-1,-1,-1,-1,-1,-1,-1,-1,-1,-1,-1,-1,-1],"split_conditions":[1E0,1E0,1E0,1E0,1E0,1E0,1E0,1E0,1E0,1E0,1E0,1E0,1E0,1E0,1E0,-3.0330658E-2,5.8447053E-3,4.059831E-2,-3.0766986E-2,-1.8498639E-2,3.008891E-2,1.920142E-2,1.099481E-1,1.4098716E-2,-5.9781697E-2,6.529895E-2,1.729642E-1,3.300649E-2,-3.8410597E-2,-6.492542E-2,3.4730323E-2],"split_indices":[31,25,17,5,28,7,5,1,17,29,20,27,11,20,25,0,0,0,0,0,0,0,0,0,0,0,0,0,0,0,0],"split_type":[0,0,0,0,0,0,0,0,0,0,0,0,0,0,0,0,0,0,0,0,0,0,0,0,0,0,0,0,0,0,0],"sum_hessian":[3.9840495E6,3.644113E6,3.399367E5,2.8825385E6,7.6157444E5,1.8524548E5,1.546912E5,2.4221145E6,4.6042394E5,6.835496E5,7.802478E4,1.02012586E5,8.32329E4,1.14179734E5,4.051146E4,1.5891456E5,2.2632E6,1.2157133E5,3.388526E5,6.131525E5,7.039716E4,6.0722395E4,1.7302389E4,8.3662336E4,1.8350248E4,7.8993375E4,4.2395225E3,6.926848E4,4.4911266E4,3.2272168E4,8.239294E3],"tree_param":{"num_deleted":"0","num_feature":"39","num_nodes":"31","size_leaf_vector":"0"}},{"base_weights":[2.887475E-4,1.1259296E-3,-4.4044174E-2,-1.0332449E-3,2.1148257E-2,-7.401466E-2,1.8341269E-1,-5.8254367E-3,1.1886049E-2,4.1743513E-2,-3.208422E-2,-5.2886263E-2,-2.8627864E-1,2.562357E-1,-2.2829187E-1,-1.0942649E-2,6.494451E-3,1.1440822E-2,-3.9732642E-2,8.768347E-3,9.661531E-2,-5.8479253E-2,4.0869735E-2,-2.42089E-2,-9.112612E-2,-6.216289E-2,-2.3857935E-1,2.3066062E-1,-9.482276E-3,-2.0705073E-1,-1.0607894E-1],"categories":[],"categories_nodes":[],"categories_segments":[],"categories_sizes":[],"default_left":[0,0,0,0,0,0,0,0,0,0,0,0,0,0,0,0,0,0,0,0,0,0,0,0,0,0,0,0,0,0,0],"id":33,"left_children":[1,3,5,7,9,11,13,15,17,19,21,23,25,27,29,-1,-1,-1,-1,-1,-1,-1,-1,-1,-1,-1,-1,-1,-1,-1,-1],"loss_changes":[1.4790562E2,1.6908922E2,5.0351422E2,2.1858E2,4.174032E2,2.9266898E2,2.5787762E2,5.3220105E2,5.358618E2,8.883528E2,6.958043E2,7.366214E1,1.20130005E2,2.5484833E2,7.7150116E0,0E0,0E0,0E0,0E0,0E0,0E0,0E0,0E0,0E0,0E0,0E0,0E0,0E0,0E0,0E0,0E0],"parents":[2147483647,0,0,1,1,2,2,3,3,4,4,5,5,6,6,7,7,8,8,9,9,10,10,11,11,12,12,13,13,14,14],"right_children":[2,4,6,8,10,12,14,16,18,20,22,24,26,28,30,-1,-1,-1,-1,-1,-1,-1,-1,-1,-1,-1,-1,-1,-1,-1,-1],"split_conditions":[1E0,1E0,1E0,1E0,1E0,1E0,1E0,1E0,1E0,1E0,1E0,1E0,1E0,1E0,1E0,-1.0942649E-2,6.494451E-3,1.1440822E-2,-3.9732642E-2,8.768347E-3,9.661531E-2,-5.8479253E-2,4.0869735E-2,-2.42089E-2,-9.112612E-2,-6.216289E-2,-2.3857935E-1,2.3066062E-1,-9.482276E-3,-2.0705073E-1,-1.0607894E-1],"split_indices":[23,32,34,4,16,33,26,17,34,6,26,9,20,4,10,0,0,0,0,0,0,0,0,0,0,0,0,0,0,0,0],"split_type":[0,0,0,0,0,0,0,0,0,0,0,0,0,0,0,0,0,0,0,0,0,0,0,0,0,0,0,0,0,0,0],"sum_hessian":[3.9850895E6,3.9112308E6,7.385864E4,3.5305078E6,3.8072316E5,6.5260387E4,8.598255E3,2.5752595E6,9.5524806E5,2.7451538E5,1.0620779E5,5.935367E4,5.9067153E3,7.306284E3,1.2919705E3,1.475366E6,1.0998936E6,8.748097E5,8.0438414E4,2.2364947E5,5.086591E4,6.4270836E4,4.1936953E4,5.268236E4,6.6713115E3,2.2377134E3,3.6690022E3,4.9657573E3,2.340527E3,3.9358334E2,8.9838715E2],"tree_param":{"num_deleted":"0","num_feature":"39","num_nodes":"31","size_leaf_vector":"0"}},{"base_weights":[1.8393129E-4,5.4278906E-4,-9.9877685E-2,1.9723517E-3,-2.4282174E-2,-2.6309112E-2,-1.7392094E-1,3.7676855E-3,-1.1201054E-2,-1.357804E-2,-1.4710602E-1,2.1473708E-2,-1.7666204E-1,-1.5475982E-1,-4.0015957E-1,7.2651805E-4,1.6131436E-2,4.2775255E-2,-1.2093727E-2,-1.3583527E-2,4.3292463E-2,-6.9701135E-2,-1.8422204E-1,8.162596E-2,-3.3866692E-2,-6.880317E-2,-2.2991715E-1,-1.0355679E-1,1.0890661E-2,-3.1822208E-1,-6.1281513E-2],"categories":[],"categories_nodes":[],"categories_segments":[],"categories_sizes":[],"default_left":[0,0,0,0,0,0,0,0,0,0,0,0,0,0,0,0,0,0,0,0,0,0,0,0,0,0,0,0,0,0,0],"id":34,"left_children":[1,3,5,7,9,11,13,15,17,19,21,23,25,27,29,-1,-1,-1,-1,-1,-1,-1,-1,-1,-1,-1,-1,-1,-1,-1,-1],"loss_changes":[1.4285487E2,1.4068324E2,7.743858E1,8.864994E1,2.8377936E2,5.1245674E1,3.065326E1,1.9498419E2,3.3211475E2,1.5423926E2,8.557797E1,4.8332478E1,2.1979744E1,2.0152328E1,2.1390236E1,0E0,0E0,0E0,0E0,0E0,0E0,0E0,0E0,0E0,0E0,0E0,0E0,0E0,0E0,0E0,0E0],"parents":[2147483647,0,0,1,1,2,2,3,3,4,4,5,5,6,6,7,7,8,8,9,9,10,10,11,11,12,12,13,13,14,14],"right_children":[2,4,6,8,10,12,14,16,18,20,22,24,26,28,30,-1,-1,-1,-1,-1,-1,-1,-1,-1,-1,-1,-1,-1,-1,-1,-1],"split_conditions":[1E0,1E0,1E0,1E0,1E0,1E0,1E0,1E0,1E0,1E0,1E0,1E0,1E0,1E0,1E0,7.2651805E-4,1.6131436E-2,4.2775255E-2,-1.2093727E-2,-1.3583527E-2,4.3292463E-2,-6.9701135E-2,-1.8422204E-1,8.162596E-2,-3.3866692E-2,-6.880317E-2,-2.2991715E-1,-1.0355679E-1,1.0890661E-2,-3.1822208E-1,-6.1281513E-2],"split_indices":[0,18,17,19,32,15,34,32,1,30,15,16,13,30,4,0,0,0,0,0,0,0,0,0,0,0,0,0,0,0,0],"split_type":[0,0,0,0,0,0,0,0,0,0,0,0,0,0,0,0,0,0,0,0,0,0,0,0,0,0,0,0,0,0,0],"sum_hessian":[3.9783678E6,3.964152E6,1.4215912E4,3.7483042E6,2.1584773E5,7.1314937E3,7.0844185E3,3.2987372E6,4.495668E5,1.9854555E5,1.7302193E4,5.4122983E3,1.7191951E3,6.5328105E3,5.516078E2,2.9702348E6,3.2850266E5,4.4023555E4,4.0554325E5,1.795675E5,1.8978047E4,1.449916E4,2.803034E3,2.1905728E3,3.2217258E3,1.3235056E3,3.9568948E2,5.921991E3,6.108192E2,3.8334125E2,1.6826656E2],"tree_param":{"num_deleted":"0","num_feature":"39","num_nodes":"31","size_leaf_vector":"0"}},{"base_weights":[8.80726E-5,2.3141205E-3,-1.0711813E-2,-1.0478997E-3,3.8330942E-2,-2.6118416E-2,1.2820207E-1,-3.6246004E-3,2.399795E-2,6.038526E-2,-7.821337E-2,-1.4053658E-2,-1.5556428E-1,1.7167494E-1,-3.183483E-2,2.4404963E-3,-1.9028347E-2,-1.3837847E-2,1.0160164E-1,1.4006056E-1,2.5720553E-2,-2.3149073E-2,-7.024441E-2,-4.133483E-3,-5.3013217E-2,-1.8259337E-2,-2.2107117E-1,1.2971194E-1,-1.0421233E-2,1.6120516E-2,-2.2133958E-1],"categories":[],"categories_nodes":[],"categories_segments":[],"categories_sizes":[],"default_left":[0,0,0,0,0,0,0,0,0,0,0,0,0,0,0,0,0,0,0,0,0,0,0,0,0,0,0,0,0,0,0],"id":35,"left_children":[1,3,5,7,9,11,13,15,17,19,21,23,25,27,29,-1,-1,-1,-1,-1,-1,-1,-1,-1,-1,-1,-1,-1,-1,-1,-1],"loss_changes":[9.566206E1,3.994865E2,1.4553427E3,1.9473271E2,7.239713E2,9.55961E2,4.723235E2,5.911488E2,1.9252233E3,7.179703E2,6.9023285E1,2.980707E2,1.390204E3,4.4923267E2,2.8697098E2,0E0,0E0,0E0,0E0,0E0,0E0,0E0,0E0,0E0,0E0,0E0,0E0,0E0,0E0,0E0,0E0],"parents":[2147483647,0,0,1,1,2,2,3,3,4,4,5,5,6,6,7,7,8,8,9,9,10,10,11,11,12,12,13,13,14,14],"right_children":[2,4,6,8,10,12,14,16,18,20,22,24,26,28,30,-1,-1,-1,-1,-1,-1,-1,-1,-1,-1,-1,-1,-1,-1,-1,-1],"split_conditions":[1E0,1E0,1E0,1E0,1E0,1E0,1E0,1E0,1E0,1E0,1E0,1E0,1E0,1E0,1E0,2.4404963E-3,-1.9028347E-2,-1.3837847E-2,1.0160164E-1,1.4006056E-1,2.5720553E-2,-2.3149073E-2,-7.024441E-2,-4.133483E-3,-5.3013217E-2,-1.8259337E-2,-2.2107117E-1,1.2971194E-1,-1.0421233E-2,1.6120516E-2,-2.2133958E-1],"split_indices":[14,30,35,29,24,30,4,6,6,1,17,29,8,3,25,0,0,0,0,0,0,0,0,0,0,0,0,0,0,0,0],"split_type":[0,0,0,0,0,0,0,0,0,0,0,0,0,0,0,0,0,0,0,0,0,0,0,0,0,0,0,0,0,0,0],"sum_hessian":[3.9791092E6,3.2991058E6,6.800034E5,3.0174412E6,2.816646E5,6.121159E5,6.788748E4,2.7359675E6,2.814737E5,2.3684552E5,4.481909E4,5.599298E5,5.2186094E4,5.3385594E4,1.4501886E4,2.1478045E6,5.8816294E5,2.1262558E5,6.8848125E4,2.1770684E4,2.1507483E5,2.2190428E4,2.2628662E4,5.1068797E5,4.9241844E4,3.286796E4,1.9318135E4,4.32111E4,1.0174492E4,1.2351668E4,2.1502173E3],"tree_param":{"num_deleted":"0","num_feature":"39","num_nodes":"31","size_leaf_vector":"0"}},{"base_weights":[4.9120274E-5,-2.9293697E-3,8.651771E-3,1.3790544E-3,-1.816049E-2,1.7233163E-2,-8.6409815E-2,7.698257E-3,-1.879411E-2,-4.096323E-2,4.6236973E-2,4.5548603E-2,-1.7102765E-3,-1.2946665E-1,9.105562E-2,-1.6962287E-3,2.804147E-2,-2.6882332E-4,-4.8068907E-2,-4.232409E-2,1.18687395E-2,1.8143103E-2,1.4295235E-1,3.983008E-2,-1.3679556E-2,-1.0370406E-2,1.1940361E-2,-9.377559E-2,-2.3845507E-2,8.6891524E-2,-6.353424E-2],"categories":[],"categories_nodes":[],"categories_segments":[],"categories_sizes":[],"default_left":[0,0,0,0,0,0,0,0,0,0,0,0,0,0,0,0,0,0,0,0,0,0,0,0,0,0,0,0,0,0,0],"id":36,"left_children":[1,3,5,7,9,11,13,15,17,19,21,23,25,27,29,-1,-1,-1,-1,-1,-1,-1,-1,-1,-1,-1,-1,-1,-1,-1,-1],"loss_changes":[1.0189528E2,1.9384607E2,8.3432294E2,2.9353558E2,9.5646124E2,5.0317404E2,6.4707294E2,7.204348E2,6.178973E2,8.6421686E2,5.2323096E2,5.3546173E2,1.8916582E2,1.6402197E2,1.7509258E2,0E0,0E0,0E0,0E0,0E0,0E0,0E0,0E0,0E0,0E0,0E0,0E0,0E0,0E0,0E0,0E0],"parents":[2147483647,0,0,1,1,2,2,3,3,4,4,5,5,6,6,7,7,8,8,9,9,10,10,11,11,12,12,13,13,14,14],"right_children":[2,4,6,8,10,12,14,16,18,20,22,24,26,28,30,-1,-1,-1,-1,-1,-1,-1,-1,-1,-1,-1,-1,-1,-1,-1,-1],"split_conditions":[1E0,1E0,1E0,1E0,1E0,1E0,1E0,1E0,1E0,1E0,1E0,1E0,1E0,1E0,1E0,-1.6962287E-3,2.804147E-2,-2.6882332E-4,-4.8068907E-2,-4.232409E-2,1.18687395E-2,1.8143103E-2,1.4295235E-1,3.983008E-2,-1.3679556E-2,-1.0370406E-2,1.1940361E-2,-9.377559E-2,-2.3845507E-2,8.6891524E-2,-6.353424E-2],"split_indices":[3,26,35,4,4,17,26,24,24,16,35,22,4,8,6,0,0,0,0,0,0,0,0,0,0,0,0,0,0,0,0],"split_type":[0,0,0,0,0,0,0,0,0,0,0,0,0,0,0,0,0,0,0,0,0,0,0,0,0,0,0,0,0,0,0],"sum_hessian":[3.9767242E6,2.9539728E6,1.02275144E6,2.3026292E6,6.513434E5,9.380708E5,8.468064E4,1.7533855E6,5.492438E5,4.8101822E5,1.7032519E5,3.7601953E5,5.6205125E5,6.8147016E4,1.6533627E4,1.3810322E6,3.7235325E5,4.2276197E5,1.2648184E5,3.235024E5,1.5751581E5,1.5722653E5,1.3098647E4,2.8817388E5,8.784563E4,3.2665194E5,2.3539933E5,5.2461254E4,1.5685764E4,1.2988271E4,3.5453567E3],"tree_param":{"num_deleted":"0","num_feature":"39","num_nodes":"31","size_leaf_vector":"0"}},{"base_weights":[5.623812E-5,3.0083845E-3,-7.68854E-3,-5.566764E-3,3.5320647E-2,1.5958058E-2,-9.917915E-2,-8.048069E-2,-5.4859626E-4,1.8320583E-1,-1.0037608E-2,1.2688383E-1,8.336717E-3,-1.2611595E-1,2.899243E-2,-1.6214165E-1,5.8208313E-2,-3.4274757E-3,3.4267638E-2,1.111055E0,-4.0132456E-2,4.528291E-3,-2.0946385E-1,9.1241576E-2,-1.10129416E-1,1.3461557E-2,-3.622506E-2,-6.589548E-2,-1.813274E-1,-1.3308837E-2,2.411475E-1],"categories":[],"categories_nodes":[],"categories_segments":[],"categories_sizes":[],"default_left":[0,0,0,0,0,0,0,0,0,0,0,0,0,0,0,0,0,0,0,0,0,0,0,0,0,0,0,0,0,0,0],"id":37,"left_children":[1,3,5,7,9,11,13,15,17,19,21,23,25,27,29,-1,-1,-1,-1,-1,-1,-1,-1,-1,-1,-1,-1,-1,-1,-1,-1],"loss_changes":[9.094703E1,7.979962E2,2.3750137E3,8.556129E2,4.0515862E3,7.374714E2,7.7841943E2,4.8125483E3,6.351419E2,5.9161383E4,2.7560642E3,4.384972E2,7.9077136E2,5.344158E2,7.47244E2,0E0,0E0,0E0,0E0,0E0,0E0,0E0,0E0,0E0,0E0,0E0,0E0,0E0,0E0,0E0,0E0],"parents":[2147483647,0,0,1,1,2,2,3,3,4,4,5,5,6,6,7,7,8,8,9,9,10,10,11,11,12,12,13,13,14,14],"right_children":[2,4,6,8,10,12,14,16,18,20,22,24,26,28,30,-1,-1,-1,-1,-1,-1,-1,-1,-1,-1,-1,-1,-1,-1,-1,-1],"split_conditions":[1E0,1E0,1E0,1E0,1E0,1E0,1E0,1E0,1E0,1E0,1E0,1E0,1E0,1E0,1E0,-1.6214165E-1,5.8208313E-2,-3.4274757E-3,3.4267638E-2,1.111055E0,-4.0132456E-2,4.528291E-3,-2.0946385E-1,9.1241576E-2,-1.10129416E-1,1.3461557E-2,-3.622506E-2,-6.589548E-2,-1.813274E-1,-1.3308837E-2,2.411475E-1],"split_indices":[16,6,6,1,17,1,3,17,36,15,8,33,24,36,27,0,0,0,0,0,0,0,0,0,0,0,0,0,0,0,0],"split_type":[0,0,0,0,0,0,0,0,0,0,0,0,0,0,0,0,0,0,0,0,0,0,0,0,0,0,0,0,0,0,0],"sum_hessian":[3.9777862E6,2.879994E6,1.0977925E6,2.2759852E6,6.040086E5,8.723312E5,2.2546128E5,1.428863E5,2.133099E6,1.4177269E5,4.6223594E5,5.608077E4,8.1625044E5,1.863067E5,3.915458E4,6.905773E4,7.382858E4,1.9577715E6,1.7532744E5,1.847907E4,1.2329361E5,4.3944638E5,2.2789557E4,5.187283E4,4.207938E3,6.7727806E5,1.3897233E5,1.7053284E5,1.5773854E4,3.443077E4,4.7238096E3],"tree_param":{"num_deleted":"0","num_feature":"39","num_nodes":"31","size_leaf_vector":"0"}},{"base_weights":[8.448937E-4,-2.0114195E-3,2.2030741E-2,-5.202576E-3,1.3350273E-2,2.0632593E-1,1.3959077E-3,-2.2754684E-2,9.375329E-3,6.0518906E-2,-3.2737218E-2,3.2306445E-1,1.4691721E-2,1.9562878E-2,-1.1369099E-1,-4.649215E-2,8.4045617E-4,2.3064183E-3,5.8885068E-2,1.2109526E-1,-1.4575528E-2,-5.5883396E-2,2.7849986E-3,2.9319206E-1,-1.7030003E-2,2.988447E-2,-1.3218449E-1,-9.78612E-3,6.0157005E-2,-2.4204351E-2,-1.6106218E-1],"categories":[],"categories_nodes":[],"categories_segments":[],"categories_sizes":[],"default_left":[0,0,0,0,0,0,0,0,0,0,0,0,0,0,0,0,0,0,0,0,0,0,0,0,0,0,0,0,0,0,0],"id":38,"left_children":[1,3,5,7,9,11,13,15,17,19,21,23,25,27,29,-1,-1,-1,-1,-1,-1,-1,-1,-1,-1,-1,-1,-1,-1,-1,-1],"loss_changes":[2.402318E2,1.714899E2,1.793602E3,7.41147E2,1.3080547E3,1.0624095E3,8.86809E2,1.7374897E3,7.769161E2,3.5637927E3,6.871349E2,1.7175066E3,1.483782E2,1.0604839E3,6.5635547E2,0E0,0E0,0E0,0E0,0E0,0E0,0E0,0E0,0E0,0E0,0E0,0E0,0E0,0E0,0E0,0E0],"parents":[2147483647,0,0,1,1,2,2,3,3,4,4,5,5,6,6,7,7,8,8,9,9,10,10,11,11,12,12,13,13,14,14],"right_children":[2,4,6,8,10,12,14,16,18,20,22,24,26,28,30,-1,-1,-1,-1,-1,-1,-1,-1,-1,-1,-1,-1,-1,-1,-1,-1],"split_conditions":[1E0,1E0,1E0,1E0,1E0,1E0,1E0,1E0,1E0,1E0,1E0,1E0,1E0,1E0,1E0,-4.649215E-2,8.4045617E-4,2.3064183E-3,5.8885068E-2,1.2109526E-1,-1.4575528E-2,-5.5883396E-2,2.7849986E-3,2.9319206E-1,-1.7030003E-2,2.988447E-2,-1.3218449E-1,-9.78612E-3,6.0157005E-2,-2.4204351E-2,-1.6106218E-1],"split_indices":[15,24,1,17,17,6,5,16,8,16,10,5,24,8,8,0,0,0,0,0,0,0,0,0,0,0,0,0,0,0,0],"split_type":[0,0,0,0,0,0,0,0,0,0,0,0,0,0,0,0,0,0,0,0,0,0,0,0,0,0,0,0,0,0,0],"sum_hessian":[3.9698915E6,3.498252E6,4.716396E5,2.8965405E6,6.017113E5,4.7489473E4,4.241501E5,1.3142069E6,1.5823336E6,2.9736762E5,3.043437E5,2.9511285E4,1.7978186E4,3.6632494E5,5.7825168E4,4.0241016E5,9.1179675E5,1.4895184E6,9.281524E4,1.1153497E5,1.8583264E5,1.1634174E5,1.8800195E5,2.005958E4,9.451707E3,1.5641654E4,2.336531E3,2.5359502E5,1.1272992E5,3.9230812E4,1.8594352E4],"tree_param":{"num_deleted":"0","num_feature":"39","num_nodes":"31","size_leaf_vector":"0"}},{"base_weights":[2.1556934E-4,-1.9993675E-3,1.4980763E-2,-3.99248E-3,2.320321E-2,4.764713E-3,1.3010348E-1,-6.0127405E-3,1.8827885E-2,8.0952497E-4,1.6300128E-1,-7.3448666E-3,1.1046736E-1,1.0194336E-1,2.3933314E-1,-3.966803E-4,-1.0885625E-2,2.9687667E-2,-1.1950984E-2,-8.30021E-3,8.77075E-2,1.15086675E-1,-9.181994E-2,-1.0078277E-2,6.1015837E-2,1.1105502E-1,-8.784759E-2,4.2126596E-2,1.0044767E-1,2.549308E-1,3.127936E-2],"categories":[],"categories_nodes":[],"categories_segments":[],"categories_sizes":[],"default_left":[0,0,0,0,0,0,0,0,0,0,0,0,0,0,0,0,0,0,0,0,0,0,0,0,0,0,0,0,0,0,0],"id":39,"left_children":[1,3,5,7,9,11,13,15,17,19,21,23,25,27,29,-1,-1,-1,-1,-1,-1,-1,-1,-1,-1,-1,-1,-1,-1,-1,-1],"loss_changes":[1.2961082E2,1.7310753E2,6.0800146E2,1.4723604E2,7.906742E2,6.0778955E2,1.295841E2,1.9045303E2,3.0846933E2,4.6340112E2,3.175288E2,4.3908554E2,9.3562146E2,6.958801E1,2.9994476E2,0E0,0E0,0E0,0E0,0E0,0E0,0E0,0E0,0E0,0E0,0E0,0E0,0E0,0E0,0E0,0E0],"parents":[2147483647,0,0,1,1,2,2,3,3,4,4,5,5,6,6,7,7,8,8,9,9,10,10,11,11,12,12,13,13,14,14],"right_children":[2,4,6,8,10,12,14,16,18,20,22,24,26,28,30,-1,-1,-1,-1,-1,-1,-1,-1,-1,-1,-1,-1,-1,-1,-1,-1],"split_conditions":[1E0,1E0,1E0,1E0,1E0,1E0,1E0,1E0,1E0,1E0,1E0,1E0,1E0,1E0,1E0,-3.966803E-4,-1.0885625E-2,2.9687667E-2,-1.1950984E-2,-8.30021E-3,8.77075E-2,1.15086675E-1,-9.181994E-2,-1.0078277E-2,6.1015837E-2,1.1105502E-1,-8.784759E-2,4.2126596E-2,1.0044767E-1,2.549308E-1,3.127936E-2],"split_indices":[27,11,36,34,8,33,14,8,7,30,32,37,16,8,8,0,0,0,0,0,0,0,0,0,0,0,0,0,0,0,0],"split_type":[0,0,0,0,0,0,0,0,0,0,0,0,0,0,0,0,0,0,0,0,0,0,0,0,0,0,0,0,0,0,0],"sum_hessian":[3.9631502E6,3.4461862E6,5.1696394E5,3.1936238E6,2.5256267E5,4.7482847E5,4.2135484E4,2.9338905E6,2.5973317E5,2.1769242E5,3.487026E4,4.2602303E5,4.8805414E4,3.350071E4,8.6347705E3,2.0357439E6,8.981466E5,1.4501422E5,1.1471895E5,1.9777161E5,1.99208E4,3.1957404E4,2.912858E3,3.9203888E5,3.398416E4,3.7819137E4,1.098628E4,2.256551E4,1.0935203E4,4.3358516E3,4.298919E3],"tree_param":{"num_deleted":"0","num_feature":"39","num_nodes":"31","size_leaf_vector":"0"}},{"base_weights":[3.713321E-5,-1.5031684E-3,1.6566748E-2,-3.1766323E-3,1.5457706E-2,2.3868722E-3,7.070707E-2,-4.7035515E-3,1.44821415E-2,3.421836E-2,-6.509787E-2,-1.3620372E-2,4.2495668E-2,2.2293757E-1,4.9872257E-2,-4.4874303E-4,-6.8834196E-3,2.7990283E-2,-1.2766789E-2,6.714136E-3,6.869655E-2,-1.4732159E-2,-1.0762275E-1,-2.980002E-2,1.23379305E-2,3.303121E-2,-3.9988674E-2,1.7623663E-1,-1.2310782E-1,3.8700923E-2,-2.6790483E-2],"categories":[],"categories_nodes":[],"categories_segments":[],"categories_sizes":[],"default_left":[0,0,0,0,0,0,0,0,0,0,0,0,0,0,0,0,0,0,0,0,0,0,0,0,0,0,0,0,0,0,0],"id":40,"left_children":[1,3,5,7,9,11,13,15,17,19,21,23,25,27,29,-1,-1,-1,-1,-1,-1,-1,-1,-1,-1,-1,-1,-1,-1,-1,-1],"loss_changes":[1.0094926E2,1.02945175E2,2.5946414E2,8.9012794E1,4.9225415E2,1.7195522E2,2.2247278E2,8.1355835E1,3.0223407E2,4.8838586E2,2.8506366E2,2.358808E2,1.0470433E2,2.5598218E2,8.53264E1,0E0,0E0,0E0,0E0,0E0,0E0,0E0,0E0,0E0,0E0,0E0,0E0,0E0,0E0,0E0,0E0],"parents":[2147483647,0,0,1,1,2,2,3,3,4,4,5,5,6,6,7,7,8,8,9,9,10,10,11,11,12,12,13,13,14,14],"right_children":[2,4,6,8,10,12,14,16,18,20,22,24,26,28,30,-1,-1,-1,-1,-1,-1,-1,-1,-1,-1,-1,-1,-1,-1,-1,-1],"split_conditions":[1E0,1E0,1E0,1E0,1E0,1E0,1E0,1E0,1E0,1E0,1E0,1E0,1E0,1E0,1E0,-4.4874303E-4,-6.8834196E-3,2.7990283E-2,-1.2766789E-2,6.714136E-3,6.869655E-2,-1.4732159E-2,-1.0762275E-1,-2.980002E-2,1.23379305E-2,3.303121E-2,-3.9988674E-2,1.7623663E-1,-1.2310782E-1,3.8700923E-2,-2.6790483E-2],"split_indices":[31,28,6,38,26,16,1,12,7,6,8,7,27,24,14,0,0,0,0,0,0,0,0,0,0,0,0,0,0,0,0],"split_type":[0,0,0,0,0,0,0,0,0,0,0,0,0,0,0,0,0,0,0,0,0,0,0,0,0,0,0,0,0,0,0],"sum_hessian":[3.96492E6,3.6269462E6,3.3797378E5,3.3012278E6,3.257186E5,2.6782803E5,7.014572E4,3.0384958E6,2.6273194E5,2.641914E5,6.152718E4,1.9142988E5,7.6398164E4,8.443465E3,6.1702258E4,1.9177674E6,1.1207284E6,1.3831192E5,1.2442E5,2.0529977E5,5.8891637E4,4.541509E4,1.611209E4,9.317603E4,9.825385E4,6.851625E4,7.881915E3,7.2456885E3,1.1977762E3,5.343281E4,8.269448E3],"tree_param":{"num_deleted":"0","num_feature":"39","num_nodes":"31","size_leaf_vector":"0"}},{"base_weights":[3.648811E-5,1.9914797E-3,-7.3443325E-3,5.9661837E-3,-1.3769553E-2,-1.457296E-2,5.882648E-2,-4.061739E-2,8.959263E-3,-3.3982245E-3,-1.2577738E-1,-1.986241E-2,6.893301E-2,7.673158E-3,1.3853675E-1,-4.1626025E-2,7.90489E-2,6.978423E-3,-1.39203565E-2,4.1231E-3,-6.47582E-2,-1.07814506E-1,4.863101E-2,-1.603337E-2,2.585812E-2,1.8466378E-2,1.16922386E-1,-1.8060772E-2,6.6677116E-2,-1.9629842E-1,9.439294E-2],"categories":[],"categories_nodes":[],"categories_segments":[],"categories_sizes":[],"default_left":[0,0,0,0,0,0,0,0,0,0,0,0,0,0,0,0,0,0,0,0,0,0,0,0,0,0,0,0,0,0,0],"id":41,"left_children":[1,3,5,7,9,11,13,15,17,19,21,23,25,27,29,-1,-1,-1,-1,-1,-1,-1,-1,-1,-1,-1,-1,-1,-1,-1,-1],"loss_changes":[5.7189068E1,1.9629338E2,3.9699002E2,3.4889832E2,7.3307806E2,3.3049142E2,3.3327844E2,7.4889905E2,2.0200578E2,6.2005817E2,5.9636707E2,3.0390317E2,2.1416843E2,1.9457349E2,2.7955585E2,0E0,0E0,0E0,0E0,0E0,0E0,0E0,0E0,0E0,0E0,0E0,0E0,0E0,0E0,0E0,0E0],"parents":[2147483647,0,0,1,1,2,2,3,3,4,4,5,5,6,6,7,7,8,8,9,9,10,10,11,11,12,12,13,13,14,14],"right_children":[2,4,6,8,10,12,14,16,18,20,22,24,26,28,30,-1,-1,-1,-1,-1,-1,-1,-1,-1,-1,-1,-1,-1,-1,-1,-1],"split_conditions":[1E0,1E0,1E0,1E0,1E0,1E0,1E0,1E0,1E0,1E0,1E0,1E0,1E0,1E0,1E0,-4.1626025E-2,7.90489E-2,6.978423E-3,-1.39203565E-2,4.1231E-3,-6.47582E-2,-1.07814506E-1,4.863101E-2,-1.603337E-2,2.585812E-2,1.8466378E-2,1.16922386E-1,-1.8060772E-2,6.6677116E-2,-1.9629842E-1,9.439294E-2],"split_indices":[25,6,32,1,36,33,8,15,30,35,24,35,6,3,1,0,0,0,0,0,0,0,0,0,0,0,0,0,0,0,0],"split_type":[0,0,0,0,0,0,0,0,0,0,0,0,0,0,0,0,0,0,0,0,0,0,0,0,0,0,0,0,0,0,0],"sum_hessian":[3.9633578E6,3.1334002E6,8.299573E5,2.5023458E6,6.310547E5,7.4822094E5,8.173633E4,1.5107272E5,2.351273E6,5.775753E5,5.3479375E4,7.0365094E5,4.4570016E4,4.978705E4,3.194928E4,1.29470984E5,2.1601729E4,2.1709388E6,1.8033408E5,5.25907E5,5.166832E4,4.2421605E4,1.10577705E4,6.345163E5,6.913461E4,3.420735E4,1.0362662E4,3.6471133E4,1.331592E4,1.2381232E3,3.0711156E4],"tree_param":{"num_deleted":"0","num_feature":"39","num_nodes":"31","size_leaf_vector":"0"}},{"base_weights":[5.563317E-5,-1.318985E-3,1.5242911E-2,-2.7029894E-3,1.1710674E-2,-2.1042158E-3,7.502798E-2,-6.209267E-3,1.1895688E-2,-1.7363435E-2,7.55481E-2,2.2801915E-2,-7.8348845E-2,2.0623716E-2,3.065545E-1,-7.438223E-3,6.4843935E-3,1.1574383E-2,-4.7104675E-2,-2.6139082E-2,5.043459E-2,5.8530886E-2,-2.0268273E-2,-9.295013E-3,8.521125E-2,-1.3294086E-2,-1.3148473E-1,1.1714595E-1,-3.5591784E-3,1.0980002E-2,3.8743654E-1],"categories":[],"categories_nodes":[],"categories_segments":[],"categories_sizes":[],"default_left":[0,0,0,0,0,0,0,0,0,0,0,0,0,0,0,0,0,0,0,0,0,0,0,0,0,0,0,0,0,0,0],"id":42,"left_children":[1,3,5,7,9,11,13,15,17,19,21,23,25,27,29,-1,-1,-1,-1,-1,-1,-1,-1,-1,-1,-1,-1,-1,-1,-1,-1],"loss_changes":[8.2774475E1,6.556545E1,3.412927E2,1.6823763E2,6.479631E2,4.8437564E2,9.322431E2,2.7905267E2,4.2553375E2,6.374337E2,2.62805E2,8.777522E2,4.9688226E2,2.7790607E2,1.3767719E3,0E0,0E0,0E0,0E0,0E0,0E0,0E0,0E0,0E0,0E0,0E0,0E0,0E0,0E0,0E0,0E0],"parents":[2147483647,0,0,1,1,2,2,3,3,4,4,5,5,6,6,7,7,8,8,9,9,10,10,11,11,12,12,13,13,14,14],"right_children":[2,4,6,8,10,12,14,16,18,20,22,24,26,28,30,-1,-1,-1,-1,-1,-1,-1,-1,-1,-1,-1,-1,-1,-1,-1,-1],"split_conditions":[1E0,1E0,1E0,1E0,1E0,1E0,1E0,1E0,1E0,1E0,1E0,1E0,1E0,1E0,1E0,-7.438223E-3,6.4843935E-3,1.1574383E-2,-4.7104675E-2,-2.6139082E-2,5.043459E-2,5.8530886E-2,-2.0268273E-2,-9.295013E-3,8.521125E-2,-1.3294086E-2,-1.3148473E-1,1.1714595E-1,-3.5591784E-3,1.0980002E-2,3.8743654E-1],"split_indices":[30,35,6,9,8,26,20,16,20,26,6,16,8,1,26,0,0,0,0,0,0,0,0,0,0,0,0,0,0,0,0],"split_type":[0,0,0,0,0,0,0,0,0,0,0,0,0,0,0,0,0,0,0,0,0,0,0,0,0,0,0,0,0,0,0],"sum_hessian":[3.964918E6,3.6358352E6,3.2908278E5,3.286722E6,3.4911328E5,2.550724E5,7.4010375E4,2.6502028E6,6.365191E5,2.3986839E5,1.0924491E5,1.9226702E5,6.2805395E4,5.9929246E4,1.4081128E4,1.943489E6,7.067139E5,5.8839E5,4.8129152E4,1.9062247E5,4.9245926E4,9.094208E4,1.8302822E4,1.4552412E5,4.674289E4,4.489027E4,1.7915125E4,7.9099863E3,5.2019258E4,7.6125063E3,6.468621E3],"tree_param":{"num_deleted":"0","num_feature":"39","num_nodes":"31","size_leaf_vector":"0"}},{"base_weights":[9.3776405E-5,-5.1716673E-3,5.898602E-3,-1.092444E-2,5.9448924E-2,7.376479E-2,1.2413794E-3,-1.9629337E-2,2.1628555E-2,1.7378874E-2,3.4680557E-1,1.597229E-1,2.5040999E-2,7.803207E-3,-3.681543E-2,-2.7434995E-2,4.0329704E-3,7.618563E-2,-2.2568028E-2,4.5827188E-2,-3.5375766E-2,4.6775886E-1,-5.4363865E-2,8.077733E-2,2.2143872E-1,2.4558231E-2,-1.1240967E-1,7.5982553E-3,-2.927629E-2,-1.2811755E-2,-9.858354E-2],"categories":[],"categories_nodes":[],"categories_segments":[],"categories_sizes":[],"default_left":[0,0,0,0,0,0,0,0,0,0,0,0,0,0,0,0,0,0,0,0,0,0,0,0,0,0,0,0,0,0,0],"id":43,"left_children":[1,3,5,7,9,11,13,15,17,19,21,23,25,27,29,-1,-1,-1,-1,-1,-1,-1,-1,-1,-1,-1,-1,-1,-1,-1,-1],"loss_changes":[1.2116634E2,7.7274713E2,5.959572E2,5.408871E2,2.0542397E3,5.0711664E2,4.4062344E2,1.0356199E3,2.513408E3,6.6760645E2,4.1081772E3,2.3006226E2,2.6080887E2,4.140056E2,5.115328E2,0E0,0E0,0E0,0E0,0E0,0E0,0E0,0E0,0E0,0E0,0E0,0E0,0E0,0E0,0E0,0E0],"parents":[2147483647,0,0,1,1,2,2,3,3,4,4,5,5,6,6,7,7,8,8,9,9,10,10,11,11,12,12,13,13,14,14],"right_children":[2,4,6,8,10,12,14,16,18,20,22,24,26,28,30,-1,-1,-1,-1,-1,-1,-1,-1,-1,-1,-1,-1,-1,-1,-1,-1],"split_conditions":[1E0,1E0,1E0,1E0,1E0,1E0,1E0,1E0,1E0,1E0,1E0,1E0,1E0,1E0,1E0,-2.7434995E-2,4.0329704E-3,7.618563E-2,-2.2568028E-2,4.5827188E-2,-3.5375766E-2,4.6775886E-1,-5.4363865E-2,8.077733E-2,2.2143872E-1,2.4558231E-2,-1.1240967E-1,7.5982553E-3,-2.927629E-2,-1.2811755E-2,-9.858354E-2],"split_indices":[17,5,1,4,27,10,13,16,16,15,16,8,38,33,27,0,0,0,0,0,0,0,0,0,0,0,0,0,0,0,0],"split_type":[0,0,0,0,0,0,0,0,0,0,0,0,0,0,0,0,0,0,0,0,0,0,0,0,0,0,0,0,0,0,0],"sum_hessian":[3.964219E6,2.0786848E6,1.8855342E6,1.9087605E6,1.6992434E5,1.2108205E5,1.7644521E6,1.5060362E6,4.0272416E5,1.4822477E5,2.169958E4,4.380296E4,7.7279086E4,1.5049641E6,2.5948798E5,7.566833E5,7.49353E5,1.4495519E5,2.5776898E5,8.360721E4,6.4617555E4,1.0906994E4,1.0792586E4,3.9115754E4,4.687206E3,7.190084E4,5.378248E3,1.3859404E6,1.1902377E5,2.3142152E5,2.806647E4],"tree_param":{"num_deleted":"0","num_feature":"39","num_nodes":"31","size_leaf_vector":"0"}},{"base_weights":[4.4397297E-5,3.1542582E-3,-8.068561E-3,-3.7070323E-2,6.193277E-3,-3.4708086E-2,1.3209556E-2,-1.3695256E-1,3.0319745E-2,9.684208E-3,-1.4041153E-2,-2.6580825E-2,-1.3444278E-1,2.3145117E-2,-1.0677228E-1,-2.3012568E-1,2.7010063E-2,1.0524281E-2,9.339205E-2,2.065266E-2,-9.114354E-4,1.7145831E-2,-7.2056375E-2,-1.1610321E-2,-5.994577E-2,-9.562954E-2,-9.664501E-3,2.4147239E-2,-2.0161755E-2,-9.273288E-2,1.6770414E-1],"categories":[],"categories_nodes":[],"categories_segments":[],"categories_sizes":[],"default_left":[0,0,0,0,0,0,0,0,0,0,0,0,0,0,0,0,0,0,0,0,0,0,0,0,0,0,0,0,0,0,0],"id":44,"left_children":[1,3,5,7,9,11,13,15,17,19,21,23,25,27,29,-1,-1,-1,-1,-1,-1,-1,-1,-1,-1,-1,-1,-1,-1,-1,-1],"loss_changes":[9.966972E1,3.4909653E2,6.205004E2,1.3502585E3,1.875521E2,3.9400952E2,7.254759E2,3.6264385E3,1.9185202E2,6.275631E2,1.7657516E3,2.3830106E2,1.08091064E2,5.454032E2,8.5907745E2,0E0,0E0,0E0,0E0,0E0,0E0,0E0,0E0,0E0,0E0,0E0,0E0,0E0,0E0,0E0,0E0],"parents":[2147483647,0,0,1,1,2,2,3,3,4,4,5,5,6,6,7,7,8,8,9,9,10,10,11,11,12,12,13,13,14,14],"right_children":[2,4,6,8,10,12,14,16,18,20,22,24,26,28,30,-1,-1,-1,-1,-1,-1,-1,-1,-1,-1,-1,-1,-1,-1,-1,-1],"split_conditions":[1E0,1E0,1E0,1E0,1E0,1E0,1E0,1E0,1E0,1E0,1E0,1E0,1E0,1E0,1E0,-2.3012568E-1,2.7010063E-2,1.0524281E-2,9.339205E-2,2.065266E-2,-9.114354E-4,1.7145831E-2,-7.2056375E-2,-1.1610321E-2,-5.994577E-2,-9.562954E-2,-9.664501E-3,2.4147239E-2,-2.0161755E-2,-9.273288E-2,1.6770414E-1],"split_indices":[16,1,8,17,14,34,5,15,29,17,8,35,25,6,6,0,0,0,0,0,0,0,0,0,0,0,0,0,0,0,0],"split_type":[0,0,0,0,0,0,0,0,0,0,0,0,0,0,0,0,0,0,0,0,0,0,0,0,0,0,0,0,0,0,0],"sum_hessian":[3.950416E6,2.85575E6,1.0946661E6,2.005992E5,2.6551508E6,4.860928E5,6.085734E5,8.0816266E4,1.1978293E5,2.2644745E6,3.9067638E5,4.494675E5,3.6625305E4,5.620329E5,4.6540496E4,3.431467E4,4.6501594E4,1.0870072E5,1.1082209E4,7.0588144E5,1.558593E6,2.786864E5,1.11989984E5,4.091283E5,4.033919E4,3.0249678E4,6.3756274E3,4.3188903E5,1.3014383E5,4.1417746E4,5.12275E3],"tree_param":{"num_deleted":"0","num_feature":"39","num_nodes":"31","size_leaf_vector":"0"}},{"base_weights":[-1.4999074E-4,2.0868296E-3,-1.6721573E-2,-2.2035474E-3,2.9415505E-2,1.07372645E-2,-7.863926E-2,1.0780251E-3,-1.8810904E-2,1.5318064E-2,1.11089915E-1,-2.4926862E-2,1.08592324E-1,-1.2624781E-1,1.6699819E-2,-4.375954E-3,5.7354914E-3,-1.942782E-2,1.7152673E-2,1.9896341E-2,-3.665895E-2,1.6552718E-2,1.8986239E-1,3.3363287E-4,-5.55503E-2,1.290661E-1,-1.0310591E-1,-6.320298E-2,-1.9426103E-1,4.4648208E-2,-7.8132816E-2],"categories":[],"categories_nodes":[],"categories_segments":[],"categories_sizes":[],"default_left":[0,0,0,0,0,0,0,0,0,0,0,0,0,0,0,0,0,0,0,0,0,0,0,0,0,0,0,0,0,0,0],"id":45,"left_children":[1,3,5,7,9,11,13,15,17,19,21,23,25,27,29,-1,-1,-1,-1,-1,-1,-1,-1,-1,-1,-1,-1,-1,-1,-1,-1],"loss_changes":[1.4621295E2,4.0749002E2,7.975674E2,1.6370247E2,5.429684E2,1.1341704E3,6.541636E2,1.7807692E2,3.1875146E2,5.4833044E2,1.1902389E3,4.1064368E2,2.5930615E3,3.9695618E2,4.070238E2,0E0,0E0,0E0,0E0,0E0,0E0,0E0,0E0,0E0,0E0,0E0,0E0,0E0,0E0,0E0,0E0],"parents":[2147483647,0,0,1,1,2,2,3,3,4,4,5,5,6,6,7,7,8,8,9,9,10,10,11,11,12,12,13,13,14,14],"right_children":[2,4,6,8,10,12,14,16,18,20,22,24,26,28,30,-1,-1,-1,-1,-1,-1,-1,-1,-1,-1,-1,-1,-1,-1,-1,-1],"split_conditions":[1E0,1E0,1E0,1E0,1E0,1E0,1E0,1E0,1E0,1E0,1E0,1E0,1E0,1E0,1E0,-4.375954E-3,5.7354914E-3,-1.942782E-2,1.7152673E-2,1.9896341E-2,-3.665895E-2,1.6552718E-2,1.8986239E-1,3.3363287E-4,-5.55503E-2,1.290661E-1,-1.0310591E-1,-6.320298E-2,-1.9426103E-1,4.4648208E-2,-7.8132816E-2],"split_indices":[15,27,4,14,6,8,3,7,24,3,4,3,6,27,8,0,0,0,0,0,0,0,0,0,0,0,0,0,0,0,0],"split_type":[0,0,0,0,0,0,0,0,0,0,0,0,0,0,0,0,0,0,0,0,0,0,0,0,0,0,0,0,0,0,0],"sum_hessian":[3.9444872E6,3.4753832E6,4.6910394E5,3.0038108E6,4.7157262E5,3.2498334E5,1.4412058E5,2.508198E6,4.9561278E5,4.0215903E5,6.941362E4,2.3817803E5,8.680531E4,9.612117E4,4.7999414E4,1.2622734E6,1.2459246E6,3.853105E5,1.1030227E5,3.2603372E5,7.61253E4,4.934799E4,2.0065633E4,1.7301364E5,6.5164395E4,6.2910312E4,2.3894996E4,8.692123E4,9.199943E3,3.4462344E4,1.3537071E4],"tree_param":{"num_deleted":"0","num_feature":"39","num_nodes":"31","size_leaf_vector":"0"}},{"base_weights":[-1.998003E-5,3.1762787E-3,-5.4120338E-3,1.0344496E-3,2.4526833E-2,-1.1209948E-3,-3.738148E-2,6.7817927E-3,-1.1861216E-2,6.779456E-2,-3.240093E-2,1.5839506E-2,-1.2366435E-2,-2.2931982E-2,-1.19675554E-1,9.718235E-3,-1.1882487E-2,-1.8916262E-2,4.289243E-2,2.5083417E-2,7.076499E-2,6.347479E-2,-2.9515015E-2,3.966209E-3,7.905619E-2,-4.8065763E-3,-3.1925205E-2,-2.0781163E-2,5.7344966E-2,-3.9124858E-2,-1.5754782E-1],"categories":[],"categories_nodes":[],"categories_segments":[],"categories_sizes":[],"default_left":[0,0,0,0,0,0,0,0,0,0,0,0,0,0,0,0,0,0,0,0,0,0,0,0,0,0,0,0,0,0,0],"id":46,"left_children":[1,3,5,7,9,11,13,15,17,19,21,23,25,27,29,-1,-1,-1,-1,-1,-1,-1,-1,-1,-1,-1,-1,-1,-1,-1,-1],"loss_changes":[6.810935E1,1.1346213E2,2.0176335E2,1.6712846E2,5.5719165E2,2.4732162E2,2.0696129E2,3.9043802E2,1.1394712E3,1.6749896E2,2.2667188E2,5.5310254E2,1.3870392E2,2.0534409E2,2.0232306E2,0E0,0E0,0E0,0E0,0E0,0E0,0E0,0E0,0E0,0E0,0E0,0E0,0E0,0E0,0E0,0E0],"parents":[2147483647,0,0,1,1,2,2,3,3,4,4,5,5,6,6,7,7,8,8,9,9,10,10,11,11,12,12,13,13,14,14],"right_children":[2,4,6,8,10,12,14,16,18,20,22,24,26,28,30,-1,-1,-1,-1,-1,-1,-1,-1,-1,-1,-1,-1,-1,-1,-1,-1],"split_conditions":[1E0,1E0,1E0,1E0,1E0,1E0,1E0,1E0,1E0,1E0,1E0,1E0,1E0,1E0,1E0,9.718235E-3,-1.1882487E-2,-1.8916262E-2,4.289243E-2,2.5083417E-2,7.076499E-2,6.347479E-2,-2.9515015E-2,3.966209E-3,7.905619E-2,-4.8065763E-3,-3.1925205E-2,-2.0781163E-2,5.7344966E-2,-3.9124858E-2,-1.5754782E-1],"split_indices":[12,35,15,8,7,17,24,13,13,14,1,5,27,30,8,0,0,0,0,0,0,0,0,0,0,0,0,0,0,0,0],"split_type":[0,0,0,0,0,0,0,0,0,0,0,0,0,0,0,0,0,0,0,0,0,0,0,0,0,0,0,0,0,0,0],"sum_hessian":[3.951941E6,2.481172E6,1.470769E6,2.2549615E6,2.262105E5,1.2967202E6,1.7404878E5,1.559793E6,6.9516844E5,1.2852521E5,9.768529E4,5.1698984E5,7.797304E5,1.4805416E5,2.5994623E4,1.1518662E6,4.0792678E5,5.6245844E5,1.3270998E5,8.465457E4,4.3870637E4,1.0582589E4,8.71027E4,4.7886553E5,3.812433E4,7.045928E5,7.513758E4,1.347477E5,1.3306459E4,1.8822096E4,7.1725264E3],"tree_param":{"num_deleted":"0","num_feature":"39",