{"learner":{"attributes":{"best_iteration":"149","best_ntree_limit":"150","scikit_learn":"{\"use_label_encoder\": null, \"n_estimators\": 150, \"objective\": \"multi:softmax\", \"max_depth\": 3, \"max_leaves\": null, \"max_bin\": null, \"grow_policy\": null, \"learning_rate\": 0.8, \"verbosity\": null, \"booster\": null, \"tree_method\": \"gpu_hist\", \"gamma\": null, \"min_child_weight\": null, \"max_delta_step\": null, \"subsample\": null, \"sampling_method\": null, \"colsample_bytree\": null, \"colsample_bylevel\": null, \"colsample_bynode\": null, \"reg_alpha\": null, \"reg_lambda\": null, \"scale_pos_weight\": null, \"base_score\": null, \"missing\": NaN, \"num_parallel_tree\": null, \"random_state\": null, \"n_jobs\": -1, \"monotone_constraints\": null, \"interaction_constraints\": null, \"importance_type\": null, \"gpu_id\": 0, \"validate_parameters\": null, \"predictor\": null, \"enable_categorical\": false, \"feature_types\": null, \"max_cat_to_onehot\": null, \"max_cat_threshold\": null, \"eval_metric\": null, \"early_stopping_rounds\": null, \"callbacks\": null, \"classes_\": [0, 1, 2, 3, 4, 5, 6, 7, 8, 9, 10, 11, 12, 13, 14], \"n_classes_\": 15, \"_estimator_type\": \"classifier\"}"},"feature_names":[],"feature_types":[],"gradient_booster":{"model":{"gbtree_model_param":{"num_parallel_tree":"1","num_trees":"2250","size_leaf_vector":"0"},"tree_info":[0,1,2,3,4,5,6,7,8,9,10,11,12,13,14,0,1,2,3,4,5,6,7,8,9,10,11,12,13,14,0,1,2,3,4,5,6,7,8,9,10,11,12,13,14,0,1,2,3,4,5,6,7,8,9,10,11,12,13,14,0,1,2,3,4,5,6,7,8,9,10,11,12,13,14,0,1,2,3,4,5,6,7,8,9,10,11,12,13,14,0,1,2,3,4,5,6,7,8,9,10,11,12,13,14,0,1,2,3,4,5,6,7,8,9,10,11,12,13,14,0,1,2,3,4,5,6,7,8,9,10,11,12,13,14,0,1,2,3,4,5,6,7,8,9,10,11,12,13,14,0,1,2,3,4,5,6,7,8,9,10,11,12,13,14,0,1,2,3,4,5,6,7,8,9,10,11,12,13,14,0,1,2,3,4,5,6,7,8,9,10,11,12,13,14,0,1,2,3,4,5,6,7,8,9,10,11,12,13,14,0,1,2,3,4,5,6,7,8,9,10,11,12,13,14,0,1,2,3,4,5,6,7,8,9,10,11,12,13,14,0,1,2,3,4,5,6,7,8,9,10,11,12,13,14,0,1,2,3,4,5,6,7,8,9,10,11,12,13,14,0,1,2,3,4,5,6,7,8,9,10,11,12,13,14,0,1,2,3,4,5,6,7,8,9,10,11,12,13,14,0,1,2,3,4,5,6,7,8,9,10,11,12,13,14,0,1,2,3,4,5,6,7,8,9,10,11,12,13,14,0,1,2,3,4,5,6,7,8,9,10,11,12,13,14,0,1,2,3,4,5,6,7,8,9,10,11,12,13,14,0,1,2,3,4,5,6,7,8,9,10,11,12,13,14,0,1,2,3,4,5,6,7,8,9,10,11,12,13,14,0,1,2,3,4,5,6,7,8,9,10,11,12,13,14,0,1,2,3,4,5,6,7,8,9,10,11,12,13,14,0,1,2,3,4,5,6,7,8,9,10,11,12,13,14,0,1,2,3,4,5,6,7,8,9,10,11,12,13,14,0,1,2,3,4,5,6,7,8,9,10,11,12,13,14,0,1,2,3,4,5,6,7,8,9,10,11,12,13,14,0,1,2,3,4,5,6,7,8,9,10,11,12,13,14,0,1,2,3,4,5,6,7,8,9,10,11,12,13,14,0,1,2,3,4,5,6,7,8,9,10,11,12,13,14,0,1,2,3,4,5,6,7,8,9,10,11,12,13,14,0,1,2,3,4,5,6,7,8,9,10,11,12,13,14,0,1,2,3,4,5,6,7,8,9,10,11,12,13,14,0,1,2,3,4,5,6,7,8,9,10,11,12,13,14,0,1,2,3,4,5,6,7,8,9,10,11,12,13,14,0,1,2,3,4,5,6,7,8,9,10,11,12,13,14,0,1,2,3,4,5,6,7,8,9,10,11,12,13,14,0,1,2,3,4,5,6,7,8,9,10,11,12,13,14,0,1,2,3,4,5,6,7,8,9,10,11,12,13,14,0,1,2,3,4,5,6,7,8,9,10,11,12,13,14,0,1,2,3,4,5,6,7,8,9,10,11,12,13,14,0,1,2,3,4,5,6,7,8,9,10,11,12,13,14,0,1,2,3,4,5,6,7,8,9,10,11,12,13,14,0,1,2,3,4,5,6,7,8,9,10,11,12,13,14,0,1,2,3,4,5,6,7,8,9,10,11,12,13,14,0,1,2,3,4,5,6,7,8,9,10,11,12,13,14,0,1,2,3,4,5,6,7,8,9,10,11,12,13,14,0,1,2,3,4,5,6,7,8,9,10,11,12,13,14,0,1,2,3,4,5,6,7,8,9,10,11,12,13,14,0,1,2,3,4,5,6,7,8,9,10,11,12,13,14,0,1,2,3,4,5,6,7,8,9,10,11,12,13,14,0,1,2,3,4,5,6,7,8,9,10,11,12,13,14,0,1,2,3,4,5,6,7,8,9,10,11,12,13,14,0,1,2,3,4,5,6,7,8,9,10,11,12,13,14,0,1,2,3,4,5,6,7,8,9,10,11,12,13,14,0,1,2,3,4,5,6,7,8,9,10,11,12,13,14,0,1,2,3,4,5,6,7,8,9,10,11,12,13,14,0,1,2,3,4,5,6,7,8,9,10,11,12,13,14,0,1,2,3,4,5,6,7,8,9,10,11,12,13,14,0,1,2,3,4,5,6,7,8,9,10,11,12,13,14,0,1,2,3,4,5,6,7,8,9,10,11,12,13,14,0,1,2,3,4,5,6,7,8,9,10,11,12,13,14,0,1,2,3,4,5,6,7,8,9,10,11,12,13,14,0,1,2,3,4,5,6,7,8,9,10,11,12,13,14,0,1,2,3,4,5,6,7,8,9,10,11,12,13,14,0,1,2,3,4,5,6,7,8,9,10,11,12,13,14,0,1,2,3,4,5,6,7,8,9,10,11,12,13,14,0,1,2,3,4,5,6,7,8,9,10,11,12,13,14,0,1,2,3,4,5,6,7,8,9,10,11,12,13,14,0,1,2,3,4,5,6,7,8,9,10,11,12,13,14,0,1,2,3,4,5,6,7,8,9,10,11,12,13,14,0,1,2,3,4,5,6,7,8,9,10,11,12,13,14,0,1,2,3,4,5,6,7,8,9,10,11,12,13,14,0,1,2,3,4,5,6,7,8,9,10,11,12,13,14,0,1,2,3,4,5,6,7,8,9,10,11,12,13,14,0,1,2,3,4,5,6,7,8,9,10,11,12,13,14,0,1,2,3,4,5,6,7,8,9,10,11,12,13,14,0,1,2,3,4,5,6,7,8,9,10,11,12,13,14,0,1,2,3,4,5,6,7,8,9,10,11,12,13,14,0,1,2,3,4,5,6,7,8,9,10,11,12,13,14,0,1,2,3,4,5,6,7,8,9,10,11,12,13,14,0,1,2,3,4,5,6,7,8,9,10,11,12,13,14,0,1,2,3,4,5,6,7,8,9,10,11,12,13,14,0,1,2,3,4,5,6,7,8,9,10,11,12,13,14,0,1,2,3,4,5,6,7,8,9,10,11,12,13,14,0,1,2,3,4,5,6,7,8,9,10,11,12,13,14,0,1,2,3,4,5,6,7,8,9,10,11,12,13,14,0,1,2,3,4,5,6,7,8,9,10,11,12,13,14,0,1,2,3,4,5,6,7,8,9,10,11,12,13,14,0,1,2,3,4,5,6,7,8,9,10,11,12,13,14,0,1,2,3,4,5,6,7,8,9,10,11,12,13,14,0,1,2,3,4,5,6,7,8,9,10,11,12,13,14,0,1,2,3,4,5,6,7,8,9,10,11,12,13,14,0,1,2,3,4,5,6,7,8,9,10,11,12,13,14,0,1,2,3,4,5,6,7,8,9,10,11,12,13,14,0,1,2,3,4,5,6,7,8,9,10,11,12,13,14,0,1,2,3,4,5,6,7,8,9,10,11,12,13,14,0,1,2,3,4,5,6,7,8,9,10,11,12,13,14,0,1,2,3,4,5,6,7,8,9,10,11,12,13,14,0,1,2,3,4,5,6,7,8,9,10,11,12,13,14,0,1,2,3,4,5,6,7,8,9,10,11,12,13,14,0,1,2,3,4,5,6,7,8,9,10,11,12,13,14,0,1,2,3,4,5,6,7,8,9,10,11,12,13,14,0,1,2,3,4,5,6,7,8,9,10,11,12,13,14,0,1,2,3,4,5,6,7,8,9,10,11,12,13,14,0,1,2,3,4,5,6,7,8,9,10,11,12,13,14,0,1,2,3,4,5,6,7,8,9,10,11,12,13,14,0,1,2,3,4,5,6,7,8,9,10,11,12,13,14,0,1,2,3,4,5,6,7,8,9,10,11,12,13,14,0,1,2,3,4,5,6,7,8,9,10,11,12,13,14,0,1,2,3,4,5,6,7,8,9,10,11,12,13,14,0,1,2,3,4,5,6,7,8,9,10,11,12,13,14,0,1,2,3,4,5,6,7,8,9,10,11,12,13,14,0,1,2,3,4,5,6,7,8,9,10,11,12,13,14,0,1,2,3,4,5,6,7,8,9,10,11,12,13,14,0,1,2,3,4,5,6,7,8,9,10,11,12,13,14,0,1,2,3,4,5,6,7,8,9,10,11,12,13,14,0,1,2,3,4,5,6,7,8,9,10,11,12,13,14,0,1,2,3,4,5,6,7,8,9,10,11,12,13,14,0,1,2,3,4,5,6,7,8,9,10,11,12,13,14,0,1,2,3,4,5,6,7,8,9,10,11,12,13,14,0,1,2,3,4,5,6,7,8,9,10,11,12,13,14,0,1,2,3,4,5,6,7,8,9,10,11,12,13,14,0,1,2,3,4,5,6,7,8,9,10,11,12,13,14,0,1,2,3,4,5,6,7,8,9,10,11,12,13,14,0,1,2,3,4,5,6,7,8,9,10,11,12,13,14,0,1,2,3,4,5,6,7,8,9,10,11,12,13,14,0,1,2,3,4,5,6,7,8,9,10,11,12,13,14,0,1,2,3,4,5,6,7,8,9,10,11,12,13,14,0,1,2,3,4,5,6,7,8,9,10,11,12,13,14,0,1,2,3,4,5,6,7,8,9,10,11,12,13,14,0,1,2,3,4,5,6,7,8,9,10,11,12,13,14,0,1,2,3,4,5,6,7,8,9,10,11,12,13,14,0,1,2,3,4,5,6,7,8,9,10,11,12,13,14,0,1,2,3,4,5,6,7,8,9,10,11,12,13,14,0,1,2,3,4,5,6,7,8,9,10,11,12,13,14,0,1,2,3,4,5,6,7,8,9,10,11,12,13,14,0,1,2,3,4,5,6,7,8,9,10,11,12,13,14,0,1,2,3,4,5,6,7,8,9,10,11,12,13,14,0,1,2,3,4,5,6,7,8,9,10,11,12,13,14,0,1,2,3,4,5,6,7,8,9,10,11,12,13,14,0,1,2,3,4,5,6,7,8,9,10,11,12,13,14,0,1,2,3,4,5,6,7,8,9,10,11,12,13,14,0,1,2,3,4,5,6,7,8,9,10,11,12,13,14,0,1,2,3,4,5,6,7,8,9,10,11,12,13,14],"trees":[{"base_weights":[1.0164583E-6,-4.2857122E-1,1.463255E0,1.9706504E0,1.1383295E0,1.8294662E0,1.1288694E0,1.0344402E0,2.2702329E-1],"categories":[],"categories_nodes":[],"categories_segments":[],"categories_sizes":[],"default_left":[0,0,0,0,0,0,0,0,0],"id":0,"left_children":[1,-1,3,5,7,-1,-1,-1,-1],"loss_changes":[2.2750608E6,0E0,1.28230125E5,5.3717875E4,6.26915E4,0E0,0E0,0E0,0E0],"parents":[2147483647,0,0,2,2,3,3,4,4],"right_children":[2,-1,4,6,8,-1,-1,-1,-1],"split_conditions":[1E0,-4.2857122E-1,1E0,1E0,1E0,1.8294662E0,1.1288694E0,1.0344402E0,2.2702329E-1],"split_indices":[3,0,17,15,14,0,0,0,0],"split_type":[0,0,0,0,0,0,0,0,0],"sum_hessian":[2.902279E6,2.1244812E6,7.777977E5,3.0363856E5,4.7415912E5,1.9400983E5,1.0962872E5,4.0147038E5,7.268874E4],"tree_param":{"num_deleted":"0","num_feature":"39","num_nodes":"9","size_leaf_vector":"0"}},{"base_weights":[1.9232973E-6,2.2963385E-1,-2.226778E-1,3.2853243E-1,-1.3685547E-1,-2.3828915E-1,5.0471514E-2,3.4495476E-1,-8.4635034E-2,-8.182205E-2,-1.8800582E-1,-1.6413282E-1,-2.702568E-1,1.4024489E-1,-1.0921881E-1],"categories":[],"categories_nodes":[],"categories_segments":[],"categories_sizes":[],"default_left":[0,0,0,0,0,0,0,0,0,0,0,0,0,0,0],"id":1,"left_children":[1,3,5,7,9,11,13,-1,-1,-1,-1,-1,-1,-1,-1],"loss_changes":[1.4840631E5,5.17886E4,6.283133E3,5.017075E4,1.0304937E3,4.5949688E3,1.8595665E3,0E0,0E0,0E0,0E0,0E0,0E0,0E0,0E0],"parents":[2147483647,0,0,1,1,2,2,3,3,4,4,5,5,6,6],"right_children":[2,4,6,8,10,12,14,-1,-1,-1,-1,-1,-1,-1,-1],"split_conditions":[1E0,1E0,1E0,1E0,1E0,1E0,1E0,3.4495476E-1,-8.4635034E-2,-8.182205E-2,-1.8800582E-1,-1.6413282E-1,-2.702568E-1,1.4024489E-1,-1.0921881E-1],"split_indices":[17,3,8,4,4,5,4,0,0,0,0,0,0,0,0],"split_type":[0,0,0,0,0,0,0,0,0,0,0,0,0,0,0],"sum_hessian":[2.902279E6,1.4288349E6,1.473444E6,1.1251962E6,3.0363856E5,1.3937849E6,7.965914E4,9.1008175E5,2.1511458E5,2.2453806E5,7.91005E4,1.0457676E6,3.4801728E5,4.7769273E4,3.1889867E4],"tree_param":{"num_deleted":"0","num_feature":"39","num_nodes":"15","size_leaf_vector":"0"}},{"base_weights":[-2.670365E-7,-1.2930402E-1,4.7971258E-1,-8.562376E-2,-3.3250183E-1,4.0413237E-1,6.172693E-1,6.8987305E-3,-1.3725697E-1,-2.8269997E-1,-1.23468295E-1,3.7912008E-1,7.935964E-2,5.648079E-1,1.5329374E-1],"categories":[],"categories_nodes":[],"categories_segments":[],"categories_sizes":[],"default_left":[0,0,0,0,0,0,0,0,0,0,0,0,0,0,0],"id":2,"left_children":[1,3,5,7,9,11,13,-1,-1,-1,-1,-1,-1,-1,-1],"loss_changes":[1.8002462E5,2.0290617E4,6.4061094E3,1.5241573E4,1.5041523E3,8.460664E3,8.253492E3,0E0,0E0,0E0,0E0,0E0,0E0,0E0,0E0],"parents":[2147483647,0,0,1,1,2,2,3,3,4,4,5,5,6,6],"right_children":[2,4,6,8,10,12,14,-1,-1,-1,-1,-1,-1,-1,-1],"split_conditions":[1E0,1E0,1E0,1E0,1E0,1E0,1E0,6.8987305E-3,-1.3725697E-1,-2.8269997E-1,-1.23468295E-1,3.7912008E-1,7.935964E-2,5.648079E-1,1.5329374E-1],"split_indices":[14,13,16,12,22,8,32,0,0,0,0,0,0,0,0],"split_type":[0,0,0,0,0,0,0,0,0,0,0,0,0,0,0],"sum_hessian":[2.902279E6,2.2860802E6,6.161986E5,1.8816041E6,4.044761E5,3.9769178E5,2.1850688E5,8.974694E5,9.841348E5,3.6205816E5,4.2417953E4,3.2364272E5,7.4049055E4,1.8081056E5,3.7696312E4],"tree_param":{"num_deleted":"0","num_feature":"39","num_nodes":"15","size_leaf_vector":"0"}},{"base_weights":[-1.1080275E-6,-4.2857122E-1,1.5309812E0,1.9847382E0,7.350514E-1,1.2686502E0,2.3311682E0,4.8228222E-1,1.1105208E0],"categories":[],"categories_nodes":[],"categories_segments":[],"categories_sizes":[],"default_left":[0,0,0,0,0,0,0,0,0],"id":3,"left_children":[1,-1,3,5,7,-1,-1,-1,-1],"loss_changes":[2.380355E6,0E0,2.7170088E5,1.7761038E5,2.3583625E4,0E0,0E0,0E0,0E0],"parents":[2147483647,0,0,2,2,3,3,4,4],"right_children":[2,-1,4,6,8,-1,-1,-1,-1],"split_conditions":[1E0,-4.2857122E-1,1E0,1E0,1E0,1.2686502E0,2.3311682E0,4.8228222E-1,1.1105208E0],"split_indices":[4,0,3,8,8,0,0,0,0],"split_type":[0,0,0,0,0,0,0,0,0],"sum_hessian":[2.902279E6,2.1499728E6,7.5230606E5,4.791453E5,2.7316075E5,3.3522997E5,1.4391533E5,2.2717795E5,4.5982805E4],"tree_param":{"num_deleted":"0","num_feature":"39","num_nodes":"9","size_leaf_vector":"0"}},{"base_weights":[-2.149983E-6,-4.2857122E-1,2.5765982E0,3.1045082E0,1.1277062E0,2.7592094E0,1.2642817E0,1.1060177E0,5.384969E-1],"categories":[],"categories_nodes":[],"categories_segments":[],"categories_sizes":[],"default_left":[0,0,0,0,0,0,0,0,0],"id":4,"left_children":[1,-1,3,5,7,-1,-1,-1,-1],"loss_changes":[4.006063E6,0E0,3.82102E5,1.92252E5,1.5452719E4,0E0,0E0,0E0,0E0],"parents":[2147483647,0,0,2,2,3,3,4,4],"right_children":[2,-1,4,6,8,-1,-1,-1,-1],"split_conditions":[1E0,-4.2857122E-1,1E0,1E0,1E0,2.7592094E0,1.2642817E0,1.1060177E0,5.384969E-1],"split_indices":[5,0,3,4,4,0,0,0,0],"split_type":[0,0,0,0,0,0,0,0,0],"sum_hessian":[2.902279E6,2.40272E6,4.9955894E5,3.661496E5,1.3340934E5,2.9864572E5,6.7503875E4,8.548757E4,4.792177E4],"tree_param":{"num_deleted":"0","num_feature":"39","num_nodes":"9","size_leaf_vector":"0"}},{"base_weights":[-1.4430665E-6,-1.8863277E-1,6.998148E-1,-2.502089E-1,3.7880185E-1,4.675248E-1,2.1882865E0,-2.6200923E-1,2.7861604E-1,7.4347013E-1,-1.9510204E-1,2.2299452E-1,1.4182285E0,1.3740968E0,2.6432288E0],"categories":[],"categories_nodes":[],"categories_segments":[],"categories_sizes":[],"default_left":[0,0,0,0,0,0,0,0,0,0,0,0,0,0,0],"id":5,"left_children":[1,3,5,7,9,11,13,-1,-1,-1,-1,-1,-1,-1,-1],"loss_changes":[3.831222E5,7.987678E4,2.130544E5,9.540983E4,7.671818E4,1.3134025E5,4.367697E4,0E0,0E0,0E0,0E0,0E0,0E0,0E0,0E0],"parents":[2147483647,0,0,1,1,2,2,3,3,4,4,5,5,6,6],"right_children":[2,4,6,8,10,12,14,-1,-1,-1,-1,-1,-1,-1,-1],"split_conditions":[1E0,1E0,1E0,1E0,1E0,1E0,1E0,-2.6200923E-1,2.7861604E-1,7.4347013E-1,-1.9510204E-1,2.2299452E-1,1.4182285E0,1.3740968E0,2.6432288E0],"split_indices":[14,34,35,35,7,34,25,0,0,0,0,0,0,0,0],"split_type":[0,0,0,0,0,0,0,0,0,0,0,0,0,0,0],"sum_hessian":[2.902279E6,2.2860802E6,6.161986E5,2.062288E6,2.237922E5,5.3301756E5,8.3181086E4,1.8263835E6,2.3590456E5,1.1877658E5,1.05015625E5,4.656685E5,6.7349055E4,5.8504285E4,2.46768E4],"tree_param":{"num_deleted":"0","num_feature":"39","num_nodes":"15","size_leaf_vector":"0"}},{"base_weights":[3.6986404E-7,8.768039E-2,-3.2528976E-1,1.7257091E-1,-2.4751239E-1,-3.899372E-1,-2.2073162E-1,-5.757048E-3,2.6080772E-1,-2.4325195E-1,-1.386836E-1,-3.0542952E-1,-3.5066503E-1,-1.921755E-1,-8.118741E-2],"categories":[],"categories_nodes":[],"categories_segments":[],"categories_sizes":[],"default_left":[0,0,0,0,0,0,0,0,0,0,0,0,0,0,0],"id":6,"left_children":[1,3,5,7,9,11,13,-1,-1,-1,-1,-1,-1,-1,-1],"loss_changes":[8.277724E4,6.5049758E4,4.1650664E3,5.0314895E4,1.937373E3,1.5001953E2,5.47083E2,0E0,0E0,0E0,0E0,0E0,0E0,0E0,0E0],"parents":[2147483647,0,0,1,1,2,2,3,3,4,4,5,5,6,6],"right_children":[2,4,6,8,10,12,14,-1,-1,-1,-1,-1,-1,-1,-1],"split_conditions":[1E0,1E0,1E0,1E0,1E0,1E0,1E0,-5.757048E-3,2.6080772E-1,-2.4325195E-1,-1.386836E-1,-3.0542952E-1,-3.5066503E-1,-1.921755E-1,-8.118741E-2],"split_indices":[14,6,7,7,7,35,32,0,0,0,0,0,0,0,0],"split_type":[0,0,0,0,0,0,0,0,0,0,0,0,0,0,0],"sum_hessian":[2.902279E6,2.2860802E6,6.161986E5,1.8241091E6,4.619712E5,3.807693E5,2.3542933E5,8.399884E5,9.841207E5,2.6209523E5,1.9987595E5,3.2589278E5,5.4876535E4,2.0235831E5,3.307101E4],"tree_param":{"num_deleted":"0","num_feature":"39","num_nodes":"15","size_leaf_vector":"0"}},{"base_weights":[-7.10647E-6,-1.1197036E-1,4.1537303E-1,4.7116917E-2,-2.6005134E-1,3.3310485E-1,9.3577284E-1,-1.3032483E-2,2.4474354E-1,-1.5057911E-1,-3.1219175E-1,1.3303095E-1,5.1631373E-1,8.830749E-1,3.4892908E-1],"categories":[],"categories_nodes":[],"categories_segments":[],"categories_sizes":[],"default_left":[0,0,0,0,0,0,0,0,0,0,0,0,0,0,0],"id":7,"left_children":[1,3,5,7,9,11,13,-1,-1,-1,-1,-1,-1,-1,-1],"loss_changes":[1.3497728E5,5.385506E4,2.6380633E4,1.808594E4,1.1071594E4,2.7718672E4,7.0626484E3,0E0,0E0,0E0,0E0,0E0,0E0,0E0,0E0],"parents":[2147483647,0,0,1,1,2,2,3,3,4,4,5,5,6,6],"right_children":[2,4,6,8,10,12,14,-1,-1,-1,-1,-1,-1,-1,-1],"split_conditions":[1E0,1E0,1E0,1E0,1E0,1E0,1E0,-1.3032483E-2,2.4474354E-1,-1.5057911E-1,-3.1219175E-1,1.3303095E-1,5.1631373E-1,8.830749E-1,3.4892908E-1],"split_indices":[14,7,20,20,5,9,4,0,0,0,0,0,0,0,0],"split_type":[0,0,0,0,0,0,0,0,0,0,0,0,0,0,0],"sum_hessian":[2.902279E6,2.2860802E6,6.161986E5,1.1020836E6,1.1839966E6,5.320849E5,8.41138E4,8.852127E5,2.168709E5,7.6302394E5,4.2097272E5,3.4682244E5,1.8526244E5,6.2939543E4,2.1174252E4],"tree_param":{"num_deleted":"0","num_feature":"39","num_nodes":"15","size_leaf_vector":"0"}},{"base_weights":[6.532467E-7,-4.2857122E-1,2.3030908E0,2.769978E0,1.323961E0,2.5552146E0,1.3734983E0,1.1781992E0,3.821113E-1],"categories":[],"categories_nodes":[],"categories_segments":[],"categories_sizes":[],"default_left":[0,0,0,0,0,0,0,0,0],"id":8,"left_children":[1,-1,3,5,7,-1,-1,-1,-1],"loss_changes":[3.580832E6,0E0,2.5037075E5,1.6560275E5,2.2267438E4,0E0,0E0,0E0,0E0],"parents":[2147483647,0,0,2,2,3,3,4,4],"right_children":[2,-1,4,6,8,-1,-1,-1,-1],"split_conditions":[1E0,-4.2857122E-1,1E0,1E0,1E0,2.5552146E0,1.3734983E0,1.1781992E0,3.821113E-1],"split_indices":[6,0,3,4,14,0,0,0,0],"split_type":[0,0,0,0,0,0,0,0,0],"sum_hessian":[2.902279E6,2.3545865E6,5.476924E5,3.7085325E5,1.7683911E5,2.6439194E5,1.064613E5,1.5039766E5,2.6441455E4],"tree_param":{"num_deleted":"0","num_feature":"39","num_nodes":"9","size_leaf_vector":"0"}},{"base_weights":[-2.4540802E-7,-1.10895835E-1,1.1127551E0,-2.1082006E-1,5.621418E-1,2.6883109E0,9.7418654E-1,-2.3497055E-1,4.2221718E-2,1.8813187E-1,1.0065631E0,2.5865123E0,5.404255E-1,5.034708E-1,1.1329129E0],"categories":[],"categories_nodes":[],"categories_segments":[],"categories_sizes":[],"default_left":[0,0,0,0,0,0,0,0,0,0,0,0,0,0,0],"id":9,"left_children":[1,3,5,7,9,11,13,-1,-1,-1,-1,-1,-1,-1,-1],"loss_changes":[3.581404E5,1.774974E5,5.742153E4,5.0213703E4,7.765296E4,2.3314312E4,3.6845594E4,0E0,0E0,0E0,0E0,0E0,0E0,0E0,0E0],"parents":[2147483647,0,0,1,1,2,2,3,3,4,4,5,5,6,6],"right_children":[2,4,6,8,10,12,14,-1,-1,-1,-1,-1,-1,-1,-1],"split_conditions":[1E0,1E0,1E0,1E0,1E0,1E0,1E0,-2.3497055E-1,4.2221718E-2,1.8813187E-1,1.0065631E0,2.5865123E0,5.404255E-1,5.034708E-1,1.1329129E0],"split_indices":[27,24,1,8,8,17,8,0,0,0,0,0,0,0,0],"split_type":[0,0,0,0,0,0,0,0,0,0,0,0,0,0,0],"sum_hessian":[2.902279E6,2.6392555E6,2.630235E5,2.2980678E6,3.4118775E5,2.1261127E4,2.4176238E5,1.7482861E6,5.497816E5,2.3214048E5,1.09047266E5,1.673154E4,4.5295884E3,1.3580158E5,1.0596079E5],"tree_param":{"num_deleted":"0","num_feature":"39","num_nodes":"15","size_leaf_vector":"0"}},{"base_weights":[1.24263115E-5,1.6893296E0,-1.4550807E-1,5.5185187E-1,3.1710842E0,-3.526326E-1,8.2088806E-2,6.705351E-1,-8.413207E-2,2.9417808E0,6.148626E-1,-3.0213758E-1,-2.883122E-2,-2.2744177E-2,5.3455716E-1],"categories":[],"categories_nodes":[],"categories_segments":[],"categories_sizes":[],"default_left":[0,0,0,0,0,0,0,0,0,0,0,0,0,0,0],"id":10,"left_children":[1,3,5,7,9,11,13,-1,-1,-1,-1,-1,-1,-1,-1],"loss_changes":[7.1346844E5,3.879565E5,1.259653E5,2.4496125E4,1.21551625E5,1.10900625E4,8.246855E4,0E0,0E0,0E0,0E0,0E0,0E0,0E0,0E0],"parents":[2147483647,0,0,1,1,2,2,3,3,4,4,5,5,6,6],"right_children":[2,4,6,8,10,12,14,-1,-1,-1,-1,-1,-1,-1,-1],"split_conditions":[1E0,1E0,1E0,1E0,1E0,1E0,1E0,6.705351E-1,-8.413207E-2,2.9417808E0,6.148626E-1,-3.0213758E-1,-2.883122E-2,-2.2744177E-2,5.3455716E-1],"split_indices":[1,13,7,6,6,13,13,0,0,0,0,0,0,0,0],"split_type":[0,0,0,0,0,0,0,0,0,0,0,0,0,0,0],"sum_hessian":[2.902279E6,2.3017812E5,2.6721008E6,1.3021735E5,9.996077E4,1.3989688E6,1.2731321E6,9.06941E4,3.952325E4,8.2565875E4,1.7394895E4,1.2964335E6,1.0253519E5,1.071152E6,2.0198014E5],"tree_param":{"num_deleted":"0","num_feature":"39","num_nodes":"15","size_leaf_vector":"0"}},{"base_weights":[-1.3901882E-6,7.793707E-2,-2.1432145E-1,-4.3071076E-1,1.2570372E-1,-2.7134332E-1,7.964815E-2,-3.5353544E-1,-2.1791509E-1,1.8179937E-1,-8.937028E-2,-1.8739353E-1,-3.075429E-1,1.4187483E-1,-1.8828623E-1],"categories":[],"categories_nodes":[],"categories_segments":[],"categories_sizes":[],"default_left":[0,0,0,0,0,0,0,0,0,0,0,0,0,0,0],"id":11,"left_children":[1,3,5,7,9,11,13,-1,-1,-1,-1,-1,-1,-1,-1],"loss_changes":[4.8479047E4,5.171036E4,1.297384E4,3.2409375E2,4.6905727E4,2.7196484E3,3.8696267E3,0E0,0E0,0E0,0E0,0E0,0E0,0E0,0E0],"parents":[2147483647,0,0,1,1,2,2,3,3,4,4,5,5,6,6],"right_children":[2,4,6,8,10,12,14,-1,-1,-1,-1,-1,-1,-1,-1],"split_conditions":[1E0,1E0,1E0,1E0,1E0,1E0,1E0,-3.5353544E-1,-2.1791509E-1,1.8179937E-1,-8.937028E-2,-1.8739353E-1,-3.075429E-1,1.4187483E-1,-1.8828623E-1],"split_indices":[8,1,32,27,3,4,4,0,0,0,0,0,0,0,0],"split_type":[0,0,0,0,0,0,0,0,0,0,0,0,0,0,0],"sum_hessian":[2.902279E6,2.12831E6,7.7396894E5,1.8270889E5,1.9456011E6,6.4823044E5,1.2573846E5,1.7062703E5,1.2081857E4,1.3627424E6,5.828587E5,4.88097E5,1.6013344E5,9.5973766E4,2.9764693E4],"tree_param":{"num_deleted":"0","num_feature":"39","num_nodes":"15","size_leaf_vector":"0"}},{"base_weights":[5.554426E-7,3.323215E-1,-3.471701E-1,4.5573604E-1,3.4148008E-2,-2.9288697E-1,-4.6749747E-1,3.0228743E-1,8.4347004E-1,-8.493798E-3,3.0349624E-1,-2.1048987E-1,-3.6781272E-1,-3.8241908E-1,-3.0385002E-1],"categories":[],"categories_nodes":[],"categories_segments":[],"categories_sizes":[],"default_left":[0,0,0,0,0,0,0,0,0,0,0,0,0,0,0],"id":12,"left_children":[1,3,5,7,9,11,13,-1,-1,-1,-1,-1,-1,-1,-1],"loss_changes":[3.3484216E5,5.4567453E4,9.2711875E3,4.889014E4,6.708382E3,4.8601016E3,4.071172E2,0E0,0E0,0E0,0E0,0E0,0E0,0E0,0E0],"parents":[2147483647,0,0,1,1,2,2,3,3,4,4,5,5,6,6],"right_children":[2,4,6,8,10,12,14,-1,-1,-1,-1,-1,-1,-1,-1],"split_conditions":[1E0,1E0,1E0,1E0,1E0,1E0,1E0,3.0228743E-1,8.4347004E-1,-8.493798E-3,3.0349624E-1,-2.1048987E-1,-3.6781272E-1,-3.8241908E-1,-3.0385002E-1],"split_indices":[7,4,5,32,32,13,22,0,0,0,0,0,0,0,0],"split_type":[0,0,0,0,0,0,0,0,0,0,0,0,0,0,0],"sum_hessian":[2.902279E6,1.482853E6,1.419426E6,1.0487661E6,4.340868E5,9.781555E5,4.4127047E5,9.280327E5,1.20733445E5,3.8426044E5,4.9826395E4,8.3005856E5,1.4809697E5,3.9397078E5,4.729968E4],"tree_param":{"num_deleted":"0","num_feature":"39","num_nodes":"15","size_leaf_vector":"0"}},{"base_weights":[3.5184921E-6,-1.3794981E-1,5.11806E-1,-8.5883886E-2,-3.8015723E-1,3.2113847E-1,8.201776E-1,5.288999E-2,-1.7959599E-1,-2.7877635E-1,-3.5843188E-1,2.1862376E-1,4.9437475E-1,5.5232877E-1,1.3344656E0],"categories":[],"categories_nodes":[],"categories_segments":[],"categories_sizes":[],"default_left":[0,0,0,0,0,0,0,0,0,0,0,0,0,0,0],"id":13,"left_children":[1,3,5,7,9,11,13,-1,-1,-1,-1,-1,-1,-1,-1],"loss_changes":[2.0491512E5,2.8829172E4,3.6230094E4,3.96424E4,8.698672E2,5.4090195E3,2.5903188E4,0E0,0E0,0E0,0E0,0E0,0E0,0E0,0E0],"parents":[2147483647,0,0,1,1,2,2,3,3,4,4,5,5,6,6],"right_children":[2,4,6,8,10,12,14,-1,-1,-1,-1,-1,-1,-1,-1],"split_conditions":[1E0,1E0,1E0,1E0,1E0,1E0,1E0,5.288999E-2,-1.7959599E-1,-2.7877635E-1,-3.5843188E-1,2.1862376E-1,4.9437475E-1,5.5232877E-1,1.3344656E0],"split_indices":[14,13,7,12,5,20,20,0,0,0,0,0,0,0,0],"split_type":[0,0,0,0,0,0,0,0,0,0,0,0,0,0,0],"sum_hessian":[2.902279E6,2.2860802E6,6.161986E5,1.8816041E6,4.044761E5,3.807693E5,2.3542933E5,8.974694E5,9.841348E5,2.7576038E5,1.28715734E5,3.2790256E5,5.286675E4,2.0418228E5,3.1247047E4],"tree_param":{"num_deleted":"0","num_feature":"39","num_nodes":"15","size_leaf_vector":"0"}},{"base_weights":[-7.140999E-6,-2.1554844E-1,2.251656E-1,-2.8322628E-1,-1.440129E-1,-4.8801266E-2,4.6793446E-1,-2.5594127E-1,-1.4095998E-1,-7.6661415E-2,-2.532768E-1,4.3576625E-3,-1.8958095E-1,5.570166E-1,1.3618499E-1],"categories":[],"categories_nodes":[],"categories_segments":[],"categories_sizes":[],"default_left":[0,0,0,0,0,0,0,0,0,0,0,0,0,0,0],"id":14,"left_children":[1,3,5,7,9,11,13,-1,-1,-1,-1,-1,-1,-1,-1],"loss_changes":[1.4085938E5,7.179008E3,9.440701E4,2.9928906E3,5.994913E3,6.80748E3,5.1156438E4,0E0,0E0,0E0,0E0,0E0,0E0,0E0,0E0],"parents":[2147483647,0,0,1,1,2,2,3,3,4,4,5,5,6,6],"right_children":[2,4,6,8,10,12,14,-1,-1,-1,-1,-1,-1,-1,-1],"split_conditions":[1E0,1E0,1E0,1E0,1E0,1E0,1E0,-2.5594127E-1,-1.4095998E-1,-7.6661415E-2,-2.532768E-1,4.3576625E-3,-1.8958095E-1,5.570166E-1,1.3618499E-1],"split_indices":[7,17,17,10,14,14,5,0,0,0,0,0,0,0,0],"split_type":[0,0,0,0,0,0,0,0,0,0,0,0,0,0,0],"sum_hessian":[2.902279E6,1.482853E6,1.419426E6,7.619705E5,7.2088244E5,6.668643E5,7.525616E5,5.6740125E5,1.9456925E5,5.6354044E5,1.5734198E5,5.1763728E5,1.4922703E5,4.2589884E5,3.266628E5],"tree_param":{"num_deleted":"0","num_feature":"39","num_nodes":"15","size_leaf_vector":"0"}},{"base_weights":[-8.781086E-2,-5.202806E-1,1.8406513E-1,-5.212727E-1,-5.12536E-1,2.677792E-1,1.14740655E-2,-4.1788554E-1,-4.111425E-1,-4.089806E-1,-4.1323993E-1,1.7439759E-1,5.2671725E-1,5.8787104E-2,-1.07173465E-1],"categories":[],"categories_nodes":[],"categories_segments":[],"categories_sizes":[],"default_left":[0,0,0,0,0,0,0,0,0,0,0,0,0,0,0],"id":15,"left_children":[1,3,5,7,9,11,13,-1,-1,-1,-1,-1,-1,-1,-1],"loss_changes":[3.6050316E5,8.8125E0,2.7200016E4,8.0625E0,4.4140625E-1,2.4651125E4,5.5455176E3,0E0,0E0,0E0,0E0,0E0,0E0,0E0,0E0],"parents":[2147483647,0,0,1,1,2,2,3,3,4,4,5,5,6,6],"right_children":[2,4,6,8,10,12,14,-1,-1,-1,-1,-1,-1,-1,-1],"split_conditions":[1E0,1E0,1E0,1E0,1E0,1E0,1E0,-4.1788554E-1,-4.111425E-1,-4.089806E-1,-4.1323993E-1,1.7439759E-1,5.2671725E-1,5.8787104E-2,-1.07173465E-1],"split_indices":[3,5,16,6,4,8,9,0,0,0,0,0,0,0,0],"split_type":[0,0,0,0,0,0,0,0,0,0,0,0,0,0,0],"sum_hessian":[3.0660712E6,1.1834968E6,1.8825745E6,1.0490429E6,1.3445397E5,1.2676899E6,6.148846E5,9.140469E5,1.3499597E5,1.01463734E5,3.2990234E4,1.1243931E6,1.4329673E5,4.3108766E5,1.8379694E5],"tree_param":{"num_deleted":"0","num_feature":"39","num_nodes":"15","size_leaf_vector":"0"}},{"base_weights":[8.161379E-2,2.0516945E-1,-8.9557715E-2,2.7945083E-1,-1.0977495E-2,-3.1706307E-2,-2.0256436E-1,2.5486696E-1,4.7412436E-2,-4.3552272E-2,1.7207658E-1,-4.5906458E-2,2.8250507E-1,-1.7870978E-1,-1.0950162E-1],"categories":[],"categories_nodes":[],"categories_segments":[],"categories_sizes":[],"default_left":[0,0,0,0,0,0,0,0,0,0,0,0,0,0,0],"id":16,"left_children":[1,3,5,7,9,11,13,-1,-1,-1,-1,-1,-1,-1,-1],"loss_changes":[5.32472E4,2.3477023E4,6.900217E3,9.376773E3,3.6747227E3,6.898166E3,4.8878516E2,0E0,0E0,0E0,0E0,0E0,0E0,0E0,0E0],"parents":[2147483647,0,0,1,1,2,2,3,3,4,4,5,5,6,6],"right_children":[2,4,6,8,10,12,14,-1,-1,-1,-1,-1,-1,-1,-1],"split_conditions":[1E0,1E0,1E0,1E0,1E0,1E0,1E0,2.5486696E-1,4.7412436E-2,-4.3552272E-2,1.7207658E-1,-4.5906458E-2,2.8250507E-1,-1.7870978E-1,-1.0950162E-1],"split_indices":[17,14,3,3,32,8,6,0,0,0,0,0,0,0,0],"split_type":[0,0,0,0,0,0,0,0,0,0,0,0,0,0,0],"sum_hessian":[2.5176902E6,1.4622228E6,1.0554674E6,1.0882372E6,3.739855E5,6.9809394E5,3.5737347E5,9.240145E5,1.6422275E5,3.1368075E5,6.0304734E4,6.544305E5,4.366343E4,2.7135247E5,8.6021E4],"tree_param":{"num_deleted":"0","num_feature":"39","num_nodes":"15","size_leaf_vector":"0"}},{"base_weights":[8.814989E-2,-3.8566983E-3,3.112071E-1,7.317121E-2,-8.6528584E-2,2.903553E-1,8.250938E-1,7.72383E-2,-1.6045137E-1,-5.289675E-2,-2.2543612E-1,1.9667311E-1,3.044581E-1,8.4203446E-1,3.6314192E-1],"categories":[],"categories_nodes":[],"categories_segments":[],"categories_sizes":[],"default_left":[0,0,0,0,0,0,0,0,0,0,0,0,0,0,0],"id":17,"left_children":[1,3,5,7,9,11,13,-1,-1,-1,-1,-1,-1,-1,-1],"loss_changes":[5.1259195E4,1.1260579E4,7.8154688E3,5.8576475E3,3.398733E3,2.8148516E3,2.400588E3,0E0,0E0,0E0,0E0,0E0,0E0,0E0,0E0],"parents":[2147483647,0,0,1,1,2,2,3,3,4,4,5,5,6,6],"right_children":[2,4,6,8,10,12,14,-1,-1,-1,-1,-1,-1,-1,-1],"split_conditions":[1E0,1E0,1E0,1E0,1E0,1E0,1E0,7.72383E-2,-1.6045137E-1,-5.289675E-2,-2.2543612E-1,1.9667311E-1,3.044581E-1,8.4203446E-1,3.6314192E-1],"split_indices":[14,7,5,11,11,9,3,0,0,0,0,0,0,0,0],"split_type":[0,0,0,0,0,0,0,0,0,0,0,0,0,0,0],"sum_hessian":[2.4976775E6,1.7682934E6,7.293843E5,9.153935E5,8.528998E5,7.009439E5,2.8440402E4,8.433713E5,7.202221E4,7.7219744E5,8.070237E4,4.693613E5,2.3158258E5,1.7633084E4,1.0807316E4],"tree_param":{"num_deleted":"0","num_feature":"39","num_nodes":"15","size_leaf_vector":"0"}},{"base_weights":[-1.100739E-1,-5.205553E-1,1.6511698E-1,-5.2152884E-1,-5.134969E-1,2.1033192E-1,-4.046157E-2,-4.1802916E-1,-4.1172868E-1,-4.089806E-1,-4.1475946E-1,2.0807885E-1,-5.251096E-2,2.4476325E-2,-1.2119024E-1],"categories":[],"categories_nodes":[],"categories_segments":[],"categories_sizes":[],"default_left":[0,0,0,0,0,0,0,0,0,0,0,0,0,0,0],"id":18,"left_children":[1,3,5,7,9,11,13,-1,-1,-1,-1,-1,-1,-1,-1],"loss_changes":[3.4326047E5,8.125E0,1.6909586E4,7.15625E0,1.3984375E0,2.0480297E4,2.5874568E3,0E0,0E0,0E0,0E0,0E0,0E0,0E0,0E0],"parents":[2147483647,0,0,1,1,2,2,3,3,4,4,5,5,6,6],"right_children":[2,4,6,8,10,12,14,-1,-1,-1,-1,-1,-1,-1,-1],"split_conditions":[1E0,1E0,1E0,1E0,1E0,1E0,1E0,-4.1802916E-1,-4.1172868E-1,-4.089806E-1,-4.1475946E-1,2.0807885E-1,-5.251096E-2,2.4476325E-2,-1.2119024E-1],"split_indices":[4,5,14,6,3,5,17,0,0,0,0,0,0,0,0],"split_type":[0,0,0,0,0,0,0,0,0,0,0,0,0,0,0],"sum_hessian":[3.038757E6,1.2195884E6,1.8191685E6,1.0716991E6,1.4788931E5,1.4911951E6,3.2797347E5,9.345162E5,1.3718292E5,1.01463734E5,4.6425574E4,1.2633681E6,2.2782694E5,1.9998405E5,1.27989414E5],"tree_param":{"num_deleted":"0","num_feature":"39","num_nodes":"15","size_leaf_vector":"0"}},{"base_weights":[-2.2711512E-1,-5.20807E-1,3.583658E-2,-5.21756E-1,-5.155178E-1,-1.082147E-2,3.2555923E-1,-4.1802916E-1,-4.1520905E-1,-4.111425E-1,-4.1454205E-1,-3.0763242E-1,2.2014447E-2,1.8380922E-1,8.09563E-1],"categories":[],"categories_nodes":[],"categories_segments":[],"categories_sizes":[],"default_left":[0,0,0,0,0,0,0,0,0,0,0,0,0,0,0],"id":19,"left_children":[1,3,5,7,9,11,13,-1,-1,-1,-1,-1,-1,-1,-1],"loss_changes":[2.3147738E5,6.84375E0,2.1377883E4,2.34375E0,6.4453125E-1,1.9516389E4,1.4423578E4,0E0,0E0,0E0,0E0,0E0,0E0,0E0,0E0],"parents":[2147483647,0,0,1,1,2,2,3,3,4,4,5,5,6,6],"right_children":[2,4,6,8,10,12,14,-1,-1,-1,-1,-1,-1,-1,-1],"split_conditions":[1E0,1E0,1E0,1E0,1E0,1E0,1E0,-4.1802916E-1,-4.1520905E-1,-4.111425E-1,-4.1454205E-1,-3.0763242E-1,2.2014447E-2,1.8380922E-1,8.09563E-1],"split_indices":[5,6,4,4,3,7,8,0,0,0,0,0,0,0,0],"split_type":[0,0,0,0,0,0,0,0,0,0,0,0,0,0,0],"sum_hessian":[2.9973708E6,1.4159212E6,1.5814494E6,1.2004379E6,2.1548336E5,1.3620936E6,2.1935584E5,9.345162E5,2.659217E5,1.3499597E5,8.048739E4,1.26733625E5,1.23536E6,1.9249177E5,2.6864074E4],"tree_param":{"num_deleted":"0","num_feature":"39","num_nodes":"15","size_leaf_vector":"0"}},{"base_weights":[2.6021356E-2,1.7458665E-1,-1.779694E-1,2.6873475E-1,-9.5722765E-2,-2.744708E-1,5.43044E-2,2.509171E-1,-1.4562358E-1,-1.2132146E-1,1.9676642E-1,-1.7287552E-1,-3.410829E-1,2.0118712E-2,3.849042E-1],"categories":[],"categories_nodes":[],"categories_segments":[],"categories_sizes":[],"default_left":[0,0,0,0,0,0,0,0,0,0,0,0,0,0,0],"id":20,"left_children":[1,3,5,7,9,11,13,-1,-1,-1,-1,-1,-1,-1,-1],"loss_changes":[8.020317E4,3.8968977E4,2.499695E4,2.2991617E4,7.559128E3,6.9854414E3,4.0734846E3,0E0,0E0,0E0,0E0,0E0,0E0,0E0,0E0],"parents":[2147483647,0,0,1,1,2,2,3,3,4,4,5,5,6,6],"right_children":[2,4,6,8,10,12,14,-1,-1,-1,-1,-1,-1,-1,-1],"split_conditions":[1E0,1E0,1E0,1E0,1E0,1E0,1E0,2.509171E-1,-1.4562358E-1,-1.2132146E-1,1.9676642E-1,-1.7287552E-1,-3.410829E-1,2.0118712E-2,3.849042E-1],"split_indices":[7,12,14,13,35,5,36,0,0,0,0,0,0,0,0],"split_type":[0,0,0,0,0,0,0,0,0,0,0,0,0,0,0],"sum_hessian":[2.646448E6,1.5312486E6,1.1151994E6,1.1356904E6,3.955582E5,7.878683E5,3.273311E5,1.0327894E6,1.0290103E5,3.3991822E5,5.5639992E4,5.6912625E5,2.1874206E5,3.0640216E5,2.092894E4],"tree_param":{"num_deleted":"0","num_feature":"39","num_nodes":"15","size_leaf_vector":"0"}},{"base_weights":[8.9429565E-2,-5.6216717E-2,2.205982E-1,2.539957E-3,-2.890068E-1,1.0030961E-1,3.2873684E-1,-2.7630622E-2,2.4969462E-1,-2.463219E-1,-1.9982117E-1,2.5601575E-2,1.7813389E-1,2.9087016E-1,-4.8476476E-2],"categories":[],"categories_nodes":[],"categories_segments":[],"categories_sizes":[],"default_left":[0,0,0,0,0,0,0,0,0,0,0,0,0,0,0],"id":21,"left_children":[1,3,5,7,9,11,13,-1,-1,-1,-1,-1,-1,-1,-1],"loss_changes":[4.7630695E4,1.6159199E4,1.706364E4,1.0827914E4,1.7641602E2,5.1904077E3,9.373E3,0E0,0E0,0E0,0E0,0E0,0E0,0E0,0E0],"parents":[2147483647,0,0,1,1,2,2,3,3,4,4,5,5,6,6],"right_children":[2,4,6,8,10,12,14,-1,-1,-1,-1,-1,-1,-1,-1],"split_conditions":[1E0,1E0,1E0,1E0,1E0,1E0,1E0,-2.7630622E-2,2.4969462E-1,-2.463219E-1,-1.9982117E-1,2.5601575E-2,1.7813389E-1,2.9087016E-1,-4.8476476E-2],"split_indices":[7,14,17,13,16,12,14,0,0,0,0,0,0,0,0],"split_type":[0,0,0,0,0,0,0,0,0,0,0,0,0,0,0],"sum_hessian":[2.4932005E6,1.1814022E6,1.3117981E6,9.4331E5,2.3809231E5,6.210129E5,6.9078525E5,8.4241475E5,1.00895234E5,1.6068861E5,7.74037E4,3.9853006E5,2.2248281E5,6.3403044E5,5.6754805E4],"tree_param":{"num_deleted":"0","num_feature":"39","num_nodes":"15","size_leaf_vector":"0"}},{"base_weights":[8.1382126E-2,3.2876364E-3,2.817739E-1,9.083822E-2,-1.1080876E-1,1.9533068E-1,5.4995006E-1,5.373739E-2,6.4650446E-1,-1.2330236E-1,5.079183E-2,1.8293326E-1,-6.99493E-2,6.4383215E-1,2.6769564E-1],"categories":[],"categories_nodes":[],"categories_segments":[],"categories_sizes":[],"default_left":[0,0,0,0,0,0,0,0,0,0,0,0,0,0,0],"id":22,"left_children":[1,3,5,7,9,11,13,-1,-1,-1,-1,-1,-1,-1,-1],"loss_changes":[3.943481E4,1.811286E4,1.6381148E4,1.7416656E4,5.9442637E3,5.037299E3,9.452008E3,0E0,0E0,0E0,0E0,0E0,0E0,0E0,0E0],"parents":[2147483647,0,0,1,1,2,2,3,3,4,4,5,5,6,6],"right_children":[2,4,6,8,10,12,14,-1,-1,-1,-1,-1,-1,-1,-1],"split_conditions":[1E0,1E0,1E0,1E0,1E0,1E0,1E0,5.373739E-2,6.4650446E-1,-1.2330236E-1,5.079183E-2,1.8293326E-1,-6.99493E-2,6.4383215E-1,2.6769564E-1],"split_indices":[14,7,3,5,9,34,17,0,0,0,0,0,0,0,0],"split_type":[0,0,0,0,0,0,0,0,0,0,0,0,0,0,0],"sum_hessian":[2.5198765E6,1.813241E6,7.0663544E5,1.0259727E6,7.872684E5,5.3438494E5,1.7225055E5,9.932038E5,3.2768867E4,6.305541E5,1.567143E5,4.7802947E5,5.635544E4,7.888671E4,9.3363836E4],"tree_param":{"num_deleted":"0","num_feature":"39","num_nodes":"15","size_leaf_vector":"0"}},{"base_weights":[-1.7783473E-1,-5.208511E-1,1.0476254E-1,-5.21756E-1,-5.1478684E-1,1.57105E-1,-2.1553282E-1,-4.1802916E-1,-4.1520905E-1,-4.1017532E-1,-4.1519532E-1,9.676783E-2,2.429174E-1,-2.381958E-1,2.7084336E-1],"categories":[],"categories_nodes":[],"categories_segments":[],"categories_sizes":[],"default_left":[0,0,0,0,0,0,0,0,0,0,0,0,0,0,0],"id":23,"left_children":[1,3,5,7,9,11,13,-1,-1,-1,-1,-1,-1,-1,-1],"loss_changes":[2.9606825E5,7.3125E0,2.8075215E4,2.34375E0,1.2890625E0,7.6241562E3,1.0715258E4,0E0,0E0,0E0,0E0,0E0,0E0,0E0,0E0],"parents":[2147483647,0,0,1,1,2,2,3,3,4,4,5,5,6,6],"right_children":[2,4,6,8,10,12,14,-1,-1,-1,-1,-1,-1,-1,-1],"split_conditions":[1E0,1E0,1E0,1E0,1E0,1E0,1E0,-4.1802916E-1,-4.1520905E-1,-4.1017532E-1,-4.1519532E-1,9.676783E-2,2.429174E-1,-2.381958E-1,2.7084336E-1],"split_indices":[6,5,14,4,3,20,3,0,0,0,0,0,0,0,0],"split_type":[0,0,0,0,0,0,0,0,0,0,0,0,0,0,0],"sum_hessian":[3.0542798E6,1.3796549E6,1.6746249E6,1.2004379E6,1.7921697E5,1.4393996E6,2.3522523E5,9.345162E5,2.659217E5,1.20245805E5,5.897117E4,1.1546111E6,2.847885E5,2.0483377E5,3.0391473E4],"tree_param":{"num_deleted":"0","num_feature":"39","num_nodes":"15","size_leaf_vector":"0"}},{"base_weights":[4.8565485E-2,1.6863653E-1,-1.1185106E-1,4.3938234E-1,-1.2749411E-1,-1.5011251E-1,2.6303723E-1,6.81855E-1,-1.4515866E-1,-7.156929E-2,-2.7641726E-1,-1.5832597E-1,9.48179E-2,1.708567E-1,4.5426115E-1],"categories":[],"categories_nodes":[],"categories_segments":[],"categories_sizes":[],"default_left":[0,0,0,0,0,0,0,0,0,0,0,0,0,0,0],"id":24,"left_children":[1,3,5,7,9,11,13,-1,-1,-1,-1,-1,-1,-1,-1],"loss_changes":[5.0019812E4,1.1907903E5,1.5945704E4,1.9890322E5,5.882036E3,1.2951473E4,1.5520679E3,0E0,0E0,0E0,0E0,0E0,0E0,0E0,0E0],"parents":[2147483647,0,0,1,1,2,2,3,3,4,4,5,5,6,6],"right_children":[2,4,6,8,10,12,14,-1,-1,-1,-1,-1,-1,-1,-1],"split_conditions":[1E0,1E0,1E0,1E0,1E0,1E0,1E0,6.81855E-1,-1.4515866E-1,-7.156929E-2,-2.7641726E-1,-1.5832597E-1,9.48179E-2,1.708567E-1,4.5426115E-1],"split_indices":[17,16,27,15,32,24,13,0,0,0,0,0,0,0,0],"split_type":[0,0,0,0,0,0,0,0,0,0,0,0,0,0,0],"sum_hessian":[2.5968942E6,1.4852165E6,1.1116778E6,7.758622E5,7.093544E5,1.00872675E6,1.0295102E5,4.659452E5,3.0991697E5,6.0399544E5,1.05358984E5,8.563645E5,1.5236228E5,8.857695E4,1.4374067E4],"tree_param":{"num_deleted":"0","num_feature":"39","num_nodes":"15","size_leaf_vector":"0"}},{"base_weights":[-4.373285E-3,-2.1768796E-1,1.5835734E-1,-2.6801217E-1,4.0279243E-2,2.2614583E-1,-2.9870972E-1,-2.8276598E-1,-8.658219E-2,-1.2384893E-1,2.7765602E-1,1.4784442E-1,5.57996E-1,-2.6620442E-1,1.6269705E-1],"categories":[],"categories_nodes":[],"categories_segments":[],"categories_sizes":[],"default_left":[0,0,0,0,0,0,0,0,0,0,0,0,0,0,0],"id":25,"left_children":[1,3,5,7,9,11,13,-1,-1,-1,-1,-1,-1,-1,-1],"loss_changes":[8.963452E4,1.4506281E4,4.5383957E4,1.2765539E4,1.0917223E4,2.4855367E4,3.23392E3,0E0,0E0,0E0,0E0,0E0,0E0,0E0,0E0],"parents":[2147483647,0,0,1,1,2,2,3,3,4,4,5,5,6,6],"right_children":[2,4,6,8,10,12,14,-1,-1,-1,-1,-1,-1,-1,-1],"split_conditions":[1E0,1E0,1E0,1E0,1E0,1E0,1E0,-2.8276598E-1,-8.658219E-2,-1.2384893E-1,2.7765602E-1,1.4784442E-1,5.57996E-1,-2.6620442E-1,1.6269705E-1],"split_indices":[7,13,14,12,16,37,5,0,0,0,0,0,0,0,0],"split_type":[0,0,0,0,0,0,0,0,0,0,0,0,0,0,0],"sum_hessian":[2.5821705E6,1.1174136E6,1.4647569E6,9.3501175E5,1.8240195E5,1.2755745E6,1.8918239E5,6.0922506E5,3.2578662E5,1.1149927E5,7.090268E4,1.1727209E6,1.0285363E5,1.7716902E5,1.2013376E4],"tree_param":{"num_deleted":"0","num_feature":"39","num_nodes":"15","size_leaf_vector":"0"}},{"base_weights":[8.941322E-2,1.4990057E-1,-9.958897E-2,2.0944114E-1,-4.365098E-2,-1.4913295E-1,1.4086394E-1,2.2714654E-1,-3.5858467E-2,-8.6657904E-2,1.6146453E-1,-1.3353632E-1,8.567401E-2,-4.0324822E-2,2.5340983E-1],"categories":[],"categories_nodes":[],"categories_segments":[],"categories_sizes":[],"default_left":[0,0,0,0,0,0,0,0,0,0,0,0,0,0,0],"id":26,"left_children":[1,3,5,7,9,11,13,-1,-1,-1,-1,-1,-1,-1,-1],"loss_changes":[2.8513168E4,2.1774008E4,7.203586E3,2.736791E4,7.056614E3,2.2850889E3,3.4756565E3,0E0,0E0,0E0,0E0,0E0,0E0,0E0,0E0],"parents":[2147483647,0,0,1,1,2,2,3,3,4,4,5,5,6,6],"right_children":[2,4,6,8,10,12,14,-1,-1,-1,-1,-1,-1,-1,-1],"split_conditions":[1E0,1E0,1E0,1E0,1E0,1E0,1E0,2.2714654E-1,-3.5858467E-2,-8.6657904E-2,1.6146453E-1,-1.3353632E-1,8.567401E-2,-4.0324822E-2,2.5340983E-1],"split_indices":[4,8,14,20,32,27,17,0,0,0,0,0,0,0,0],"split_type":[0,0,0,0,0,0,0,0,0,0,0,0,0,0,0],"sum_hessian":[2.4940992E6,1.889419E6,6.0468025E5,1.4449282E6,4.444908E5,5.013751E5,1.0330517E5,1.1175256E6,3.274026E5,3.5180847E5,9.268233E4,4.6882884E5,3.2546273E4,4.9490473E4,5.3814695E4],"tree_param":{"num_deleted":"0","num_feature":"39","num_nodes":"15","size_leaf_vector":"0"}},{"base_weights":[6.1030503E-2,2.068075E-1,-2.2038892E-1,2.88848E-1,-2.7735716E-2,-2.5996512E-1,-3.1464342E-2,3.062191E-1,3.1168094E-2,-7.508427E-2,8.496367E-2,-2.2902253E-1,-4.7119413E-2,2.528294E-2,-1.826636E-1],"categories":[],"categories_nodes":[],"categories_segments":[],"categories_sizes":[],"default_left":[0,0,0,0,0,0,0,0,0,0,0,0,0,0,0],"id":27,"left_children":[1,3,5,7,9,11,13,-1,-1,-1,-1,-1,-1,-1,-1],"loss_changes":[1.0618202E5,3.2808453E4,6.6037617E3,2.9648242E4,3.9130725E3,3.8634688E3,1.899323E3,0E0,0E0,0E0,0E0,0E0,0E0,0E0,0E0],"parents":[2147483647,0,0,1,1,2,2,3,3,4,4,5,5,6,6],"right_children":[2,4,6,8,10,12,14,-1,-1,-1,-1,-1,-1,-1,-1],"split_conditions":[1E0,1E0,1E0,1E0,1E0,1E0,1E0,3.062191E-1,3.1168094E-2,-7.508427E-2,8.496367E-2,-2.2902253E-1,-4.7119413E-2,2.528294E-2,-1.826636E-1],"split_indices":[7,3,14,8,22,22,3,0,0,0,0,0,0,0,0],"split_type":[0,0,0,0,0,0,0,0,0,0,0,0,0,0,0],"sum_hessian":[2.5882582E6,1.7050381E6,8.8321994E5,1.2631889E6,4.4184925E5,7.3024644E5,1.5297353E5,9.1810025E5,3.4508872E5,2.9581866E5,1.4603056E5,6.4573956E5,8.450688E4,1.1585795E5,3.7115586E4],"tree_param":{"num_deleted":"0","num_feature":"39","num_nodes":"15","size_leaf_vector":"0"}},{"base_weights":[7.980143E-2,-1.48316175E-2,3.0082768E-1,1.921639E-2,-3.580042E-1,2.3738824E-1,4.4773838E-1,9.0719104E-2,-7.861887E-2,-3.0844557E-1,-2.2701561E-1,1.1897993E-1,2.486579E-1,3.4235495E-1,6.950344E-1],"categories":[],"categories_nodes":[],"categories_segments":[],"categories_sizes":[],"default_left":[0,0,0,0,0,0,0,0,0,0,0,0,0,0,0],"id":28,"left_children":[1,3,5,7,9,11,13,-1,-1,-1,-1,-1,-1,-1,-1],"loss_changes":[5.276692E4,2.0639771E4,7.0486484E3,1.778235E4,3.260039E2,3.439123E3,1.9007148E3,0E0,0E0,0E0,0E0,0E0,0E0,0E0,0E0],"parents":[2147483647,0,0,1,1,2,2,3,3,4,4,5,5,6,6],"right_children":[2,4,6,8,10,12,14,-1,-1,-1,-1,-1,-1,-1,-1],"split_conditions":[1E0,1E0,1E0,1E0,1E0,1E0,1E0,9.0719104E-2,-7.861887E-2,-3.0844557E-1,-2.2701561E-1,1.1897993E-1,2.486579E-1,3.4235495E-1,6.950344E-1],"split_indices":[14,11,9,12,3,10,18,0,0,0,0,0,0,0,0],"split_type":[0,0,0,0,0,0,0,0,0,0,0,0,0,0,0],"sum_hessian":[2.5227535E6,1.7664455E6,7.56308E5,1.6070066E6,1.5943886E5,5.282151E5,2.280929E5,8.919779E5,7.150287E5,1.1627744E5,4.316143E4,2.3929583E5,2.889193E5,2.1785316E5,1.023974E4],"tree_param":{"num_deleted":"0","num_feature":"39","num_nodes":"15","size_leaf_vector":"0"}},{"base_weights":[8.279881E-2,-1.0219307E-1,2.3070374E-1,-6.909763E-2,-2.1458367E-1,3.0170515E-1,-1.700463E-1,-1.1168339E-1,-9.992632E-3,-1.8075863E-1,-4.941601E-2,3.1218427E-1,8.804239E-3,-1.7600608E-1,-8.986514E-3],"categories":[],"categories_nodes":[],"categories_segments":[],"categories_sizes":[],"default_left":[0,0,0,0,0,0,0,0,0,0,0,0,0,0,0],"id":29,"left_children":[1,3,5,7,9,11,13,-1,-1,-1,-1,-1,-1,-1,-1],"loss_changes":[6.872191E4,4.1507783E3,3.9714016E4,3.4406523E3,4.4084082E2,3.051229E4,1.6667759E3,0E0,0E0,0E0,0E0,0E0,0E0,0E0,0E0],"parents":[2147483647,0,0,1,1,2,2,3,3,4,4,5,5,6,6],"right_children":[2,4,6,8,10,12,14,-1,-1,-1,-1,-1,-1,-1,-1],"split_conditions":[1E0,1E0,1E0,1E0,1E0,1E0,1E0,-1.1168339E-1,-9.992632E-3,-1.8075863E-1,-4.941601E-2,3.1218427E-1,8.804239E-3,-1.7600608E-1,-8.986514E-3],"split_indices":[7,14,14,17,33,8,8,0,0,0,0,0,0,0,0],"split_type":[0,0,0,0,0,0,0,0,0,0,0,0,0,0,0],"sum_hessian":[2.5116522E6,1.1159188E6,1.3957334E6,8.620687E5,2.5385005E5,1.1856675E6,2.10066E5,3.839004E5,4.7816825E5,2.3627781E5,1.7572234E4,9.0888844E5,2.7677903E5,1.5979533E5,5.027067E4],"tree_param":{"num_deleted":"0","num_feature":"39","num_nodes":"15","size_leaf_vector":"0"}},{"base_weights":[-6.771972E-2,-5.129651E-1,9.957041E-2,-5.1359653E-1,-4.064529E-1,1.4911363E-1,-3.2296643E-2,-4.114426E-1,-4.0695524E-1,9.5817946E-2,3.312411E-1,-4.224008E-2,1.259961E-1],"categories":[],"categories_nodes":[],"categories_segments":[],"categories_sizes":[],"default_left":[0,0,0,0,0,0,0,0,0,0,0,0,0],"id":30,"left_children":[1,3,5,7,-1,9,11,-1,-1,-1,-1,-1,-1],"loss_changes":[2.1014914E5,2.109375E0,1.3398209E4,2.09375E0,0E0,1.158832E4,2.1794917E3,0E0,0E0,0E0,0E0,0E0,0E0],"parents":[2147483647,0,0,1,1,2,2,3,3,5,5,6,6],"right_children":[2,4,6,8,-1,10,12,-1,-1,-1,-1,-1,-1],"split_conditions":[1E0,1E0,1E0,1E0,-4.064529E-1,1E0,1E0,-4.114426E-1,-4.0695524E-1,9.5817946E-2,3.312411E-1,-4.224008E-2,1.259961E-1],"split_indices":[3,5,22,6,0,34,13,0,0,0,0,0,0],"split_type":[0,0,0,0,0,0,0,0,0,0,0,0,0],"sum_hessian":[2.8213545E6,7.705421E5,2.0508122E6,6.824704E5,8.8071766E4,1.4907345E6,5.600778E5,5.963918E5,8.607855E4,1.3421016E6,1.486329E5,5.0547172E5,5.460607E4],"tree_param":{"num_deleted":"0","num_feature":"39","num_nodes":"13","size_leaf_vector":"0"}},{"base_weights":[5.186854E-2,1.1050871E-1,-4.8109088E-2,7.498397E-2,1.8300658E-1,-8.103119E-2,1.086803E-1,4.5937445E-2,2.2430344E-1,-4.3947507E-2,1.6153346E-1,-8.012656E-2,9.073782E-2,1.7029628E-1,-3.631769E-2],"categories":[],"categories_nodes":[],"categories_segments":[],"categories_sizes":[],"default_left":[0,0,0,0,0,0,0,0,0,0,0,0,0,0,0],"id":31,"left_children":[1,3,5,7,9,11,13,-1,-1,-1,-1,-1,-1,-1,-1],"loss_changes":[1.534095E4,4.247758E3,4.993472E3,3.992853E3,2.4405527E3,2.97362E3,2.695004E3,0E0,0E0,0E0,0E0,0E0,0E0,0E0,0E0],"parents":[2147483647,0,0,1,1,2,2,3,3,4,4,5,5,6,6],"right_children":[2,4,6,8,10,12,14,-1,-1,-1,-1,-1,-1,-1,-1],"split_conditions":[1E0,1E0,1E0,1E0,1E0,1E0,1E0,4.5937445E-2,2.2430344E-1,-4.3947507E-2,1.6153346E-1,-8.012656E-2,9.073782E-2,1.7029628E-1,-3.631769E-2],"split_indices":[17,12,9,11,1,8,4,0,0,0,0,0,0,0,0],"split_type":[0,0,0,0,0,0,0,0,0,0,0,0,0,0,0],"sum_hessian":[2.6166998E6,1.6493195E6,9.673803E5,1.1069192E6,5.424003E5,7.9950375E5,1.6787658E5,1.0197293E6,8.718989E4,3.993313E4,5.0246716E5,7.279053E5,7.1598414E4,1.0015172E5,6.772486E4],"tree_param":{"num_deleted":"0","num_feature":"39","num_nodes":"15","size_leaf_vector":"0"}},{"base_weights":[5.7497248E-2,9.726455E-3,1.5093318E-1,-2.302618E-2,1.8228698E-1,1.3537937E-1,3.030348E-1,-3.266336E-4,-1.3833852E-1,9.683807E-2,3.6848447E-1,9.020216E-2,2.1960025E-1,2.1978064E-1,4.3256506E-1],"categories":[],"categories_nodes":[],"categories_segments":[],"categories_sizes":[],"default_left":[0,0,0,0,0,0,0,0,0,0,0,0,0,0,0],"id":32,"left_children":[1,3,5,7,9,11,13,-1,-1,-1,-1,-1,-1,-1,-1],"loss_changes":[1.1629262E4,9.743669E3,2.0851855E3,4.912521E3,4.6874004E3,2.5171426E3,5.500244E2,0E0,0E0,0E0,0E0,0E0,0E0,0E0,0E0],"parents":[2147483647,0,0,1,1,2,2,3,3,4,4,5,5,6,6],"right_children":[2,4,6,8,10,12,14,-1,-1,-1,-1,-1,-1,-1,-1],"split_conditions":[1E0,1E0,1E0,1E0,1E0,1E0,1E0,-3.266336E-4,-1.3833852E-1,9.683807E-2,3.6848447E-1,9.020216E-2,2.1960025E-1,2.1978064E-1,4.3256506E-1],"split_indices":[14,22,27,13,16,24,35,0,0,0,0,0,0,0,0],"split_type":[0,0,0,0,0,0,0,0,0,0,0,0,0,0,0],"sum_hessian":[2.6054072E6,1.7239885E6,8.814189E5,1.4489695E6,2.75019E5,7.996492E5,8.176965E4,1.2590005E6,1.8996903E5,2.254204E5,4.9598586E4,6.877888E5,1.1186039E5,7.306862E4,8.701032E3],"tree_param":{"num_deleted":"0","num_feature":"39","num_nodes":"15","size_leaf_vector":"0"}},{"base_weights":[-8.158924E-2,-5.131581E-1,9.9106394E-2,-5.13784E-1,-5.0863177E-1,1.5999192E-1,-1.4132656E-2,-4.115561E-1,-4.0733162E-1,-4.058787E-1,-4.0921122E-1,2.6402557E-1,8.1493154E-2,-5.0925042E-2,3.767862E-1],"categories":[],"categories_nodes":[],"categories_segments":[],"categories_sizes":[],"default_left":[0,0,0,0,0,0,0,0,0,0,0,0,0,0,0],"id":33,"left_children":[1,3,5,7,9,11,13,-1,-1,-1,-1,-1,-1,-1,-1],"loss_changes":[2.1044922E5,1.984375E0,1.3115084E4,1.875E0,9.9609375E-2,1.2226818E4,1.597989E4,0E0,0E0,0E0,0E0,0E0,0E0,0E0,0E0],"parents":[2147483647,0,0,1,1,2,2,3,3,4,4,5,5,6,6],"right_children":[2,4,6,8,10,12,14,-1,-1,-1,-1,-1,-1,-1,-1],"split_conditions":[1E0,1E0,1E0,1E0,1E0,1E0,1E0,-4.115561E-1,-4.0733162E-1,-4.058787E-1,-4.0921122E-1,2.6402557E-1,8.1493154E-2,-5.0925042E-2,3.767862E-1],"split_indices":[4,5,8,6,3,17,27,0,0,0,0,0,0,0,0],"split_type":[0,0,0,0,0,0,0,0,0,0,0,0,0,0,0],"sum_hessian":[2.698667E6,7.964483E5,1.9022188E6,6.995891E5,9.685921E4,1.2370762E6,6.651425E5,6.119058E5,8.768328E4,6.713952E4,2.9719688E4,3.1514575E5,9.2193056E5,6.0353106E5,6.1611395E4],"tree_param":{"num_deleted":"0","num_feature":"39","num_nodes":"15","size_leaf_vector":"0"}},{"base_weights":[-1.6644706E-1,-5.1326084E-1,3.2426827E-2,-5.1389664E-1,-4.076999E-1,-1.5530469E-2,2.8652403E-1,-4.115561E-1,-4.095405E-1,1.2875345E-1,-7.1160816E-2,1.9255826E-1,6.489683E-1],"categories":[],"categories_nodes":[],"categories_segments":[],"categories_sizes":[],"default_left":[0,0,0,0,0,0,0,0,0,0,0,0,0],"id":34,"left_children":[1,3,5,7,-1,9,11,-1,-1,-1,-1,-1,-1],"loss_changes":[1.7400075E5,1.875E0,1.9538182E4,5.78125E-1,0E0,1.7475871E4,6.120666E3,0E0,0E0,0E0,0E0,0E0,0E0],"parents":[2147483647,0,0,1,1,2,2,3,3,5,5,6,6],"right_children":[2,4,6,8,-1,10,12,-1,-1,-1,-1,-1,-1],"split_conditions":[1E0,1E0,1E0,1E0,-4.076999E-1,1E0,1E0,-4.115561E-1,-4.095405E-1,1.2875345E-1,-7.1160816E-2,1.9255826E-1,6.489683E-1],"split_indices":[5,6,3,4,0,17,16,0,0,0,0,0,0],"split_type":[0,0,0,0,0,0,0,0,0,0,0,0,0],"sum_hessian":[2.5227655E6,9.1941206E5,1.6033532E6,7.8243906E5,1.3697302E5,1.3487891E6,2.5456417E5,6.119058E5,1.7053325E5,3.962849E5,9.5250425E5,2.3411775E5,2.0446424E4],"tree_param":{"num_deleted":"0","num_feature":"39","num_nodes":"13","size_leaf_vector":"0"}},{"base_weights":[1.8087113E-2,9.482372E-2,-1.1687651E-1,1.5706474E-1,-8.398464E-2,-2.0225829E-1,4.2617653E-2,9.038424E-2,3.3172095E-1,-3.584831E-2,-1.631039E-1,-1.15757324E-1,-3.0369514E-1,8.818236E-2,-9.30228E-2],"categories":[],"categories_nodes":[],"categories_segments":[],"categories_sizes":[],"default_left":[0,0,0,0,0,0,0,0,0,0,0,0,0,0,0],"id":35,"left_children":[1,3,5,7,9,11,13,-1,-1,-1,-1,-1,-1,-1,-1],"loss_changes":[2.7264824E4,1.8678566E4,1.2994962E4,1.4137332E4,2.0354043E3,6.3452676E3,3.5744783E3,0E0,0E0,0E0,0E0,0E0,0E0,0E0,0E0],"parents":[2147483647,0,0,1,1,2,2,3,3,4,4,5,5,6,6],"right_children":[2,4,6,8,10,12,14,-1,-1,-1,-1,-1,-1,-1,-1],"split_conditions":[1E0,1E0,1E0,1E0,1E0,1E0,1E0,9.038424E-2,3.3172095E-1,-3.584831E-2,-1.631039E-1,-1.15757324E-1,-3.0369514E-1,8.818236E-2,-9.30228E-2],"split_indices":[7,3,14,22,12,5,8,0,0,0,0,0,0,0,0],"split_type":[0,0,0,0,0,0,0,0,0,0,0,0,0,0,0],"sum_hessian":[2.6325888E6,1.6783344E6,9.542545E5,1.2449741E6,4.333602E5,6.2153094E5,3.3272353E5,1.0630421E6,1.8193206E5,3.2663703E5,1.0672317E5,4.692422E5,1.5228875E5,2.3340853E5,9.9315E4],"tree_param":{"num_deleted":"0","num_feature":"39","num_nodes":"15","size_leaf_vector":"0"}},{"base_weights":[5.4845117E-2,8.8923305E-2,-1.4614256E-1,2.2405049E-2,1.9192359E-1,-1.6656855E-1,2.551257E-2,-1.0846855E-2,2.2703004E-1,-1.5185189E-1,1.7242773E-1,-1.8347383E-1,-6.397724E-2,5.044209E-2,-1.325311E-1],"categories":[],"categories_nodes":[],"categories_segments":[],"categories_sizes":[],"default_left":[0,0,0,0,0,0,0,0,0,0,0,0,0,0,0],"id":36,"left_children":[1,3,5,7,9,11,13,-1,-1,-1,-1,-1,-1,-1,-1],"loss_changes":[1.7924332E4,1.5330486E4,1.330227E3,1.2780223E4,7.913783E3,1.8430322E3,2.895588E2,0E0,0E0,0E0,0E0,0E0,0E0,0E0,0E0],"parents":[2147483647,0,0,1,1,2,2,3,3,4,4,5,5,6,6],"right_children":[2,4,6,8,10,12,14,-1,-1,-1,-1,-1,-1,-1,-1],"split_conditions":[1E0,1E0,1E0,1E0,1E0,1E0,1E0,-1.0846855E-2,2.2703004E-1,-1.5185189E-1,1.7242773E-1,-1.8347383E-1,-6.397724E-2,5.044209E-2,-1.325311E-1],"split_indices":[22,12,13,11,1,12,16,0,0,0,0,0,0,0,0],"split_type":[0,0,0,0,0,0,0,0,0,0,0,0,0,0,0],"sum_hessian":[2.6169575E6,2.23757E6,3.793875E5,1.359559E6,8.780109E5,3.3904328E5,4.0344207E4,1.195123E6,1.6443603E5,5.1142562E4,8.268683E5,1.9655783E5,1.4248547E5,3.372293E4,6.621276E3],"tree_param":{"num_deleted":"0","num_feature":"39","num_nodes":"15","size_leaf_vector":"0"}},{"base_weights":[5.2174747E-2,1.09145455E-1,-8.229172E-2,1.5157057E-1,-1.6441858E-1,-3.3365004E-2,-1.526529E-1,1.4664604E-1,-1.4115912E-1,-1.648973E-1,1.6986866E-2,-3.859381E-2,1.734241E-1,-1.4955422E-1,5.062423E-2],"categories":[],"categories_nodes":[],"categories_segments":[],"categories_sizes":[],"default_left":[0,0,0,0,0,0,0,0,0,0,0,0,0,0,0],"id":37,"left_children":[1,3,5,7,9,11,13,-1,-1,-1,-1,-1,-1,-1,-1],"loss_changes":[2.0088244E4,2.137699E4,2.686459E3,1.660034E4,1.9146279E3,1.7129998E3,2.3699463E3,0E0,0E0,0E0,0E0,0E0,0E0,0E0,0E0],"parents":[2147483647,0,0,1,1,2,2,3,3,4,4,5,5,6,6],"right_children":[2,4,6,8,10,12,14,-1,-1,-1,-1,-1,-1,-1,-1],"split_conditions":[1E0,1E0,1E0,1E0,1E0,1E0,1E0,1.4664604E-1,-1.4115912E-1,-1.648973E-1,1.6986866E-2,-3.859381E-2,1.734241E-1,-1.4955422E-1,5.062423E-2],"split_indices":[12,13,7,11,6,5,6,0,0,0,0,0,0,0,0],"split_type":[0,0,0,0,0,0,0,0,0,0,0,0,0,0,0],"sum_hessian":[2.6222618E6,1.8418905E6,7.803713E5,1.5945962E6,2.4729425E5,4.6029775E5,3.200736E5,1.4539246E6,1.4067162E5,2.0193377E5,4.536048E4,4.344593E5,2.5838441E4,2.7621172E5,4.386188E4],"tree_param":{"num_deleted":"0","num_feature":"39","num_nodes":"15","size_leaf_vector":"0"}},{"base_weights":[-1.3036156E-1,-5.1330984E-1,7.29252E-2,-5.1389664E-1,-5.0936604E-1,2.5695598E-2,2.1259353E-1,-4.115561E-1,-4.095405E-1,-4.065671E-1,-4.0942883E-1,-2.9870158E-2,2.4389957E-1,1.19955815E-1,4.1582033E-1],"categories":[],"categories_nodes":[],"categories_segments":[],"categories_sizes":[],"default_left":[0,0,0,0,0,0,0,0,0,0,0,0,0,0,0],"id":38,"left_children":[1,3,5,7,9,11,13,-1,-1,-1,-1,-1,-1,-1,-1],"loss_changes":[2.0182353E5,1.84375E0,1.1171287E4,5.78125E-1,6.640625E-2,2.2270896E4,8.235779E3,0E0,0E0,0E0,0E0,0E0,0E0,0E0,0E0],"parents":[2147483647,0,0,1,1,2,2,3,3,4,4,5,5,6,6],"right_children":[2,4,6,8,10,12,14,-1,-1,-1,-1,-1,-1,-1,-1],"split_conditions":[1E0,1E0,1E0,1E0,1E0,1E0,1E0,-4.115561E-1,-4.095405E-1,-4.065671E-1,-4.0942883E-1,-2.9870158E-2,2.4389957E-1,1.19955815E-1,4.1582033E-1],"split_indices":[6,5,4,4,3,3,8,0,0,0,0,0,0,0,0],"split_type":[0,0,0,0,0,0,0,0,0,0,0,0,0,0,0],"sum_hessian":[2.5925218E6,8.989996E5,1.6935221E6,7.8243906E5,1.1656054E5,1.2655655E6,4.279567E5,6.119058E5,1.7053325E5,7.899753E4,3.7563004E4,1.0324571E6,2.3310839E5,3.554627E5,7.249399E4],"tree_param":{"num_deleted":"0","num_feature":"39","num_nodes":"15","size_leaf_vector":"0"}},{"base_weights":[1.9850025E-2,-1.6001329E-2,2.2147478E-1,-6.5962605E-2,1.5497085E-1,3.1011763E-1,-2.4719195E-1,-9.799395E-2,3.3013567E-2,8.505049E-1,8.135962E-2,1.413936E-1,4.2584515E-1,-1.1806673E-1,-2.824784E-1],"categories":[],"categories_nodes":[],"categories_segments":[],"categories_sizes":[],"default_left":[0,0,0,0,0,0,0,0,0,0,0,0,0,0,0],"id":39,"left_children":[1,3,5,7,9,11,13,-1,-1,-1,-1,-1,-1,-1,-1],"loss_changes":[1.8775002E4,1.883709E4,1.6290189E4,1.0344541E4,2.4125758E4,9.771895E3,6.57885E2,0E0,0E0,0E0,0E0,0E0,0E0,0E0,0E0],"parents":[2147483647,0,0,1,1,2,2,3,3,4,4,5,5,6,6],"right_children":[2,4,6,8,10,12,14,-1,-1,-1,-1,-1,-1,-1,-1],"split_conditions":[1E0,1E0,1E0,1E0,1E0,1E0,1E0,-9.799395E-2,3.3013567E-2,8.505049E-1,8.135962E-2,1.413936E-1,4.2584515E-1,-1.1806673E-1,-2.824784E-1],"split_indices":[26,24,32,27,1,8,8,0,0,0,0,0,0,0,0],"split_type":[0,0,0,0,0,0,0,0,0,0,0,0,0,0,0],"sum_hessian":[2.597349E6,2.2052325E6,3.9211647E5,1.7065479E6,4.9868462E5,3.297487E5,6.2367785E4,1.1174465E6,5.891013E5,2.7630238E4,4.710544E5,2.060579E5,1.2369077E5,3.214068E4,3.0227104E4],"tree_param":{"num_deleted":"0","num_feature":"39","num_nodes":"15","size_leaf_vector":"0"}},{"base_weights":[1.1965961E-3,-6.087076E-2,2.6682034E-1,-1.5415359E-1,1.471537E-1,-2.4232699E-1,4.3841457E-1,-9.558659E-2,-2.8909332E-1,1.8765925E-1,-2.0963798E-1,1.8367583E-1,-3.339166E-1,4.9281493E-1,6.663339E-2],"categories":[],"categories_nodes":[],"categories_segments":[],"categories_sizes":[],"default_left":[0,0,0,0,0,0,0,0,0,0,0,0,0,0,0],"id":40,"left_children":[1,3,5,7,9,11,13,-1,-1,-1,-1,-1,-1,-1,-1],"loss_changes":[4.1118465E4,3.9230637E4,4.1271734E4,1.0027379E4,2.238989E4,9.838098E3,2.2284227E4,0E0,0E0,0E0,0E0,0E0,0E0,0E0,0E0],"parents":[2147483647,0,0,1,1,2,2,3,3,4,4,5,5,6,6],"right_children":[2,4,6,8,10,12,14,-1,-1,-1,-1,-1,-1,-1,-1],"split_conditions":[1E0,1E0,1E0,1E0,1E0,1E0,1E0,-9.558659E-2,-2.8909332E-1,1.8765925E-1,-2.0963798E-1,1.8367583E-1,-3.339166E-1,4.9281493E-1,6.663339E-2],"split_indices":[5,16,1,14,14,13,3,0,0,0,0,0,0,0,0],"split_type":[0,0,0,0,0,0,0,0,0,0,0,0,0,0,0],"sum_hessian":[2.4940572E6,2.0216631E6,4.723941E5,1.3957692E6,6.258939E5,1.1907608E5,3.53318E5,1.1957081E6,2.0006119E5,5.1571806E5,1.1017581E5,3.2220639E4,8.6855445E4,2.3552598E5,1.17792016E5],"tree_param":{"num_deleted":"0","num_feature":"39","num_nodes":"15","size_leaf_vector":"0"}},{"base_weights":[5.5991925E-2,-3.2347748E-1,7.356077E-2,-3.4729612E-1,-6.189548E-3,1.20017365E-1,-6.619216E-2,-2.988856E-1,-1.05531506E-1,-1.1924004E-1,2.885612E-1,6.1450183E-2,2.4029958E-1,-2.1386096E-2,-1.3213222E-1],"categories":[],"categories_nodes":[],"categories_segments":[],"categories_sizes":[],"default_left":[0,0,0,0,0,0,0,0,0,0,0,0,0,0,0],"id":41,"left_children":[1,3,5,7,9,11,13,-1,-1,-1,-1,-1,-1,-1,-1],"loss_changes":[1.7442908E4,8.749424E2,1.6234966E4,6.1021484E2,4.2383383E2,1.4623959E4,2.4364485E3,0E0,0E0,0E0,0E0,0E0,0E0,0E0,0E0],"parents":[2147483647,0,0,1,1,2,2,3,3,4,4,5,5,6,6],"right_children":[2,4,6,8,10,12,14,-1,-1,-1,-1,-1,-1,-1,-1],"split_conditions":[1E0,1E0,1E0,1E0,1E0,1E0,1E0,-2.988856E-1,-1.05531506E-1,-1.1924004E-1,2.885612E-1,6.1450183E-2,2.4029958E-1,-2.1386096E-2,-1.3213222E-1],"split_indices":[1,27,9,24,13,14,12,0,0,0,0,0,0,0,0],"split_type":[0,0,0,0,0,0,0,0,0,0,0,0,0,0,0],"sum_hessian":[2.6163642E6,1.1577269E5,2.5005915E6,1.0768848E5,8.08421E3,1.87673E6,6.238615E5,9.596475E4,1.172373E4,5.8189956E3,2.2652144E3,1.5140419E6,3.6268806E5,4.4603378E5,1.7782773E5],"tree_param":{"num_deleted":"0","num_feature":"39","num_nodes":"15","size_leaf_vector":"0"}},{"base_weights":[3.432862E-2,1.0382474E-1,-1.5117648E-1,1.3293284E-1,-2.3145545E-1,-1.8586065E-1,1.0763281E-1,1.3132058E-1,-8.371573E-2,-2.119201E-1,-2.8946588E-2,-1.2255321E-1,-3.0241632E-1,1.7965595E-1,-5.0504874E-2],"categories":[],"categories_nodes":[],"categories_segments":[],"categories_sizes":[],"default_left":[0,0,0,0,0,0,0,0,0,0,0,0,0,0,0],"id":42,"left_children":[1,3,5,7,9,11,13,-1,-1,-1,-1,-1,-1,-1,-1],"loss_changes":[3.438471E4,1.8935861E4,6.52499E3,1.3240842E4,1.01222266E3,4.0238594E3,1.7153611E3,0E0,0E0,0E0,0E0,0E0,0E0,0E0,0E0],"parents":[2147483647,0,0,1,1,2,2,3,3,4,4,5,5,6,6],"right_children":[2,4,6,8,10,12,14,-1,-1,-1,-1,-1,-1,-1,-1],"split_conditions":[1E0,1E0,1E0,1E0,1E0,1E0,1E0,1.3132058E-1,-8.371573E-2,-2.119201E-1,-2.8946588E-2,-1.2255321E-1,-3.0241632E-1,1.7965595E-1,-5.0504874E-2],"split_indices":[7,13,32,24,22,13,8,0,0,0,0,0,0,0,0],"split_type":[0,0,0,0,0,0,0,0,0,0,0,0,0,0,0],"sum_hessian":[2.6671575E6,1.9402708E6,7.268868E5,1.7852784E6,1.5499238E5,6.4098575E5,8.590103E4,1.5779364E6,2.0734189E5,1.3232794E5,2.2664438E4,5.478478E5,9.313797E4,5.098606E4,3.4914973E4],"tree_param":{"num_deleted":"0","num_feature":"39","num_nodes":"15","size_leaf_vector":"0"}},{"base_weights":[5.2339185E-2,8.162726E-2,-2.498194E-1,-1.2735739E-4,1.7973408E-1,-2.72563E-1,-6.8132706E-2,-5.785308E-2,9.6785925E-2,1.9183832E-1,-8.992026E-2,-2.4425463E-1,-1.4769682E-1,1.6767965E-1,-8.0150746E-2],"categories":[],"categories_nodes":[],"categories_segments":[],"categories_sizes":[],"default_left":[0,0,0,0,0,0,0,0,0,0,0,0,0,0,0],"id":43,"left_children":[1,3,5,7,9,11,13,-1,-1,-1,-1,-1,-1,-1,-1],"loss_changes":[2.3132984E4,1.9113422E4,9.5445996E2,1.1364201E4,1.90063E4,5.912842E2,2.2881882E2,0E0,0E0,0E0,0E0,0E0,0E0,0E0,0E0],"parents":[2147483647,0,0,1,1,2,2,3,3,4,4,5,5,6,6],"right_children":[2,4,6,8,10,12,14,-1,-1,-1,-1,-1,-1,-1,-1],"split_conditions":[1E0,1E0,1E0,1E0,1E0,1E0,1E0,-5.785308E-2,9.6785925E-2,1.9183832E-1,-8.992026E-2,-2.4425463E-1,-1.4769682E-1,1.6767965E-1,-8.0150746E-2],"split_indices":[13,7,22,14,5,16,1,0,0,0,0,0,0,0,0],"split_type":[0,0,0,0,0,0,0,0,0,0,0,0,0,0,0],"sum_hessian":[2.613999E6,2.3830152E6,2.3098367E5,1.2998348E6,1.0831805E6,2.0528545E5,2.5698219E4,8.144011E5,4.854336E5,8.9845525E5,1.8472527E5,1.4957252E5,5.5712934E4,2.6585845E3,2.3039635E4],"tree_param":{"num_deleted":"0","num_feature":"39","num_nodes":"15","size_leaf_vector":"0"}},{"base_weights":[4.8091676E-2,-5.446383E-2,1.1201585E-1,-3.5468586E-2,-2.0044221E-1,4.6711292E-2,2.0733936E-1,-1.2826321E-2,-1.7773387E-1,-1.6869101E-1,-7.401029E-2,1.0426229E-2,2.060641E-1,6.375948E-2,2.1148573E-1],"categories":[],"categories_nodes":[],"categories_segments":[],"categories_sizes":[],"default_left":[0,0,0,0,0,0,0,0,0,0,0,0,0,0,0],"id":44,"left_children":[1,3,5,7,9,11,13,-1,-1,-1,-1,-1,-1,-1,-1],"loss_changes":[1.7205674E4,2.79437E3,1.0064412E4,3.2356907E3,1.3049365E2,6.8138E3,4.7836777E3,0E0,0E0,0E0,0E0,0E0,0E0,0E0,0E0],"parents":[2147483647,0,0,1,1,2,2,3,3,4,4,5,5,6,6],"right_children":[2,4,6,8,10,12,14,-1,-1,-1,-1,-1,-1,-1,-1],"split_conditions":[1E0,1E0,1E0,1E0,1E0,1E0,1E0,-1.2826321E-2,-1.7773387E-1,-1.6869101E-1,-7.401029E-2,1.0426229E-2,2.060641E-1,6.375948E-2,2.1148573E-1],"split_indices":[7,24,12,27,33,11,17,0,0,0,0,0,0,0,0],"split_type":[0,0,0,0,0,0,0,0,0,0,0,0,0,0,0],"sum_hessian":[2.6245038E6,1.0077461E6,1.6167576E6,8.9171425E5,1.160319E5,9.5945344E5,6.573042E5,8.076386E5,8.407559E4,1.0581368E5,1.0218219E4,8.2732056E5,1.3213283E5,2.029601E5,4.5434412E5],"tree_param":{"num_deleted":"0","num_feature":"39","num_nodes":"15","size_leaf_vector":"0"}},{"base_weights":[-4.672431E-2,-5.084837E-1,6.4834066E-2,-5.0889957E-1,-4.0419474E-1,1.0711996E-1,-2.1257529E-2,-4.0749297E-1,-4.045158E-1,1.2852983E-1,3.3552852E-3,-4.0556263E-2,1.5202968E-2],"categories":[],"categories_nodes":[],"categories_segments":[],"categories_sizes":[],"default_left":[0,0,0,0,0,0,0,0,0,0,0,0,0],"id":45,"left_children":[1,3,5,7,-1,9,11,-1,-1,-1,-1,-1,-1],"loss_changes":[1.3525986E5,4.21875E-1,7.6988867E3,4.375E-1,0E0,7.8156514E3,8.2560364E2,0E0,0E0,0E0,0E0,0E0,0E0],"parents":[2147483647,0,0,1,1,2,2,3,3,5,5,6,6],"right_children":[2,4,6,8,-1,10,12,-1,-1,-1,-1,-1,-1],"split_conditions":[1E0,1E0,1E0,1E0,-4.0419474E-1,1E0,1E0,-4.0749297E-1,-4.045158E-1,1.2852983E-1,3.3552852E-3,-4.0556263E-2,1.5202968E-2],"split_indices":[3,5,4,6,0,16,12,0,0,0,0,0,0],"split_type":[0,0,0,0,0,0,0,0,0,0,0,0,0],"sum_hessian":[2.625734E6,5.109247E5,2.1148092E6,4.5267144E5,5.825326E4,1.4182181E6,6.9659125E5,3.9577756E5,5.6893867E4,9.329133E5,4.8530475E5,4.0238172E5,2.9420956E5],"tree_param":{"num_deleted":"0","num_feature":"39","num_nodes":"13","size_leaf_vector":"0"}},{"base_weights":[3.297092E-2,6.55878E-2,-2.848779E-2,9.148317E-2,-9.779999E-3,3.3608798E-3,-1.0333999E-1,1.3326673E-1,4.8834097E-2,-3.6014263E-2,6.7807816E-2,-1.9826042E-2,1.0071192E-1,-1.0384774E-1,-1.5869163E-2],"categories":[],"categories_nodes":[],"categories_segments":[],"categories_sizes":[],"default_left":[0,0,0,0,0,0,0,0,0,0,0,0,0,0,0],"id":46,"left_children":[1,3,5,7,9,11,13,-1,-1,-1,-1,-1,-1,-1,-1],"loss_changes":[5.3761484E3,3.419478E3,2.2167002E3,2.9811143E3,1.4926157E3,2.2493904E3,6.134602E2,0E0,0E0,0E0,0E0,0E0,0E0,0E0,0E0],"parents":[2147483647,0,0,1,1,2,2,3,3,4,4,5,5,6,6],"right_children":[2,4,6,8,10,12,14,-1,-1,-1,-1,-1,-1,-1,-1],"split_conditions":[1E0,1E0,1E0,1E0,1E0,1E0,1E0,1.3326673E-1,4.8834097E-2,-3.6014263E-2,6.7807816E-2,-1.9826042E-2,1.0071192E-1,-1.0384774E-1,-1.5869163E-2],"split_indices":[17,15,3,16,8,9,6,0,0,0,0,0,0,0,0],"split_type":[0,0,0,0,0,0,0,0,0,0,0,0,0,0,0],"sum_hessian":[2.681915E6,1.7520701E6,9.298449E5,1.3040245E6,4.480456E5,6.5230025E5,2.775446E5,3.7611125E5,9.2791325E5,3.263905E5,1.2165508E5,5.304607E5,1.2183959E5,2.1074138E5,6.680322E4],"tree_param":{"num_deleted":"0","num_feature":"39","num_nodes":"15","size_leaf_vector":"0"}},{"base_weights":[4.024985E-2,7.3384516E-2,-4.5834318E-2,9.096267E-2,-1.7757317E-1,-2.3061006E-1,-3.514082E-2,9.403487E-2,-9.3836024E-2,-1.5788099E-1,-3.0418366E-2,-1.9918709E-1,-8.185169E-2,-4.061656E-2,6.431105E-2],"categories":[],"categories_nodes":[],"categories_segments":[],"categories_sizes":[],"default_left":[0,0,0,0,0,0,0,0,0,0,0,0,0,0,0],"id":47,"left_children":[1,3,5,7,9,11,13,-1,-1,-1,-1,-1,-1,-1,-1],"loss_changes":[7.6160405E3,8.505037E3,1.4663021E3,9.974051E3,3.4832007E2,9.567432E1,1.2667148E3,0E0,0E0,0E0,0E0,0E0,0E0,0E0,0E0],"parents":[2147483647,0,0,1,1,2,2,3,3,4,4,5,5,6,6],"right_children":[2,4,6,8,10,12,14,-1,-1,-1,-1,-1,-1,-1,-1],"split_conditions":[1E0,1E0,1E0,1E0,1E0,1E0,1E0,9.403487E-2,-9.3836024E-2,-1.5788099E-1,-3.0418366E-2,-1.9918709E-1,-8.185169E-2,-4.061656E-2,6.431105E-2],"split_indices":[12,11,1,13,9,22,19,0,0,0,0,0,0,0,0],"split_type":[0,0,0,0,0,0,0,0,0,0,0,0,0,0,0],"sum_hessian":[2.670072E6,1.927975E6,7.4209694E5,1.8017718E6,1.2620318E5,4.059662E4,7.015003E5,1.5978332E6,2.0393853E5,1.1053672E5,1.5666467E4,3.551011E4,5.086512E3,6.179051E5,8.359516E4],"tree_param":{"num_deleted":"0","num_feature":"39","num_nodes":"15","size_leaf_vector":"0"}},{"base_weights":[-5.457917E-2,-5.086089E-1,6.682099E-2,-5.090291E-1,-4.0442377E-1,2.745694E-2,2.0016795E-1,-4.07577E-1,-4.0473166E-1,5.7363488E-2,-1.1799115E-1,1.11791246E-1,4.0391216E-1],"categories":[],"categories_nodes":[],"categories_segments":[],"categories_sizes":[],"default_left":[0,0,0,0,0,0,0,0,0,0,0,0,0],"id":48,"left_children":[1,3,5,7,-1,9,11,-1,-1,-1,-1,-1,-1],"loss_changes":[1.3799797E5,4.375E-1,1.0369166E4,3.75E-1,0E0,1.1806378E4,8.290598E3,0E0,0E0,0E0,0E0,0E0,0E0],"parents":[2147483647,0,0,1,1,2,2,3,3,5,5,6,6],"right_children":[2,4,6,8,-1,10,12,-1,-1,-1,-1,-1,-1],"split_conditions":[1E0,1E0,1E0,1E0,-4.0442377E-1,1E0,1E0,-4.07577E-1,-4.0473166E-1,5.7363488E-2,-1.1799115E-1,1.11791246E-1,4.0391216E-1],"split_indices":[4,5,3,6,0,22,16,0,0,0,0,0,0],"split_type":[0,0,0,0,0,0,0,0,0,0,0,0,0],"sum_hessian":[2.503623E6,5.281961E5,1.9754269E6,4.6462712E5,6.3569008E4,1.5251914E6,4.5023553E5,4.0672294E5,5.7904207E4,1.2173092E6,3.0788203E5,3.7572722E5,7.450831E4],"tree_param":{"num_deleted":"0","num_feature":"39","num_nodes":"13","size_leaf_vector":"0"}},{"base_weights":[-1.1528758E-1,-5.0865173E-1,3.0311117E-2,-5.0908375E-1,-4.049089E-1,2.497985E-1,5.0586523E-3,-4.07577E-1,-4.0613052E-1,2.4611376E-1,-4.814581E-2,-2.116453E-2,1.2176187E-1],"categories":[],"categories_nodes":[],"categories_segments":[],"categories_sizes":[],"default_left":[0,0,0,0,0,0,0,0,0,0,0,0,0],"id":49,"left_children":[1,3,5,7,-1,9,11,-1,-1,-1,-1,-1,-1],"loss_changes":[1.2872721E5,4.0625E-1,9.09217E3,1.5625E-2,0E0,3.034915E3,6.82196E3,0E0,0E0,0E0,0E0,0E0,0E0],"parents":[2147483647,0,0,1,1,2,2,3,3,5,5,6,6],"right_children":[2,4,6,8,-1,10,12,-1,-1,-1,-1,-1,-1],"split_conditions":[1E0,1E0,1E0,1E0,-4.049089E-1,1E0,1E0,-4.07577E-1,-4.0613052E-1,2.4611376E-1,-4.814581E-2,-2.116453E-2,1.2176187E-1],"split_indices":[5,6,1,4,0,6,8,0,0,0,0,0,0],"split_type":[0,0,0,0,0,0,0,0,0,0,0,0,0],"sum_hessian":[2.2475938E6,6.0717794E5,1.6404158E6,5.180169E5,8.916105E4,1.6925858E5,1.4711572E6,4.0672294E5,1.1129397E5,1.4264116E5,2.6617424E4,1.2116536E6,2.5950358E5],"tree_param":{"num_deleted":"0","num_feature":"39","num_nodes":"13","size_leaf_vector":"0"}},{"base_weights":[1.575439E-2,3.6055967E-2,-3.186308E-1,8.2248725E-2,-1.1563437E-1,-3.11057E-1,-4.449046E-1,9.3325846E-2,-1.8643712E-1,-1.22258E-1,5.5759728E-2,-2.4217339E-1,-3.1769377E-1,-3.648562E-1,-2.7694625E-1],"categories":[],"categories_nodes":[],"categories_segments":[],"categories_sizes":[],"default_left":[0,0,0,0,0,0,0,0,0,0,0,0,0,0,0],"id":50,"left_children":[1,3,5,7,9,11,13,-1,-1,-1,-1,-1,-1,-1,-1],"loss_changes":[1.7778533E4,1.7300275E4,1.4322266E2,2.0533117E4,3.9723477E3,1.0138867E2,9.189453E0,0E0,0E0,0E0,0E0,0E0,0E0,0E0,0E0],"parents":[2147483647,0,0,1,1,2,2,3,3,4,4,5,5,6,6],"right_children":[2,4,6,8,10,12,14,-1,-1,-1,-1,-1,-1,-1,-1],"split_conditions":[1E0,1E0,1E0,1E0,1E0,1E0,1E0,9.3325846E-2,-1.8643712E-1,-1.22258E-1,5.5759728E-2,-2.4217339E-1,-3.1769377E-1,-3.648562E-1,-2.7694625E-1],"split_indices":[33,12,11,13,34,13,27,0,0,0,0,0,0,0,0],"split_type":[0,0,0,0,0,0,0,0,0,0,0,0,0,0,0],"sum_hessian":[2.6188982E6,2.4689985E6,1.4989977E5,1.8926492E6,5.7634925E5,1.4142089E5,8.478888E3,1.7064254E6,1.8622383E5,4.8002934E5,9.631993E4,1.289305E5,1.2490383E4,7.614095E3,8.647924E2],"tree_param":{"num_deleted":"0","num_feature":"39","num_nodes":"15","size_leaf_vector":"0"}},{"base_weights":[3.183419E-2,-3.744467E-2,8.174849E-2,-5.727141E-2,2.350041E-1,-1.119695E-1,9.693412E-2,-1.0362098E-1,4.073688E-2,2.5758085E-1,-2.2147486E-2,-1.2686215E-1,-2.8545488E-2,1.01908125E-1,1.0331559E-2],"categories":[],"categories_nodes":[],"categories_segments":[],"categories_sizes":[],"default_left":[0,0,0,0,0,0,0,0,0,0,0,0,0,0,0],"id":51,"left_children":[1,3,5,7,9,11,13,-1,-1,-1,-1,-1,-1,-1,-1],"loss_changes":[9.352756E3,6.1182153E3,4.6245215E3,8.253625E3,1.755376E3,4.063141E2,3.729667E3,0E0,0E0,0E0,0E0,0E0,0E0,0E0,0E0],"parents":[2147483647,0,0,1,1,2,2,3,3,4,4,5,5,6,6],"right_children":[2,4,6,8,10,12,14,-1,-1,-1,-1,-1,-1,-1,-1],"split_conditions":[1E0,1E0,1E0,1E0,1E0,1E0,1E0,-1.0362098E-1,4.073688E-2,2.5758085E-1,-2.2147486E-2,-1.2686215E-1,-2.8545488E-2,1.01908125E-1,1.0331559E-2],"split_indices":[7,11,1,12,4,13,3,0,0,0,0,0,0,0,0],"split_type":[0,0,0,0,0,0,0,0,0,0,0,0,0,0,0],"sum_hessian":[2.7046655E6,1.1326279E6,1.5720375E6,1.055796E6,7.683198E4,1.142741E5,1.4577634E6,6.3303344E5,4.2276253E5,5.7721184E4,1.9110793E4,7.093503E4,4.333907E4,1.0699748E6,3.877887E5],"tree_param":{"num_deleted":"0","num_feature":"39","num_nodes":"15","size_leaf_vector":"0"}},{"base_weights":[3.4589272E-2,5.2590147E-2,-1.3678423E-1,1.8361118E-2,1.4733928E-1,-1.5892148E-1,1.9795299E-2,-1.6763253E-2,1.1046292E-1,8.5182846E-2,1.9030784E-1,-1.458875E-1,3.7985444E-3,-3.572058E-2,2.1143706E-1],"categories":[],"categories_nodes":[],"categories_segments":[],"categories_sizes":[],"default_left":[0,0,0,0,0,0,0,0,0,0,0,0,0,0,0],"id":52,"left_children":[1,3,5,7,9,11,13,-1,-1,-1,-1,-1,-1,-1,-1],"loss_changes":[8.282077E3,7.879413E3,8.845747E2,8.400434E3,2.3854531E3,8.576919E2,4.9811807E2,0E0,0E0,0E0,0E0,0E0,0E0,0E0,0E0],"parents":[2147483647,0,0,1,1,2,2,3,3,4,4,5,5,6,6],"right_children":[2,4,6,8,10,12,14,-1,-1,-1,-1,-1,-1,-1,-1],"split_conditions":[1E0,1E0,1E0,1E0,1E0,1E0,1E0,-1.6763253E-2,1.1046292E-1,8.5182846E-2,1.9030784E-1,-1.458875E-1,3.7985444E-3,-3.572058E-2,2.1143706E-1],"split_indices":[34,9,26,20,3,25,20,0,0,0,0,0,0,0,0],"split_type":[0,0,0,0,0,0,0,0,0,0,0,0,0,0,0],"sum_hessian":[2.6847352E6,2.4295398E6,2.5519538E5,1.7847742E6,6.4476556E5,2.2358488E5,3.1610502E4,1.3435529E6,4.4122138E5,4.4427744E5,2.0048814E5,1.9557758E5,2.8007291E4,2.5017232E4,6.59327E3],"tree_param":{"num_deleted":"0","num_feature":"39","num_nodes":"15","size_leaf_vector":"0"}},{"base_weights":[-9.350719E-2,-5.086867E-1,4.64671E-2,-5.0908375E-1,-4.0478626E-1,2.2712865E-1,2.4206854E-2,-4.07577E-1,-4.0613052E-1,2.0994079E-1,9.635635E-3,4.7609877E-2,-7.237261E-2],"categories":[],"categories_nodes":[],"categories_segments":[],"categories_sizes":[],"default_left":[0,0,0,0,0,0,0,0,0,0,0,0,0],"id":53,"left_children":[1,3,5,7,-1,9,11,-1,-1,-1,-1,-1,-1],"loss_changes":[1.369733E5,3.75E-1,7.088754E3,1.5625E-2,0E0,1.4679951E3,6.3535156E3,0E0,0E0,0E0,0E0,0E0,0E0],"parents":[2147483647,0,0,1,1,2,2,3,3,5,5,6,6],"right_children":[2,4,6,8,-1,10,12,-1,-1,-1,-1,-1,-1],"split_conditions":[1E0,1E0,1E0,1E0,-4.0478626E-1,1E0,1E0,-4.07577E-1,-4.0613052E-1,2.0994079E-1,9.635635E-3,4.7609877E-2,-7.237261E-2],"split_indices":[6,5,1,4,0,5,9,0,0,0,0,0,0],"split_type":[0,0,0,0,0,0,0,0,0,0,0,0,0],"sum_hessian":[2.356956E6,5.9427294E5,1.762683E6,5.180169E5,7.625603E4,1.9336292E5,1.5693201E6,4.0672294E5,1.1129397E5,1.6610353E5,2.7259385E4,1.1998958E6,3.694243E5],"tree_param":{"num_deleted":"0","num_feature":"39","num_nodes":"13","size_leaf_vector":"0"}},{"base_weights":[1.1805563E-2,4.957372E-2,-1.2786676E-1,7.8498214E-2,-1.6638309E-1,-9.143208E-2,-2.3565647E-1,9.890254E-2,-4.6648826E-2,-1.7905974E-1,1.3151096E-1,-8.9832015E-2,3.941297E-2,-2.9412612E-1,-1.09164E-1],"categories":[],"categories_nodes":[],"categories_segments":[],"categories_sizes":[],"default_left":[0,0,0,0,0,0,0,0,0,0,0,0,0,0,0],"id":54,"left_children":[1,3,5,7,9,11,13,-1,-1,-1,-1,-1,-1,-1,-1],"loss_changes":[1.3708976E4,1.2777902E4,2.1723506E3,1.113829E4,4.5908755E3,1.2132334E3,1.8297856E3,0E0,0E0,0E0,0E0,0E0,0E0,0E0,0E0],"parents":[2147483647,0,0,1,1,2,2,3,3,4,4,5,5,6,6],"right_children":[2,4,6,8,10,12,14,-1,-1,-1,-1,-1,-1,-1,-1],"split_conditions":[1E0,1E0,1E0,1E0,1E0,1E0,1E0,9.890254E-2,-4.6648826E-2,-1.7905974E-1,1.3151096E-1,-8.9832015E-2,3.941297E-2,-2.9412612E-1,-1.09164E-1],"split_indices":[3,32,8,16,25,27,16,0,0,0,0,0,0,0,0],"split_type":[0,0,0,0,0,0,0,0,0,0,0,0,0,0,0],"sum_hessian":[2.5987738E6,2.045626E6,5.5314775E5,1.8040046E6,2.4162139E5,4.1341025E5,1.3973753E5,1.356522E6,4.474827E5,2.058704E5,3.5750992E4,3.6003653E5,5.3373715E4,5.9955617E4,7.978191E4],"tree_param":{"num_deleted":"0","num_feature":"39","num_nodes":"15","size_leaf_vector":"0"}},{"base_weights":[-9.354391E-3,-1.3594311E-1,5.7306502E-2,4.6324946E-2,-1.7035653E-1,-1.6849088E-2,2.0519163E-1,7.2058216E-3,7.755932E-1,-1.590014E-1,2.5276337E-2,-3.778367E-2,2.0852259E-1,2.1197648E-1,2.488941E-2],"categories":[],"categories_nodes":[],"categories_segments":[],"categories_sizes":[],"default_left":[0,0,0,0,0,0,0,0,0,0,0,0,0,0,0],"id":55,"left_children":[1,3,5,7,9,11,13,-1,-1,-1,-1,-1,-1,-1,-1],"loss_changes":[2.1264965E4,5.4524287E3,1.8102701E4,4.756124E3,4.193084E3,9.268922E3,5.7369688E3,0E0,0E0,0E0,0E0,0E0,0E0,0E0,0E0],"parents":[2147483647,0,0,1,1,2,2,3,3,4,4,5,5,6,6],"right_children":[2,4,6,8,10,12,14,-1,-1,-1,-1,-1,-1,-1,-1],"split_conditions":[1E0,1E0,1E0,1E0,1E0,1E0,1E0,7.2058216E-3,7.755932E-1,-1.590014E-1,2.5276337E-2,-3.778367E-2,2.0852259E-1,2.1197648E-1,2.488941E-2],"split_indices":[7,1,12,11,13,11,3,0,0,0,0,0,0,0,0],"split_type":[0,0,0,0,0,0,0,0,0,0,0,0,0,0,0],"sum_hessian":[2.519986E6,8.692615E5,1.6507246E6,1.380563E5,7.312052E5,1.0994279E6,5.5129675E5,1.3269338E5,5.3629277E3,6.4106856E5,9.013665E4,9.9094194E5,1.08485875E5,4.1037397E5,1.4092281E5],"tree_param":{"num_deleted":"0","num_feature":"39","num_nodes":"15","size_leaf_vector":"0"}},{"base_weights":[3.465089E-2,9.985359E-2,-4.3416463E-2,1.394485E-1,-8.086067E-2,-6.4470805E-2,1.9912827E-1,1.5257016E-1,-3.5516735E-2,-3.4293592E-2,-2.1497309E-1,-7.499334E-2,1.19372845E-1,5.5354E-2,6.306637E-1],"categories":[],"categories_nodes":[],"categories_segments":[],"categories_sizes":[],"default_left":[0,0,0,0,0,0,0,0,0,0,0,0,0,0,0],"id":56,"left_children":[1,3,5,7,9,11,13,-1,-1,-1,-1,-1,-1,-1,-1],"loss_changes":[1.3754154E4,1.0535253E4,6.2797676E3,1.1382504E4,1.8886592E3,7.0773667E3,7.5196436E3,0E0,0E0,0E0,0E0,0E0,0E0,0E0,0E0],"parents":[2147483647,0,0,1,1,2,2,3,3,4,4,5,5,6,6],"right_children":[2,4,6,8,10,12,14,-1,-1,-1,-1,-1,-1,-1,-1],"split_conditions":[1E0,1E0,1E0,1E0,1E0,1E0,1E0,1.5257016E-1,-3.5516735E-2,-3.4293592E-2,-2.1497309E-1,-7.499334E-2,1.19372845E-1,5.5354E-2,6.306637E-1],"split_indices":[7,8,27,20,3,24,5,0,0,0,0,0,0,0,0],"split_type":[0,0,0,0,0,0,0,0,0,0,0,0,0,0,0],"sum_hessian":[2.7020822E6,1.472355E6,1.2297272E6,1.2077372E6,2.6461772E5,1.1315064E6,9.822082E4,9.4439644E5,2.633408E5,2.2010325E5,4.4514484E4,9.951862E5,1.3632025E5,8.0474914E4,1.7745908E4],"tree_param":{"num_deleted":"0","num_feature":"39","num_nodes":"15","size_leaf_vector":"0"}},{"base_weights":[2.017008E-2,-3.3402732E-1,3.8847234E-2,-3.5774985E-1,-1.6996403E-1,2.9675884E-3,2.063303E-1,-3.0066496E-1,-1.989555E-1,-7.140084E-2,-2.060103E-1,1.8311031E-2,-1.9548409E-1,2.9719618E-1,3.974103E-3],"categories":[],"categories_nodes":[],"categories_segments":[],"categories_sizes":[],"default_left":[0,0,0,0,0,0,0,0,0,0,0,0,0,0,0],"id":57,"left_children":[1,3,5,7,9,11,13,-1,-1,-1,-1,-1,-1,-1,-1],"loss_changes":[1.7890955E4,5.27167E2,1.5437573E4,2.332793E2,1.2091586E2,1.0424121E4,1.5074172E4,0E0,0E0,0E0,0E0,0E0,0E0,0E0,0E0],"parents":[2147483647,0,0,1,1,2,2,3,3,4,4,5,5,6,6],"right_children":[2,4,6,8,10,12,14,-1,-1,-1,-1,-1,-1,-1,-1],"split_conditions":[1E0,1E0,1E0,1E0,1E0,1E0,1E0,-3.0066496E-1,-1.989555E-1,-7.140084E-2,-2.060103E-1,1.8311031E-2,-1.9548409E-1,2.9719618E-1,3.974103E-3],"split_indices":[1,22,22,14,6,13,3,0,0,0,0,0,0,0,0],"split_type":[0,0,0,0,0,0,0,0,0,0,0,0,0,0,0],"sum_hessian":[2.704438E6,1.354635E5,2.5689745E6,1.1834968E5,1.711381E4,2.1157268E6,4.5324788E5,1.01515945E5,1.683374E4,8.905591E3,8.20822E3,1.9580145E6,1.5771208E5,2.4900455E5,2.0424334E5],"tree_param":{"num_deleted":"0","num_feature":"39","num_nodes":"15","size_leaf_vector":"0"}},{"base_weights":[3.4290317E-2,5.011811E-2,-2.9683748E-1,7.083826E-2,-1.9843926E-1,-3.3144754E-1,-2.0592532E-1,9.7454585E-2,-4.835814E-2,-1.8110101E-1,-4.5930292E-2,-2.8192776E-1,-1.4216687E-1,-1.760777E-1,1.5694283E-1],"categories":[],"categories_nodes":[],"categories_segments":[],"categories_sizes":[],"default_left":[0,0,0,0,0,0,0,0,0,0,0,0,0,0,0],"id":58,"left_children":[1,3,5,7,9,11,13,-1,-1,-1,-1,-1,-1,-1,-1],"loss_changes":[1.4008835E4,1.3137945E4,3.8360156E2,1.5759854E4,7.733462E2,2.8454492E2,1.9165015E2,0E0,0E0,0E0,0E0,0E0,0E0,0E0,0E0],"parents":[2147483647,0,0,1,1,2,2,3,3,4,4,5,5,6,6],"right_children":[2,4,6,8,10,12,14,-1,-1,-1,-1,-1,-1,-1,-1],"split_conditions":[1E0,1E0,1E0,1E0,1E0,1E0,1E0,9.7454585E-2,-4.835814E-2,-1.8110101E-1,-4.5930292E-2,-2.8192776E-1,-1.4216687E-1,-1.760777E-1,1.5694283E-1],"split_indices":[11,13,3,12,9,9,23,0,0,0,0,0,0,0,0],"split_type":[0,0,0,0,0,0,0,0,0,0,0,0,0,0,0],"sum_hessian":[2.6729168E6,2.5509815E6,1.2193517E5,2.3546912E6,1.9629019E5,8.831224E4,3.362293E4,1.6960816E6,6.586097E5,1.6383439E5,3.2455795E4,7.771463E4,1.0597609E4,3.24787E4,1.1442302E3],"tree_param":{"num_deleted":"0","num_feature":"39","num_nodes":"15","size_leaf_vector":"0"}},{"base_weights":[2.8201293E-2,4.7647405E-2,-9.589923E-2,2.8527567E-2,1.8502377E-1,-1.1278911E-1,1.04628384E-1,-1.078359E-2,5.9500385E-2,3.717054E-2,2.0216821E-1,-9.874019E-2,1.3026951E-1,5.5693872E-2,2.439564E-1],"categories":[],"categories_nodes":[],"categories_segments":[],"categories_sizes":[],"default_left":[0,0,0,0,0,0,0,0,0,0,0,0,0,0,0],"id":59,"left_children":[1,3,5,7,9,11,13,-1,-1,-1,-1,-1,-1,-1,-1],"loss_changes":[6.4851274E3,6.102227E3,1.2329817E3,3.9277422E3,2.6620283E3,9.8434033E2,1.9832083E2,0E0,0E0,0E0,0E0,0E0,0E0,0E0,0E0],"parents":[2147483647,0,0,1,1,2,2,3,3,4,4,5,5,6,6],"right_children":[2,4,6,8,10,12,14,-1,-1,-1,-1,-1,-1,-1,-1],"split_conditions":[1E0,1E0,1E0,1E0,1E0,1E0,1E0,-1.078359E-2,5.9500385E-2,3.717054E-2,2.0216821E-1,-9.874019E-2,1.3026951E-1,5.5693872E-2,2.439564E-1],"split_indices":[14,19,33,10,7,5,22,0,0,0,0,0,0,0,0],"split_type":[0,0,0,0,0,0,0,0,0,0,0,0,0,0,0],"sum_hessian":[2.6872722E6,2.3232308E6,3.640414E5,2.0393924E6,2.838384E5,3.357616E5,2.8279807E4,1.0642759E6,9.7511656E5,9.3151086E4,1.9068733E5,3.232868E5,1.2474766E4,2.4073613E4,4.206193E3],"tree_param":{"num_deleted":"0","num_feature":"39","num_nodes":"15","size_leaf_vector":"0"}},{"base_weights":[-3.7154973E-2,-4.044817E-1,3.6011945E-2,1.6700061E-2,1.3274917E-1,5.4202895E-3,1.3263838E-1,7.738061E-2,2.720914E-1],"categories":[],"categories_nodes":[],"categories_segments":[],"categories_sizes":[],"default_left":[0,0,0,0,0,0,0,0,0],"id":60,"left_children":[1,-1,3,5,7,-1,-1,-1,-1],"loss_changes":[8.6013055E4,0E0,4.054877E3,2.6773223E3,2.6980962E3,0E0,0E0,0E0,0E0],"parents":[2147483647,0,0,2,2,3,3,4,4],"right_children":[2,-1,4,6,8,-1,-1,-1,-1],"split_conditions":[1E0,-4.044817E-1,1E0,1E0,1E0,5.4202895E-3,1.3263838E-1,7.738061E-2,2.720914E-1],"split_indices":[3,0,20,27,34,0,0,0,0],"split_type":[0,0,0,0,0,0,0,0,0],"sum_hessian":[2.509509E6,3.3901003E5,2.170499E6,1.8093044E6,3.611946E5,1.6963855E6,1.1291882E5,3.077362E5,5.3458383E4],"tree_param":{"num_deleted":"0","num_feature":"39","num_nodes":"9","size_leaf_vector":"0"}},{"base_weights":[2.1096159E-2,3.625323E-2,-4.8251558E-2,5.1745195E-2,-2.8585987E-2,-8.219344E-2,3.9708085E-2,3.4201663E-2,1.1913078E-1,-4.130208E-2,1.3585614E-1,-4.83814E-2,-1.2143506E-1,4.7286835E-2,-1.7126405E-1],"categories":[],"categories_nodes":[],"categories_segments":[],"categories_sizes":[],"default_left":[0,0,0,0,0,0,0,0,0,0,0,0,0,0,0],"id":61,"left_children":[1,3,5,7,9,11,13,-1,-1,-1,-1,-1,-1,-1,-1],"loss_changes":[2.8616777E3,2.2442366E3,1.4579004E3,1.575835E3,1.9697769E3,5.32574E2,6.6946484E2,0E0,0E0,0E0,0E0,0E0,0E0,0E0,0E0],"parents":[2147483647,0,0,1,1,2,2,3,3,4,4,5,5,6,6],"right_children":[2,4,6,8,10,12,14,-1,-1,-1,-1,-1,-1,-1,-1],"split_conditions":[1E0,1E0,1E0,1E0,1E0,1E0,1E0,3.4201663E-2,1.1913078E-1,-4.130208E-2,1.3585614E-1,-4.83814E-2,-1.2143506E-1,4.7286835E-2,-1.7126405E-1],"split_indices":[4,14,8,19,35,20,27,0,0,0,0,0,0,0,0],"split_type":[0,0,0,0,0,0,0,0,0,0,0,0,0,0,0],"sum_hessian":[2.7225315E6,2.2342092E6,4.8832222E5,1.8033394E6,4.308698E5,3.5235534E5,1.3596688E5,1.6505766E6,1.5276273E5,3.860385E5,4.483129E4,2.685609E5,8.3794445E4,1.26311914E5,9.654959E3],"tree_param":{"num_deleted":"0","num_feature":"39","num_nodes":"15","size_leaf_vector":"0"}},{"base_weights":[2.807712E-2,1.595098E-3,1.02543354E-1,-2.1570295E-2,7.1529314E-2,7.1566895E-2,1.9867933E-1,-3.4698736E-2,5.8892842E-2,4.2589948E-2,2.2300397E-1,2.8100884E-2,1.0379531E-1,2.1151344E-1,8.857256E-2],"categories":[],"categories_nodes":[],"categories_segments":[],"categories_sizes":[],"default_left":[0,0,0,0,0,0,0,0,0,0,0,0,0,0,0],"id":62,"left_children":[1,3,5,7,9,11,13,-1,-1,-1,-1,-1,-1,-1,-1],"loss_changes":[5.350912E3,3.2427065E3,2.1197485E3,3.1204263E3,1.887854E3,1.1413215E3,1.00265186E3,0E0,0E0,0E0,0E0,0E0,0E0,0E0,0E0],"parents":[2147483647,0,0,1,1,2,2,3,3,4,4,5,5,6,6],"right_children":[2,4,6,8,10,12,14,-1,-1,-1,-1,-1,-1,-1,-1],"split_conditions":[1E0,1E0,1E0,1E0,1E0,1E0,1E0,-3.4698736E-2,5.8892842E-2,4.2589948E-2,2.2300397E-1,2.8100884E-2,1.0379531E-1,2.1151344E-1,8.857256E-2],"split_indices":[3,9,16,4,27,4,7,0,0,0,0,0,0,0,0],"split_type":[0,0,0,0,0,0,0,0,0,0,0,0,0,0,0],"sum_hessian":[2.7134205E6,2.0016025E6,7.11818E5,1.5035568E6,4.980457E5,5.38354E5,1.7346405E5,1.223342E6,2.8021478E5,4.5765003E5,4.039567E4,3.3101562E5,2.0733836E5,9.928901E4,7.417503E4],"tree_param":{"num_deleted":"0","num_feature":"39","num_nodes":"15","size_leaf_vector":"0"}},{"base_weights":[-4.0828783E-2,-4.0454465E-1,3.9306514E-2,1.1897159E-2,1.6056688E-1,4.7102712E-2,-3.9550338E-2,1.5525864E-1,1.4679769E-2],"categories":[],"categories_nodes":[],"categories_segments":[],"categories_sizes":[],"default_left":[0,0,0,0,0,0,0,0,0],"id":63,"left_children":[1,-1,3,5,7,-1,-1,-1,-1],"loss_changes":[8.881203E4,0E0,6.75895E3,4.7796035E3,1.7865557E3,0E0,0E0,0E0,0E0],"parents":[2147483647,0,0,2,2,3,3,4,4],"right_children":[2,-1,4,6,8,-1,-1,-1,-1],"split_conditions":[1E0,-4.0454465E-1,1E0,1E0,1E0,4.7102712E-2,-3.9550338E-2,1.5525864E-1,1.4679769E-2],"split_indices":[4,0,20,17,6,0,0,0,0],"split_type":[0,0,0,0,0,0,0,0,0],"sum_hessian":[2.3841465E6,3.505657E5,2.0335808E6,1.6586624E6,3.749183E5,9.3923244E5,7.1942994E5,3.034298E5,7.148849E4],"tree_param":{"num_deleted":"0","num_feature":"39","num_nodes":"9","size_leaf_vector":"0"}},{"base_weights":[-8.0305815E-2,-4.045615E-1,2.4402263E-2,-1.5573929E-1,4.437454E-2,3.9136287E-2,-2.035735E-1,1.5275377E-2,1.5283811E-1],"categories":[],"categories_nodes":[],"categories_segments":[],"categories_sizes":[],"default_left":[0,0,0,0,0,0,0,0,0],"id":64,"left_children":[1,-1,3,5,7,-1,-1,-1,-1],"loss_changes":[9.082325E4,0E0,5.8870537E3,3.299738E3,5.461673E3,0E0,0E0,0E0,0E0],"parents":[2147483647,0,0,2,2,3,3,4,4],"right_children":[2,-1,4,6,8,-1,-1,-1,-1],"split_conditions":[1E0,-4.045615E-1,1E0,1E0,1E0,3.9136287E-2,-2.035735E-1,1.5275377E-2,1.5283811E-1],"split_indices":[5,0,7,17,4,0,0,0,0],"split_type":[0,0,0,0,0,0,0,0,0],"sum_hessian":[2.0390281E6,4.0275544E5,1.6362726E6,1.6330684E5,1.4729658E6,5.314311E4,1.10163734E5,1.2564136E6,2.1655216E5],"tree_param":{"num_deleted":"0","num_feature":"39","num_nodes":"9","size_leaf_vector":"0"}},{"base_weights":[1.21803535E-2,-2.2728829E-2,1.559881E-1,-8.6800754E-2,8.12347E-2,2.1047418E-1,-2.2198702E-1,-1.2356057E-1,1.330982E-1,1.0791873E-1,-4.7304492E-2,3.1408736E-1,3.94757E-2,-1.4738233E-1,-2.909704E-1],"categories":[],"categories_nodes":[],"categories_segments":[],"categories_sizes":[],"default_left":[0,0,0,0,0,0,0,0,0,0,0,0,0,0,0],"id":65,"left_children":[1,3,5,7,9,11,13,-1,-1,-1,-1,-1,-1,-1,-1],"loss_changes":[1.30880625E4,1.3973946E4,1.0487648E4,2.2229854E4,6.025295E3,1.306207E4,3.4328564E2,0E0,0E0,0E0,0E0,0E0,0E0,0E0,0E0],"parents":[2147483647,0,0,1,1,2,2,3,3,4,4,5,5,6,6],"right_children":[2,4,6,8,10,12,14,-1,-1,-1,-1,-1,-1,-1,-1],"split_conditions":[1E0,1E0,1E0,1E0,1E0,1E0,1E0,-1.2356057E-1,1.330982E-1,1.0791873E-1,-4.7304492E-2,3.1408736E-1,3.94757E-2,-1.4738233E-1,-2.909704E-1],"split_indices":[35,14,26,34,8,14,20,0,0,0,0,0,0,0,0],"split_type":[0,0,0,0,0,0,0,0,0,0,0,0,0,0,0],"sum_hessian":[2.6070725E6,2.0978278E6,5.0924472E5,1.2979261E6,7.9990175E5,4.45085E5,6.4159695E4,1.0242411E6,2.7368494E5,5.786684E5,2.2123338E5,2.0892373E5,2.3616128E5,5.0663934E4,1.3495759E4],"tree_param":{"num_deleted":"0","num_feature":"39","num_nodes":"15","size_leaf_vector":"0"}},{"base_weights":[1.9177904E-2,1.4775514E-4,1.3077816E-1,-5.1982384E-2,5.2336227E-2,1.871464E-1,-9.11317E-3,-6.659E-2,5.932602E-2,7.092287E-2,-4.2377103E-2,5.474549E-2,2.558187E-1,-2.5478626E-2,1.2188311E-1],"categories":[],"categories_nodes":[],"categories_segments":[],"categories_sizes":[],"default_left":[0,0,0,0,0,0,0,0,0,0,0,0,0,0,0],"id":66,"left_children":[1,3,5,7,9,11,13,-1,-1,-1,-1,-1,-1,-1,-1],"loss_changes":[5.8399165E3,6.391222E3,3.1588037E3,4.6334834E3,4.489747E3,4.495631E3,4.2236728E2,0E0,0E0,0E0,0E0,0E0,0E0,0E0,0E0],"parents":[2147483647,0,0,1,1,2,2,3,3,4,4,5,5,6,6],"right_children":[2,4,6,8,10,12,14,-1,-1,-1,-1,-1,-1,-1,-1],"split_conditions":[1E0,1E0,1E0,1E0,1E0,1E0,1E0,-6.659E-2,5.932602E-2,7.092287E-2,-4.2377103E-2,5.474549E-2,2.558187E-1,-2.5478626E-2,1.2188311E-1],"split_indices":[13,12,5,11,4,17,8,0,0,0,0,0,0,0,0],"split_type":[0,0,0,0,0,0,0,0,0,0,0,0,0,0,0],"sum_hessian":[2.749787E6,2.3492008E6,4.0058622E5,1.1752572E6,1.1739435E6,2.8553256E5,1.1505367E5,9.4187775E5,2.3337945E5,8.729055E5,3.0103806E5,1.5066958E5,1.3486298E5,1.0085391E5,1.419977E4],"tree_param":{"num_deleted":"0","num_feature":"39","num_nodes":"15","size_leaf_vector":"0"}},{"base_weights":[2.479048E-2,4.029366E-2,-1.4099999E-1,8.056823E-2,-5.54953E-2,-1.7775114E-1,5.655238E-3,7.617292E-2,-9.286593E-2,-5.451999E-2,3.2804344E-2,-1.6979747E-1,-6.3469015E-2,-1.1097927E-2,5.4166996E-1],"categories":[],"categories_nodes":[],"categories_segments":[],"categories_sizes":[],"default_left":[0,0,0,0,0,0,0,0,0,0,0,0,0,0,0],"id":67,"left_children":[1,3,5,7,9,11,13,-1,-1,-1,-1,-1,-1,-1,-1],"loss_changes":[6.991245E3,9.596159E3,1.2536641E3,5.044255E3,8.9913257E2,6.314072E2,6.111344E2,0E0,0E0,0E0,0E0,0E0,0E0,0E0,0E0],"parents":[2147483647,0,0,1,1,2,2,3,3,4,4,5,5,6,6],"right_children":[2,4,6,8,10,12,14,-1,-1,-1,-1,-1,-1,-1,-1],"split_conditions":[1E0,1E0,1E0,1E0,1E0,1E0,1E0,7.617292E-2,-9.286593E-2,-5.451999E-2,3.2804344E-2,-1.6979747E-1,-6.3469015E-2,-1.1097927E-2,5.4166996E-1],"split_indices":[13,12,6,11,19,16,23,0,0,0,0,0,0,0,0],"split_type":[0,0,0,0,0,0,0,0,0,0,0,0,0,0,0],"sum_hessian":[2.7200298E6,2.4874292E6,2.3260045E5,1.7511546E6,7.362746E5,1.8599158E5,4.6608883E4,1.6297592E6,1.21395375E5,6.5091656E5,8.535805E4,1.3771834E5,4.8273234E4,4.529259E4,1.316291E3],"tree_param":{"num_deleted":"0","num_feature":"39","num_nodes":"15","size_leaf_vector":"0"}},{"base_weights":[-6.729624E-2,-4.0458298E-1,3.0847508E-2,4.8358496E-2,-1.7728534E-1,5.296879E-2,-1.2454653E-1,-1.7565386E-1,-5.2949097E-2],"categories":[],"categories_nodes":[],"categories_segments":[],"categories_sizes":[],"default_left":[0,0,0,0,0,0,0,0,0],"id":68,"left_children":[1,-1,3,5,7,-1,-1,-1,-1],"loss_changes":[9.2815E4,0E0,6.4235664E3,5.9218857E3,6.424912E2,0E0,0E0,0E0,0E0],"parents":[2147483647,0,0,2,2,3,3,4,4],"right_children":[2,-1,4,6,8,-1,-1,-1,-1],"split_conditions":[1E0,-4.0458298E-1,1E0,1E0,1E0,5.296879E-2,-1.2454653E-1,-1.7565386E-1,-5.2949097E-2],"split_indices":[6,0,36,37,3,0,0,0,0],"split_type":[0,0,0,0,0,0,0,0,0],"sum_hessian":[2.157012E6,3.9453262E5,1.7624794E6,1.6257036E6,1.367757E5,1.4949082E6,1.3079534E5,9.907054E4,3.7705168E4],"tree_param":{"num_deleted":"0","num_feature":"39","num_nodes":"9","size_leaf_vector":"0"}},{"base_weights":[9.830601E-3,5.8950454E-2,-6.8199486E-2,1.2468506E-1,-4.9023677E-2,-1.00382306E-1,9.681742E-2,1.6671698E-1,-8.799752E-2,-6.535444E-2,1.2818049E-1,-1.08883955E-1,3.3360936E-2,5.645382E-2,4.5078245E-1],"categories":[],"categories_nodes":[],"categories_segments":[],"categories_sizes":[],"default_left":[0,0,0,0,0,0,0,0,0,0,0,0,0,0,0],"id":69,"left_children":[1,3,5,7,9,11,13,-1,-1,-1,-1,-1,-1,-1,-1],"loss_changes":[9.921409E3,1.1274936E4,5.3106606E3,1.9398217E4,4.1094062E3,4.2472227E3,1.999119E3,0E0,0E0,0E0,0E0,0E0,0E0,0E0,0E0],"parents":[2147483647,0,0,1,1,2,2,3,3,4,4,5,5,6,6],"right_children":[2,4,6,8,10,12,14,-1,-1,-1,-1,-1,-1,-1,-1],"split_conditions":[1E0,1E0,1E0,1E0,1E0,1E0,1E0,1.6671698E-1,-8.799752E-2,-6.535444E-2,1.2818049E-1,-1.08883955E-1,3.3360936E-2,5.645382E-2,4.5078245E-1],"split_indices":[17,16,6,15,6,5,38,0,0,0,0,0,0,0,0],"split_type":[0,0,0,0,0,0,0,0,0,0,0,0,0,0,0],"sum_hessian":[2.588534E6,1.5885461E6,9.999878E5,9.8741075E5,6.011354E5,8.36791E5,1.6319681E5,7.278032E5,2.5960758E5,5.199569E5,8.117847E4,6.6867325E5,1.681178E5,1.545068E5,8.690018E3],"tree_param":{"num_deleted":"0","num_feature":"39","num_nodes":"15","size_leaf_vector":"0"}},{"base_weights":[-7.84576E-3,5.170524E-2,-8.649556E-2,1.15649305E-1,-6.78207E-2,-1.439652E-1,4.219897E-2,1.1472767E-1,-1.6039877E-1,-8.649614E-2,8.1259355E-2,5.4124504E-2,-1.6535547E-1,-2.0739138E-1,8.003407E-2],"categories":[],"categories_nodes":[],"categories_segments":[],"categories_sizes":[],"default_left":[0,0,0,0,0,0,0,0,0,0,0,0,0,0,0],"id":70,"left_children":[1,3,5,7,9,11,13,-1,-1,-1,-1,-1,-1,-1,-1],"loss_changes":[1.1698615E4,1.0864195E4,7.9602197E3,8.127325E3,3.3819846E3,9.8768545E3,5.79329E3,0E0,0E0,0E0,0E0,0E0,0E0,0E0,0E0],"parents":[2147483647,0,0,1,1,2,2,3,3,4,4,5,5,6,6],"right_children":[2,4,6,8,10,12,14,-1,-1,-1,-1,-1,-1,-1,-1],"split_conditions":[1E0,1E0,1E0,1E0,1E0,1E0,1E0,1.1472767E-1,-1.6039877E-1,-8.649614E-2,8.1259355E-2,5.4124504E-2,-1.6535547E-1,-2.0739138E-1,8.003407E-2],"split_indices":[10,9,5,14,26,1,17,0,0,0,0,0,0,0,0],"split_type":[0,0,0,0,0,0,0,0,0,0,0,0,0,0,0],"sum_hessian":[2.497741E6,1.4214598E6,1.0762814E6,9.2604406E5,4.9541562E5,7.440289E5,3.3225253E5,8.5129425E5,7.474983E4,4.0020597E5,9.520966E4,1.7011953E5,5.739094E5,5.34914E4,2.7876112E5],"tree_param":{"num_deleted":"0","num_feature":"39","num_nodes":"15","size_leaf_vector":"0"}},{"base_weights":[2.0666867E-2,5.2536882E-2,-8.8436134E-2,-2.5551328E-1,6.3142456E-2,-1.2159059E-1,3.694297E-2,-2.5690186E-1,-1.0169675E-1,6.9234885E-2,-4.433326E-2,-1.1228905E-1,1.150709E-1,-1.2095022E-3,3.03434E-1],"categories":[],"categories_nodes":[],"categories_segments":[],"categories_sizes":[],"default_left":[0,0,0,0,0,0,0,0,0,0,0,0,0,0,0],"id":71,"left_children":[1,3,5,7,9,11,13,-1,-1,-1,-1,-1,-1,-1,-1],"loss_changes":[9.581191E3,6.967191E3,2.5894932E3,5.9788916E2,5.7197E3,2.4546196E3,1.7151064E3,0E0,0E0,0E0,0E0,0E0,0E0,0E0,0E0],"parents":[2147483647,0,0,1,1,2,2,3,3,4,4,5,5,6,6],"right_children":[2,4,6,8,10,12,14,-1,-1,-1,-1,-1,-1,-1,-1],"split_conditions":[1E0,1E0,1E0,1E0,1E0,1E0,1E0,-2.5690186E-1,-1.0169675E-1,6.9234885E-2,-4.433326E-2,-1.1228905E-1,1.150709E-1,-1.2095022E-3,3.03434E-1],"split_indices":[3,1,14,13,20,27,35,0,0,0,0,0,0,0,0],"split_type":[0,0,0,0,0,0,0,0,0,0,0,0,0,0,0],"sum_hessian":[2.7554985E6,2.1325588E6,6.2293994E5,7.0975516E4,2.0615831E6,4.9266325E5,1.30276695E5,4.6970207E4,2.400531E4,1.7217456E6,3.3983747E5,4.601245E5,3.2538768E4,1.17121836E5,1.3154863E4],"tree_param":{"num_deleted":"0","num_feature":"39","num_nodes":"15","size_leaf_vector":"0"}},{"base_weights":[1.2535988E-2,3.1747278E-2,-1.929967E-1,5.0086364E-2,-2.1211497E-1,-2.1627292E-1,4.4729058E-2,5.8157522E-2,-1.1880449E-1,-5.851912E-2,-2.2030234E-1,-1.9820343E-1,-7.7188924E-2,8.030369E-4,1.8532549E-1],"categories":[],"categories_nodes":[],"categories_segments":[],"categories_sizes":[],"default_left":[0,0,0,0,0,0,0,0,0,0,0,0,0,0,0],"id":72,"left_children":[1,3,5,7,9,11,13,-1,-1,-1,-1,-1,-1,-1,-1],"loss_changes":[1.076452E4,1.1149944E4,1.2894893E3,1.041197E4,1.5330137E3,8.0040137E2,1.6987039E2,0E0,0E0,0E0,0E0,0E0,0E0,0E0,0E0],"parents":[2147483647,0,0,1,1,2,2,3,3,4,4,5,5,6,6],"right_children":[2,4,6,8,10,12,14,-1,-1,-1,-1,-1,-1,-1,-1],"split_conditions":[1E0,1E0,1E0,1E0,1E0,1E0,1E0,5.8157522E-2,-1.1880449E-1,-5.851912E-2,-2.2030234E-1,-1.9820343E-1,-7.7188924E-2,8.030369E-4,1.8532549E-1],"split_indices":[27,5,33,34,7,32,16,0,0,0,0,0,0,0,0],"split_type":[0,0,0,0,0,0,0,0,0,0,0,0,0,0,0],"sum_hessian":[2.7261948E6,2.4931582E6,2.3303647E5,2.3187805E6,1.7437762E5,2.122543E5,2.078218E4,2.0817636E6,2.3701697E5,5.455092E4,1.1982671E5,1.6807988E5,4.4174418E4,1.6843283E4,3.9388955E3],"tree_param":{"num_deleted":"0","num_feature":"39","num_nodes":"15","size_leaf_vector":"0"}},{"base_weights":[2.403929E-2,3.3419482E-2,-2.2999267E-1,4.645E-2,-1.5095547E-1,-2.6667085E-1,-1.4208125E-1,-7.1812846E-4,7.8407094E-2,-1.4148666E-1,2.7037764E-2,-2.319446E-1,-9.3029834E-2,-1.511394E-1,5.456112E-3],"categories":[],"categories_nodes":[],"categories_segments":[],"categories_sizes":[],"default_left":[0,0,0,0,0,0,0,0,0,0,0,0,0,0,0],"id":73,"left_children":[1,3,5,7,9,11,13,-1,-1,-1,-1,-1,-1,-1,-1],"loss_changes":[6.4386157E3,6.260496E3,3.1021875E2,5.9414077E3,8.2316895E2,2.374497E2,1.9759381E2,0E0,0E0,0E0,0E0,0E0,0E0,0E0,0E0],"parents":[2147483647,0,0,1,1,2,2,3,3,4,4,5,5,6,6],"right_children":[2,4,6,8,10,12,14,-1,-1,-1,-1,-1,-1,-1,-1],"split_conditions":[1E0,1E0,1E0,1E0,1E0,1E0,1E0,-7.1812846E-4,7.8407094E-2,-1.4148666E-1,2.7037764E-2,-2.319446E-1,-9.3029834E-2,-1.511394E-1,5.456112E-3],"split_indices":[11,13,3,7,22,9,22,0,0,0,0,0,0,0,0],"split_type":[0,0,0,0,0,0,0,0,0,0,0,0,0,0,0],"sum_hessian":[2.70204E6,2.6058202E6,9.621967E4,2.4338138E6,1.7200664E5,6.7891945E4,2.832773E4,1.2687204E6,1.1650934E6,1.5085622E5,2.1150426E4,5.879687E4,9.095074E3,2.1548502E4,6.7792275E3],"tree_param":{"num_deleted":"0","num_feature":"39","num_nodes":"15","size_leaf_vector":"0"}},{"base_weights":[1.9145494E-2,3.1740557E-2,-9.004552E-2,4.343803E-2,-1.1158703E-1,-1.420489E-1,-6.1733678E-2,5.4572977E-2,-2.9680183E-2,5.6483712E-2,-9.741778E-2,-1.0219029E-1,-2.2198866E-1,-6.039076E-2,5.8259238E-2],"categories":[],"categories_nodes":[],"categories_segments":[],"categories_sizes":[],"default_left":[0,0,0,0,0,0,0,0,0,0,0,0,0,0,0],"id":74,"left_children":[1,3,5,7,9,11,13,-1,-1,-1,-1,-1,-1,-1,-1],"loss_changes":[3.7365674E3,4.0841057E3,4.136936E2,4.494432E3,3.41094E2,1.9194788E2,3.367406E2,0E0,0E0,0E0,0E0,0E0,0E0,0E0,0E0],"parents":[2147483647,0,0,1,1,2,2,3,3,4,4,5,5,6,6],"right_children":[2,4,6,8,10,12,14,-1,-1,-1,-1,-1,-1,-1,-1],"split_conditions":[1E0,1E0,1E0,1E0,1E0,1E0,1E0,5.4572977E-2,-2.9680183E-2,5.6483712E-2,-9.741778E-2,-1.0219029E-1,-2.2198866E-1,-6.039076E-2,5.8259238E-2],"split_indices":[24,27,7,26,1,13,33,0,0,0,0,0,0,0,0],"split_type":[0,0,0,0,0,0,0,0,0,0,0,0,0,0,0],"sum_hessian":[2.7169718E6,2.4359842E6,2.8098738E5,2.252177E6,1.8380744E5,9.904919E4,1.819382E5,1.722299E6,5.2987794E5,9.731181E3,1.7407625E5,8.9585055E4,9.464127E3,1.6506531E5,1.6872887E4],"tree_param":{"num_deleted":"0","num_feature":"39","num_nodes":"15","size_leaf_vector":"0"}},{"base_weights":[-2.6094267E-2,-4.029772E-1,2.2940721E-2,4.422962E-2,-3.8748246E-2,5.0632525E-2,-4.1480508E-2,-5.8711704E-2,1.4479796E-2],"categories":[],"categories_nodes":[],"categories_segments":[],"categories_sizes":[],"default_left":[0,0,0,0,0,0,0,0,0],"id":75,"left_children":[1,-1,3,5,7,-1,-1,-1,-1],"loss_changes":[5.6726383E4,0E0,2.884748E3,2.9907036E3,1.1098115E3,0E0,0E0,0E0,0E0],"parents":[2147483647,0,0,2,2,3,3,4,4],"right_children":[2,-1,4,6,8,-1,-1,-1,-1],"split_conditions":[1E0,-4.029772E-1,1E0,1E0,1E0,5.0632525E-2,-4.1480508E-2,-5.8711704E-2,1.4479796E-2],"split_indices":[3,0,22,5,12,0,0,0,0],"split_type":[0,0,0,0,0,0,0,0,0],"sum_hessian":[2.4220868E6,2.2550803E5,2.1965788E6,1.6330222E6,5.635566E5,1.3626842E6,2.7033794E5,3.5017228E5,2.1338433E5],"tree_param":{"num_deleted":"0","num_feature":"39","num_nodes":"9","size_leaf_vector":"0"}},{"base_weights":[1.5827904E-2,2.5197458E-2,-6.0614225E-2,1.8617996E-3,5.1762126E-2,2.772449E-1,-7.150365E-2,-2.1368379E-2,4.1755352E-2,1.070964E-2,1.194438E-1,4.654757E-1,-1.8099714E-2,-7.51374E-2,5.3478844E-2],"categories":[],"categories_nodes":[],"categories_segments":[],"categories_sizes":[],"default_left":[0,0,0,0,0,0,0,0,0,0,0,0,0,0,0],"id":76,"left_children":[1,3,5,7,9,11,13,-1,-1,-1,-1,-1,-1,-1,-1],"loss_changes":[1.9627161E3,1.5132695E3,1.1008462E3,1.8688989E3,4.2731885E3,8.5339276E2,8.9906396E2,0E0,0E0,0E0,0E0,0E0,0E0,0E0,0E0],"parents":[2147483647,0,0,1,1,2,2,3,3,4,4,5,5,6,6],"right_children":[2,4,6,8,10,12,14,-1,-1,-1,-1,-1,-1,-1,-1],"split_conditions":[1E0,1E0,1E0,1E0,1E0,1E0,1E0,-2.1368379E-2,4.1755352E-2,1.070964E-2,1.194438E-1,4.654757E-1,-1.8099714E-2,-7.51374E-2,5.3478844E-2],"split_indices":[20,7,1,8,10,7,6,0,0,0,0,0,0,0,0],"split_type":[0,0,0,0,0,0,0,0,0,0,0,0,0,0,0],"sum_hessian":[2.7403448E6,2.4411342E6,2.9921053E5,1.2995496E6,1.1415846E6,9.341871E3,2.8986866E5,8.2896825E5,4.7058134E5,8.192699E5,3.223148E5,4.633917E3,4.7079536E3,2.4944914E5,4.0419527E4],"tree_param":{"num_deleted":"0","num_feature":"39","num_nodes":"15","size_leaf_vector":"0"}},{"base_weights":[1.983158E-2,3.898885E-2,-3.370749E-2,5.245538E-2,-8.999616E-2,-4.4538737E-3,-6.8411775E-2,2.5799906E-2,1.2910156E-1,-9.901158E-2,1.955938E-2,-2.4257673E-2,6.852417E-2,-6.284563E-2,5.626526E-2],"categories":[],"categories_nodes":[],"categories_segments":[],"categories_sizes":[],"default_left":[0,0,0,0,0,0,0,0,0,0,0,0,0,0,0],"id":77,"left_children":[1,3,5,7,9,11,13,-1,-1,-1,-1,-1,-1,-1,-1],"loss_changes":[2.8195522E3,3.5166519E3,7.3546063E2,4.0344937E3,7.396609E2,9.162697E2,4.6640442E2,0E0,0E0,0E0,0E0,0E0,0E0,0E0,0E0],"parents":[2147483647,0,0,1,1,2,2,3,3,4,4,5,5,6,6],"right_children":[2,4,6,8,10,12,14,-1,-1,-1,-1,-1,-1,-1,-1],"split_conditions":[1E0,1E0,1E0,1E0,1E0,1E0,1E0,2.5799906E-2,1.2910156E-1,-9.901158E-2,1.955938E-2,-2.4257673E-2,6.852417E-2,-6.284563E-2,5.626526E-2],"split_indices":[12,13,7,20,4,8,27,0,0,0,0,0,0,0,0],"split_type":[0,0,0,0,0,0,0,0,0,0,0,0,0,0,0],"sum_hessian":[2.7490038E6,2.024574E6,7.244299E5,1.8331832E6,1.9139078E5,3.930845E5,3.3134534E5,1.5463321E6,2.868511E5,1.4778514E5,4.360564E4,3.0540928E5,8.7675234E4,3.087679E5,2.2577451E4],"tree_param":{"num_deleted":"0","num_feature":"39","num_nodes":"15","size_leaf_vector":"0"}},{"base_weights":[-2.9119879E-2,-4.030192E-1,2.4910176E-2,4.5132354E-2,-8.535007E-2,6.330619E-2,-2.0315608E-2,-1.0679237E-1,4.704554E-2],"categories":[],"categories_nodes":[],"categories_segments":[],"categories_sizes":[],"default_left":[0,0,0,0,0,0,0,0,0],"id":78,"left_children":[1,-1,3,5,7,-1,-1,-1,-1],"loss_changes":[5.8558246E4,0E0,4.570921E3,4.153958E3,2.2048535E3,0E0,0E0,0E0,0E0],"parents":[2147483647,0,0,2,2,3,3,4,4],"right_children":[2,-1,4,6,8,-1,-1,-1,-1],"split_conditions":[1E0,-4.030192E-1,1E0,1E0,1E0,6.330619E-2,-2.0315608E-2,-1.0679237E-1,4.704554E-2],"split_indices":[4,0,15,16,3,0,0,0,0],"split_type":[0,0,0,0,0,0,0,0,0],"sum_hessian":[2.2833638E6,2.333526E5,2.0500112E6,1.7323008E6,3.1771047E5,1.1688219E6,5.634789E5,2.3817378E5,7.953668E4],"tree_param":{"num_deleted":"0","num_feature":"39","num_nodes":"9","size_leaf_vector":"0"}},{"base_weights":[-5.694888E-2,-4.0302792E-1,1.5747009E-2,-1.0644734E-2,1.353249E-1,6.7524277E-3,-1.9678922E-1,1.4952211E-1,1.8854467E-2],"categories":[],"categories_nodes":[],"categories_segments":[],"categories_sizes":[],"default_left":[0,0,0,0,0,0,0,0,0],"id":79,"left_children":[1,-1,3,5,7,-1,-1,-1,-1],"loss_changes":[6.2168125E4,0E0,5.194754E3,6.0566436E3,1.7154839E3,0E0,0E0,0E0,0E0],"parents":[2147483647,0,0,2,2,3,3,4,4],"right_children":[2,-1,4,6,8,-1,-1,-1,-1],"split_conditions":[1E0,-4.0302792E-1,1E0,1E0,1E0,6.7524277E-3,-1.9678922E-1,1.4952211E-1,1.8854467E-2],"split_indices":[5,0,3,22,4,0,0,0,0],"split_type":[0,0,0,0,0,0,0,0,0],"sum_hessian":[1.9138569E6,2.6779703E5,1.6460599E6,1.3484481E6,2.9761178E5,1.2472982E6,1.0114988E5,2.0363156E5,9.398023E4],"tree_param":{"num_deleted":"0","num_feature":"39","num_nodes":"9","size_leaf_vector":"0"}},{"base_weights":[6.156332E-3,2.2470148E-2,-2.80586E-1,5.4205813E-2,-8.261749E-2,-3.0604497E-1,-1.762571E-1,2.1059005E-2,1.7507558E-1,-2.7372574E-2,-1.3987832E-1,-2.7475598E-1,-1.4780357E-1,-2.868135E-1,-7.008727E-2],"categories":[],"categories_nodes":[],"categories_segments":[],"categories_sizes":[],"default_left":[0,0,0,0,0,0,0,0,0,0,0,0,0,0,0],"id":80,"left_children":[1,3,5,7,9,11,13,-1,-1,-1,-1,-1,-1,-1,-1],"loss_changes":[1.2184119E4,8.218922E3,3.7235938E2,8.688873E3,2.551746E3,5.1119727E2,4.443778E2,0E0,0E0,0E0,0E0,0E0,0E0,0E0,0E0],"parents":[2147483647,0,0,1,1,2,2,3,3,4,4,5,5,6,6],"right_children":[2,4,6,8,10,12,14,-1,-1,-1,-1,-1,-1,-1,-1],"split_conditions":[1E0,1E0,1E0,1E0,1E0,1E0,1E0,2.1059005E-2,1.7507558E-1,-2.7372574E-2,-1.3987832E-1,-2.7475598E-1,-1.4780357E-1,-2.868135E-1,-7.008727E-2],"split_indices":[11,3,34,22,7,35,17,0,0,0,0,0,0,0,0],"split_type":[0,0,0,0,0,0,0,0,0,0,0,0,0,0,0],"sum_hessian":[2.6046318E6,2.4644228E6,1.4020908E5,1.8928092E6,5.7161344E5,1.1270434E5,2.7504732E4,1.6186818E6,2.7412753E5,3.7488053E5,1.967329E5,8.6140914E4,2.6563428E4,8.999263E3,1.8505469E4],"tree_param":{"num_deleted":"0","num_feature":"39","num_nodes":"15","size_leaf_vector":"0"}},{"base_weights":[1.1725747E-2,2.539618E-2,-8.897306E-2,1.4188158E-2,1.316406E-1,-1.1053131E-1,3.0643353E-2,-3.2892916E-3,7.344803E-2,1.15109496E-1,-1.5728241E-1,-9.5411494E-2,3.375181E-2,9.011078E-2,-2.6291966E-2],"categories":[],"categories_nodes":[],"categories_segments":[],"categories_sizes":[],"default_left":[0,0,0,0,0,0,0,0,0,0,0,0,0,0,0],"id":81,"left_children":[1,3,5,7,9,11,13,-1,-1,-1,-1,-1,-1,-1,-1],"loss_changes":[3.815793E3,2.906217E3,8.5439233E2,3.135938E3,9.362095E2,3.7441772E2,2.6347495E2,0E0,0E0,0E0,0E0,0E0,0E0,0E0,0E0],"parents":[2147483647,0,0,1,1,2,2,3,3,4,4,5,5,6,6],"right_children":[2,4,6,8,10,12,14,-1,-1,-1,-1,-1,-1,-1,-1],"split_conditions":[1E0,1E0,1E0,1E0,1E0,1E0,1E0,-3.2892916E-3,7.344803E-2,1.15109496E-1,-1.5728241E-1,-9.5411494E-2,3.375181E-2,9.011078E-2,-2.6291966E-2],"split_indices":[22,34,5,20,23,11,3,0,0,0,0,0,0,0,0],"split_type":[0,0,0,0,0,0,0,0,0,0,0,0,0,0,0],"sum_hessian":[2.7719018E6,2.44058E6,3.3132175E5,2.2076862E6,2.3289384E5,2.8072694E5,5.0594824E4,1.7865082E6,4.211779E5,2.2451798E5,8.375864E3,2.6554262E5,1.5184314E4,2.2082934E4,2.851189E4],"tree_param":{"num_deleted":"0","num_feature":"39","num_nodes":"15","size_leaf_vector":"0"}},{"base_weights":[1.641167E-2,-8.585755E-3,8.2892E-2,-3.8610272E-2,6.2141005E-2,5.163585E-2,1.769052E-1,-5.4442327E-2,2.3332177E-2,-2.2702713E-2,8.32651E-2,6.260718E-2,-5.294928E-2,1.7663574E-1,-2.5482565E-2],"categories":[],"categories_nodes":[],"categories_segments":[],